[{"weight": [[1.7264248132705688, 1.5735706090927124], [0.5592385530471802, -0.09791190922260284], [0.6725778579711914, -1.6382439136505127], [0.3943606913089752, 1.040511131286621], [-0.44304707646369934, -1.5116949081420898], [0.050794947892427444, -1.3288841247558594], [1.6757737398147583, 1.9408823251724243], [1.1448652744293213, -0.49442148208618164], [0.46331077814102173, -0.8470706939697266], [1.55967378616333, 0.8102809190750122], [-0.5037491321563721, -1.13614022731781], [-1.270072340965271, -1.6638771295547485], [-1.4569427967071533, 1.1637516021728516], [-0.8716360330581665, -1.6768029928207397], [0.1193075105547905, -0.5291681289672852], [-1.6421743631362915, -1.2605819702148438], [-0.17599616944789886, -0.3937634825706482], [1.2277551889419556, 0.46026188135147095], [-1.7527978420257568, 1.1404407024383545], [-0.2745663821697235, 0.10239988565444946], [1.2484841346740723, 0.7971753478050232], [1.9162445068359375, 1.54595947265625], [-0.6190899014472961, 0.7434996962547302], [-0.5777246356010437, 1.5688375234603882], [0.6402429342269897, -1.0706770420074463], [1.4422013759613037, -1.2122070789337158], [0.503276526927948, -0.6930293440818787], [0.15061219036579132, -0.33656156063079834], [-1.36920964717865, 0.3349677622318268], [-1.7240431308746338, -1.549759864807129], [-1.1007616519927979, -1.7857542037963867], [1.211466670036316, 0.5599808096885681], [1.59933340549469, 1.3566612005233765], [-1.5352022647857666, 1.238883137702942], [-1.5338276624679565, 1.554888367652893], [0.5362238883972168, 0.5243522524833679], [1.0417026281356812, -1.418497920036316], [0.3798861503601074, -0.946007490158081], [-0.3026062548160553, -1.3975809812545776], [0.450987309217453, -1.392012357711792], [-1.847217321395874, -1.4388484954833984], [0.5504779815673828, 0.06789106875658035], [1.575284719467163, -1.6334266662597656], [-0.0031933863647282124, 1.5536460876464844], [1.6129367351531982, -1.6067308187484741], [0.5446903705596924, 1.1819902658462524], [-1.1103636026382446, 1.26984441280365], [-0.428758442401886, -0.6388998627662659], [1.7636818885803223, 1.442893385887146], [1.2428425550460815, 0.25392231345176697], [-0.626916229724884, -1.7329968214035034], [1.235245704650879, -1.6672546863555908], [0.2371775209903717, 1.0782170295715332], [-0.8039674758911133, 1.039077639579773], [-1.3853107690811157, 1.3694719076156616], [1.3294707536697388, -1.5472848415374756], [-0.21766076982021332, -0.19760802388191223], [0.44640663266181946, -1.7846004962921143], [-1.408944010734558, 0.2888146638870239], [1.3089687824249268, -1.3817585706710815], [-1.3990892171859741, 0.8928040862083435], [-0.8886072039604187, 1.4612587690353394], [1.3157604932785034, -1.4535633325576782], [0.15246134996414185, 1.551378607749939], [0.14988546073436737, 0.17454688251018524], [-0.9035424590110779, -1.724029779434204], [-0.33455538749694824, 1.5888890027999878], [0.25673720240592957, 0.41377612948417664], [1.5844796895980835, -1.1073330640792847], [-0.055380821228027344, -0.3817853033542633], [-0.5819345116615295, -1.2243189811706543], [0.695244312286377, 0.8454025983810425], [0.28655773401260376, -0.3239212930202484], [-0.38600611686706543, -0.8963825106620789], [-1.203525424003601, -0.9818373918533325], [-1.2977790832519531, -0.22861531376838684], [-1.1308828592300415, 1.5081881284713745], [0.24272219836711884, 0.967475950717926], [1.6839280128479004, 1.364297866821289], [-1.3686712980270386, -1.4865930080413818], [-0.7882999181747437, -0.4519518315792084], [-1.0670920610427856, 0.8053218126296997], [0.43939489126205444, 0.7536315321922302], [0.09125594049692154, 0.6143574118614197], [-0.5599641799926758, -0.5840528607368469], [-1.698867917060852, -1.5032004117965698], [0.586532711982727, -1.7839221954345703], [-1.1240735054016113, 0.9917904138565063], [0.37416547536849976, -0.3431030809879303], [-0.052440520375967026, 0.7313734292984009], [0.24656905233860016, 0.43875014781951904], [0.23625372350215912, 1.5913782119750977], [0.4997974932193756, -0.10593892633914948], [-1.3559279441833496, -1.5345616340637207], [0.7700923681259155, -0.9485023617744446], [1.1557013988494873, 1.3368288278579712], [-1.3040282726287842, -1.0376533269882202], [-0.4005374312400818, -1.11208176612854], [1.2703663110733032, -1.0523340702056885], [0.45030778646469116, -0.14303381741046906], [-1.1912384033203125, 0.3522246778011322], [-0.24572351574897766, -0.637601912021637], [-0.015406159684062004, 0.7073463797569275], [0.4482991397380829, 0.24152004718780518], [-1.4190778732299805, 0.4956391155719757], [1.3108524084091187, -1.6907944679260254], [1.600707769393921, -1.809273600578308], [-0.872611939907074, -0.8616292476654053], [0.7681459784507751, 0.3206854462623596], [0.009331696666777134, 1.6452709436416626], [1.5246024131774902, 1.3980178833007812], [0.3531482517719269, 0.05354228615760803], [-1.085084319114685, 0.036442097276449203], [0.3581039011478424, -0.10265987366437912], [-1.0522456169128418, 0.8727335929870605], [-0.056112196296453476, 0.9833717942237854], [-1.199695348739624, -1.7560451030731201], [-0.9868408441543579, -1.4772785902023315], [-0.23450936377048492, -0.871818482875824], [0.04450966790318489, 1.8922513723373413], [1.4039806127548218, 0.5925074219703674], [1.4193544387817383, 0.8278826475143433], [-1.3845906257629395, 0.7252790927886963], [1.3376431465148926, -1.3226609230041504], [-0.8143985271453857, -0.17460863292217255], [1.5475374460220337, 0.3522135019302368], [0.590781033039093, -1.5989657640457153], [-0.5351472496986389, -0.3850238025188446]], "bias": [0.5769519209861755, 0.010048368945717812, 0.5165929198265076, 1.4691498279571533, 0.7073709964752197, 1.2000479698181152, 1.0127116441726685, 0.5298463702201843, 1.3045421838760376, 0.24093887209892273, 1.421667218208313, 0.7397003173828125, 0.1021469384431839, 1.053223729133606, 1.0613493919372559, 0.028889482840895653, 1.188728928565979, 0.9576411843299866, 0.25141748785972595, 0.7717421650886536, 1.4858109951019287, -0.10551483184099197, 0.5726423263549805, 0.3033888638019562, 1.4381972551345825, 0.18518704175949097, 0.44327619671821594, 1.1214649677276611, 1.2341587543487549, 0.13058039546012878, 0.24978859722614288, 1.4561662673950195, 0.35758480429649353, 0.03713132068514824, 0.5642110109329224, 0.688634991645813, 0.7640490531921387, 0.7418982982635498, 0.5079200267791748, 1.1560263633728027, 0.6791298389434814, 0.1868671476840973, -0.357776403427124, 1.0265469551086426, -0.3747767210006714, 1.5397456884384155, 0.1652887612581253, 0.20648670196533203, 0.08989709615707397, 0.9538156986236572, 0.7301511168479919, 0.9914085865020752, 1.342024803161621, 1.378610372543335, 0.8050401210784912, 0.3958566188812256, 0.7869150638580322, 0.8604568839073181, 1.3281699419021606, 0.924439013004303, 1.2772070169448853, 0.45113563537597656, 1.2336583137512207, 0.421019583940506, 1.222793698310852, 0.051009681075811386, 0.6933298707008362, 0.8331267237663269, -0.08189840614795685, 0.9698161482810974, 0.9785877466201782, 1.4854120016098022, 1.473530888557434, 1.055781602859497, 1.1211241483688354, 1.5899075269699097, 0.7210390567779541, 0.889586329460144, 0.693138599395752, 0.715051531791687, 0.6154970526695251, 1.5420548915863037, 1.6208778619766235, 1.105535864830017, 1.3452932834625244, -0.08876202255487442, 0.035190265625715256, 0.555084228515625, 0.2888643741607666, 1.0369497537612915, 0.5313092470169067, 0.7967619895935059, 1.1516505479812622, 0.15705493092536926, 1.2490596771240234, 0.9465822577476501, 1.5544722080230713, 1.0587782859802246, 1.4598641395568848, 0.6307372450828552, 1.1807023286819458, 1.0923855304718018, 1.0260560512542725, 0.8182340860366821, 0.5513906478881836, 1.0927470922470093, -0.5046501159667969, 1.4428203105926514, 0.3731028437614441, 0.6226574778556824, 0.4487069845199585, 1.0463154315948486, 1.277449607849121, 0.618265688419342, 1.4553515911102295, 1.2191879749298096, 0.3501693606376648, 0.9973961710929871, 0.827932596206665, 0.24483326077461243, 1.0477418899536133, 0.1768897920846939, 0.923789918422699, 0.07146626710891724, 0.8460262417793274, -0.042304281145334244, 1.4195274114608765, 0.34818118810653687]}, {"weight": [[-0.01612227037549019, -0.0679335668683052, -0.15063638985157013, -0.04691358283162117, -0.013172633945941925, -0.09095205366611481, -0.10032161325216293, -0.03357189521193504, -0.07659478485584259, -0.11259088665246964, -0.01598578691482544, -0.08148367702960968, 0.041888508945703506, 0.0702974945306778, -0.10681590437889099, -0.04711807891726494, -0.14434503018856049, -0.14536415040493011, -0.0358307883143425, 0.004443504381924868, -0.05708036944270134, -0.020559145137667656, -0.11441122740507126, -0.07577626407146454, -0.15633666515350342, -0.05497258901596069, -0.05053176358342171, -0.1535656452178955, -0.014844519086182117, 0.1149737760424614, 0.07839322090148926, -0.15922079980373383, -0.05392714589834213, 0.08638248592615128, 0.0754024088382721, -0.08602743595838547, -0.06226778402924538, -0.07673748582601547, -0.14461521804332733, -0.10673484206199646, 0.10337984561920166, -0.12071564793586731, -0.17353396117687225, 0.011235557496547699, -0.12949620187282562, -0.10385837405920029, 0.028432438150048256, 0.013496074825525284, -0.12070672959089279, -0.02937961369752884, 0.0001500285288784653, -0.174520805478096, -0.036553651094436646, 0.04181351512670517, 0.03272584080696106, -0.1560356318950653, -0.16084475815296173, -0.029542062431573868, 0.008821110241115093, -0.19442033767700195, -0.07606502622365952, 0.0020602827426046133, -0.19444423913955688, -0.019045807421207428, -0.19806906580924988, -0.07735628634691238, -0.042664092034101486, -0.18919526040554047, -0.06293171644210815, -0.04240148514509201, -0.03840121999382973, -0.08748170733451843, -0.09205318242311478, -0.13067983090877533, 0.019152699038386345, -0.029148012399673462, 0.051651909947395325, -0.04253026843070984, -0.09645438939332962, -0.029664522036910057, -0.08135747164487839, -0.003880734322592616, -0.12039586901664734, -0.047540150582790375, 0.01074459869414568, 0.0724787637591362, -0.0564609132707119, -0.06231863051652908, -0.08286091685295105, -0.02116200514137745, -0.20097528398036957, -0.10209633409976959, -0.15308259427547455, -0.06104572117328644, -0.048339031636714935, -0.03289373591542244, -0.016694560647010803, -0.06455078721046448, -0.02618980221450329, -0.1385364532470703, -0.05341421812772751, -0.08523601293563843, -0.07310844957828522, -0.15249109268188477, 0.010423545725643635, -0.021337581798434258, -0.1493111103773117, -0.07721912860870361, -0.07224863022565842, -0.14991609752178192, -0.11118221282958984, -0.11055980622768402, -0.07678358256816864, -0.07327324897050858, 0.07023035734891891, -0.028576184064149857, -0.06628262251615524, -0.027047716081142426, -0.08830640465021133, -0.019007224589586258, -0.11614774167537689, -0.11001778393983841, -0.00035215308889746666, -0.17743538320064545, -0.02528165467083454, -0.0951470211148262, -0.023081006482243538, -0.13631539046764374], [0.2186940461397171, 0.043448783457279205, -0.4412490129470825, 0.22226309776306152, -0.4093409776687622, -0.44229063391685486, 0.2057994306087494, -0.09803203493356705, -0.1298595368862152, 0.13234373927116394, -0.2147393673658371, -0.38808757066726685, 0.2331763505935669, -0.40397587418556213, -0.1347324699163437, -0.12484700977802277, -0.13227088749408722, 0.14371396601200104, 0.31836599111557007, 0.021421698853373528, 0.2019501030445099, 0.12551230192184448, 0.15977421402931213, 0.36908602714538574, -0.2662336826324463, -0.2073800414800644, -0.23157422244548798, -0.12891705334186554, 0.18498317897319794, -0.21794576942920685, -0.5468577146530151, 0.1829143911600113, 0.12228845059871674, 0.30622729659080505, 0.2739156484603882, 0.21088984608650208, -0.21374671161174774, -0.18088972568511963, -0.5117290019989014, -0.35176193714141846, -0.04869909584522247, -0.05058223381638527, -0.5235732197761536, 0.3080589771270752, -0.3916434645652771, 0.32726436853408813, 0.29513293504714966, -0.2605995237827301, 0.12017849832773209, -0.018669502809643745, -0.5130061507225037, -0.27390986680984497, 0.24475687742233276, 0.24610401690006256, 0.2201489359140396, -0.3670133054256439, -0.10244614630937576, -0.6327399015426636, 0.08398628234863281, -0.20786188542842865, 0.17158174514770508, 0.36721524596214294, -0.32488763332366943, 0.2703959047794342, -0.008357417769730091, -0.558460533618927, 0.2850362956523895, 0.1721002757549286, -0.20622535049915314, -0.038020823150873184, -0.36907070875167847, 0.11196161061525345, -0.011853438802063465, -0.27469000220298767, -0.22160989046096802, 0.10497095435857773, 0.3315857946872711, 0.2507599890232086, 0.1051977202296257, -0.364590585231781, -0.014601719565689564, 0.25077933073043823, 0.08973117917776108, 0.15375493466854095, -0.18846331536769867, -0.2768538296222687, -0.5262560248374939, 0.22267143428325653, -0.11307096481323242, 0.1280457228422165, 0.1983504444360733, 0.27026620507240295, -0.07671111077070236, -0.42903903126716614, -0.16636861860752106, 0.306057870388031, -0.15548062324523926, -0.22479453682899475, -0.22191138565540314, -0.10841305553913116, 0.19414964318275452, -0.18274004757404327, 0.11141635477542877, 0.02802507020533085, 0.15993237495422363, -0.4176410734653473, -0.6661701798439026, -0.16362643241882324, -0.0030291059520095587, 0.2866654694080353, 0.2631019353866577, 0.12048237770795822, 0.07267715781927109, -0.03811443969607353, 0.13085344433784485, 0.28587281703948975, -0.549668550491333, -0.42844775319099426, -0.20033900439739227, 0.4393038749694824, 0.15038925409317017, 0.15693241357803345, 0.17825430631637573, -0.26226818561553955, -0.0026958684902638197, -0.02359010837972164, -0.4829285144805908, -0.007660948671400547], [-0.11070569604635239, -0.2289469838142395, -0.07975796610116959, -0.318750262260437, -0.03634289279580116, -0.09623859822750092, -0.12904402613639832, -0.33600640296936035, -0.07864794880151749, -0.12734022736549377, -0.08128398656845093, 0.11385607719421387, -0.21158041059970856, 0.03385116904973984, -0.0747164860367775, 0.12058285623788834, -0.015820180997252464, -0.18905311822891235, -0.15198630094528198, -0.11908169090747833, -0.3078997731208801, -0.12673915922641754, -0.25404033064842224, -0.27234718203544617, -0.0814548060297966, -0.21847228705883026, -0.21175019443035126, -0.1794593781232834, -0.02909664250910282, 0.10647489875555038, 0.12901782989501953, -0.24168254435062408, -0.05154094472527504, -0.18272456526756287, -0.13105487823486328, -0.30572938919067383, -0.11554493755102158, -0.1139460951089859, 0.06887395679950714, -0.014853585511446, -0.05312709882855415, -0.31631916761398315, -0.265267938375473, -0.38925155997276306, -0.2985459566116333, -0.36954665184020996, -0.26815757155418396, -0.00188847491517663, -0.09191449731588364, -0.23765771090984344, -0.04548086225986481, -0.19771482050418854, -0.37780964374542236, -0.23313583433628082, -0.1522257924079895, -0.23362906277179718, -0.06720560789108276, -0.08350861817598343, -0.05862089991569519, -0.1159123033285141, -0.11452541500329971, -0.31150755286216736, -0.14941534399986267, -0.3742097318172455, -0.15443822741508484, 0.1291026622056961, -0.40862837433815, -0.2913609445095062, -0.308714896440506, -0.1312939077615738, -0.05165648087859154, -0.34384647011756897, -0.1292850822210312, -0.05586743727326393, 0.04855281114578247, -0.06522934138774872, -0.18627460300922394, -0.29072892665863037, -0.04654710739850998, 0.05069814622402191, -0.07325872033834457, -0.12741459906101227, -0.24044348299503326, -0.20700927078723907, -0.03517088294029236, -0.0022800681181252003, -0.0065591405145823956, -0.13961535692214966, -0.2372080236673355, -0.3051481246948242, -0.2840154469013214, -0.3213971257209778, -0.3062136173248291, 0.03755269572138786, -0.16661158204078674, -0.2814880907535553, -0.08047731220722198, -0.04978105425834656, -0.20993664860725403, -0.27951014041900635, -0.0008509365143254399, -0.14099472761154175, -0.17330344021320343, -0.3116965889930725, -0.14018046855926514, -0.08743160218000412, -0.15555880963802338, -0.016816210001707077, -0.28106051683425903, -0.33416011929512024, -0.2706020176410675, -0.2402687668800354, -0.13367077708244324, -0.26062294840812683, -0.2180907279253006, -0.3374418020248413, -0.03578270971775055, 0.04330366104841232, 0.04301963001489639, -0.2969536781311035, -0.16213609278202057, -0.19092433154582977, -0.08340198546648026, -0.26137033104896545, -0.12546329200267792, -0.17796270549297333, -0.01342700608074665, -0.04359149932861328], [-0.16811920702457428, 0.18623095750808716, 0.02001543901860714, 0.20032291114330292, -0.013334943912923336, 0.06373203545808792, -0.27335941791534424, -0.02672811597585678, 0.11031614989042282, -0.07167394459247589, 0.18702548742294312, 0.08106430619955063, -0.19651846587657928, -0.020853564143180847, 0.20176421105861664, -0.05523651838302612, 0.09002696722745895, -0.02280808985233307, -0.27364015579223633, 0.20608626306056976, 0.09636479616165161, -0.16517102718353271, 0.12289892882108688, -0.24118398129940033, 0.05087921768426895, -0.10838180035352707, 0.04992862045764923, 0.22183695435523987, 0.06151636317372322, 0.019474642351269722, -0.011045088991522789, -0.01621297374367714, -0.23453953862190247, -0.2036265879869461, -0.1724316030740738, 0.1617070436477661, -0.014207586646080017, 0.03216446191072464, 0.09438763558864594, -0.03172002360224724, -0.08146286010742188, 0.2205013930797577, -0.23739048838615417, -0.13348251581192017, -0.20986899733543396, 0.12501592934131622, -0.2415311485528946, 0.06386867165565491, -0.21507927775382996, 0.028185226023197174, -0.04493320360779762, -0.0728541687130928, 0.05556469038128853, 0.0692555233836174, -0.2133433222770691, -0.07021759450435638, 0.1499621421098709, -0.05760279297828674, 0.039509497582912445, -0.1054944172501564, -0.045854829251766205, -0.15643449127674103, -0.06452082842588425, -0.13699686527252197, 0.21339517831802368, -0.01914292946457863, -0.1418493688106537, 0.24529524147510529, -0.26320457458496094, 0.15336890518665314, -0.005779728293418884, 0.09477728605270386, 0.08792135119438171, 0.04664579778909683, 0.12557730078697205, 0.09418760985136032, -0.11438500881195068, 0.19492194056510925, -0.14022521674633026, 0.0729575827717781, 0.10134325176477432, 0.08287601917982101, 0.21701382100582123, 0.29441702365875244, 0.14984309673309326, -0.040225278586149216, -0.04323326796293259, -0.10224837809801102, 0.06549721211194992, 0.18565277755260468, 0.15035825967788696, -0.14353232085704803, 0.25852829217910767, -0.06233164295554161, 0.12467028945684433, -0.15761543810367584, 0.1499728560447693, 0.10742228478193283, 0.02477247640490532, 0.21862918138504028, 0.0075225913897156715, 0.05157708004117012, 0.224197655916214, 0.16062460839748383, -0.11628887802362442, 0.03519972413778305, -0.2935952842235565, 0.10995472222566605, 0.17835596203804016, -0.08178246766328812, -0.14160603284835815, 0.11824585497379303, 0.1443938910961151, 0.13882386684417725, 0.1442660391330719, 0.09016294032335281, -0.0607975497841835, 0.008873890154063702, 0.08637816458940506, -0.3179001808166504, 0.052377328276634216, -0.14708232879638672, 0.03719872236251831, -0.17689873278141022, 0.15678006410598755, -0.17934682965278625, 0.07422975450754166, 0.1784764677286148], [-1.0983027219772339, -0.5723849534988403, -0.30846166610717773, -0.4312629997730255, 0.27675947546958923, 0.04777432233095169, -0.9564722180366516, -0.969393789768219, -0.3076647222042084, -0.8450720310211182, 0.21732881665229797, 0.310880571603775, 0.21307338774204254, 0.2787831723690033, -0.051689211279153824, 0.5511841177940369, 0.06139295548200607, -0.8727847933769226, 0.372359961271286, -0.035637807101011276, -0.850461483001709, -0.8867831826210022, -0.0004087086417712271, -0.28652262687683105, -0.38918983936309814, -1.3301712274551392, -0.45996421575546265, -0.022816713899374008, 0.24303553998470306, 0.5714512467384338, 0.32059022784233093, -0.811940610408783, -0.8216109871864319, 0.20952719449996948, 0.18092526495456696, -0.6124266386032104, -0.8333361148834229, -0.27543067932128906, 0.2297116369009018, -0.17315411567687988, 0.4428499639034271, -0.554938554763794, -1.5423818826675415, -0.48405882716178894, -1.5149704217910767, -0.5312115550041199, 0.12615205347537994, 0.2862531840801239, -0.9105105400085449, -0.8868212699890137, 0.2787103056907654, -0.892318844795227, -0.5185529589653015, 0.10334444791078568, 0.07448244094848633, -1.059228539466858, 0.0008035132195800543, -0.12730661034584045, 0.2304181158542633, -1.0372980833053589, 0.2663196623325348, -0.09376578032970428, -0.9640370607376099, -0.5006590485572815, -0.21948717534542084, 0.4030221700668335, -0.3179886043071747, -0.3673149645328522, -1.602915644645691, -0.0026252376846969128, 0.23975156247615814, -0.513226330280304, -0.24518761038780212, 0.10389304906129837, 0.4149723947048187, 0.2539336383342743, 0.039289578795433044, -0.4427052438259125, -0.8593722581863403, 0.35451215505599976, 0.33014219999313354, 0.13145498931407928, -0.42911848425865173, -0.2594050168991089, 0.10186781734228134, 0.5839287042617798, -0.3467080295085907, 0.08345920592546463, -0.36529186367988586, -0.2319372594356537, -0.4186665117740631, -0.5754205584526062, -0.49756816029548645, 0.4758681654930115, -0.5472912788391113, -0.7979965209960938, 0.2609120011329651, 0.1392209231853485, -0.9637477397918701, -0.39620697498321533, 0.33130985498428345, 0.05528569966554642, -0.2570858299732208, -0.5195425748825073, 0.3655187785625458, -0.8307525515556335, -1.5388500690460205, 0.19869650900363922, -0.7275140285491943, -0.5155189633369446, -0.9889392256736755, -0.2642557621002197, 0.2607589364051819, -0.3092113435268402, 0.1931942105293274, -0.3910157382488251, 0.3193325996398926, 0.37896156311035156, 0.13442471623420715, -0.5386017560958862, -0.8184882402420044, -0.8557683825492859, 0.2095824033021927, -1.3002122640609741, 0.32548952102661133, -0.8635690808296204, -0.19661717116832733, 0.2844114601612091], [-1.2429497241973877, -0.9292705059051514, -1.0259696245193481, -0.3843005895614624, -0.13654425740242004, -0.5370805859565735, -1.0194017887115479, -1.2375946044921875, -0.8191915154457092, -1.328287959098816, -0.15679411590099335, 0.28339481353759766, 0.5039594769477844, 0.09334232658147812, -0.5001304149627686, 0.43145161867141724, -0.21536673605442047, -1.3046165704727173, 0.5495088696479797, -0.18415087461471558, -1.2438063621520996, -1.3222161531448364, 0.13659179210662842, 0.27463069558143616, -1.0352697372436523, -1.475266456604004, -0.8024802803993225, -0.5307891964912415, 0.32895463705062866, 0.5068608522415161, 0.06585857272148132, -1.275679588317871, -1.2650105953216553, 0.5832515954971313, 0.43296873569488525, -0.7095377445220947, -1.4034146070480347, -0.8571271300315857, -0.3063824772834778, -0.8766313195228577, 0.48179498314857483, -0.9382702708244324, -1.595708966255188, -0.0883193090558052, -1.6510099172592163, -0.5530337691307068, 0.4182734489440918, 0.013140331953763962, -1.1533849239349365, -1.2816394567489624, -0.09363815933465958, -1.3881465196609497, -0.3932172358036041, 0.13726362586021423, 0.3379577100276947, -1.5447431802749634, -0.23494605720043182, -0.7650330662727356, 0.28890836238861084, -1.4495974779129028, 0.29033946990966797, 0.3153376877307892, -1.5659199953079224, -0.24701827764511108, -0.42361074686050415, -0.0016150890151038766, 0.16770662367343903, -0.5250624418258667, -1.5689780712127686, -0.2864657938480377, -0.1296987235546112, -0.82020503282547, -0.6181796789169312, -0.15678726136684418, 0.12816834449768066, 0.21563857793807983, 0.47246280312538147, -0.3377900719642639, -1.1712816953659058, 0.20304742455482483, 0.1570984572172165, 0.23176530003547668, -0.6531187295913696, -0.37303340435028076, -0.0023382825311273336, 0.5672654509544373, -0.9381860494613647, 0.28722718358039856, -0.6110492944717407, -0.17780597507953644, -0.5429699420928955, -0.16587847471237183, -0.8764829039573669, 0.3179401755332947, -1.1611323356628418, -0.8859902620315552, 0.13221322000026703, -0.08853381872177124, -1.5311022996902466, -0.8038967847824097, 0.24112772941589355, -0.17044171690940857, -0.3243609070777893, -0.7086959481239319, 0.37037500739097595, -1.5382016897201538, -1.5816924571990967, 0.037897929549217224, -1.042950987815857, -0.12626099586486816, -1.1077969074249268, -0.6074425578117371, 0.18319618701934814, -0.707399845123291, 0.3088649809360504, -0.21565154194831848, 0.26277583837509155, 0.12436622381210327, -0.15476226806640625, 0.09730404615402222, -1.334679365158081, -1.2880306243896484, 0.38072827458381653, -1.4158109426498413, 0.1080644354224205, -1.3325145244598389, -0.821976900100708, -0.02087031863629818], [-0.2186780720949173, -0.44288209080696106, -0.8930336236953735, 0.0037865859922021627, -0.28814536333084106, -0.5398064851760864, -0.08563783019781113, -0.5888891220092773, -0.4635239243507385, -0.4318141043186188, -0.20478811860084534, -0.07239129394292831, 0.42574870586395264, -0.11439675837755203, -0.25329911708831787, 0.28109797835350037, -0.12282366305589676, -0.3161715865135193, 0.3392565846443176, 0.09200157970190048, -0.34526845812797546, -0.2785852253437042, 0.19803981482982635, 0.3312166929244995, -0.6611574292182922, -1.0034388303756714, -0.4489328861236572, -0.2039625495672226, 0.20234358310699463, 0.09944730997085571, -0.2237754911184311, -0.33648309111595154, -0.2516768276691437, 0.42714592814445496, 0.45487335324287415, -0.10092201083898544, -0.9192293882369995, -0.5535791516304016, -0.4057117700576782, -0.7652495503425598, 0.17251375317573547, -0.3643386662006378, -1.1619802713394165, 0.18100407719612122, -1.1761016845703125, -0.003108848351985216, 0.2588207721710205, -0.09138670563697815, -0.1845121681690216, -0.457952082157135, -0.28744664788246155, -1.1294159889221191, 0.10025706887245178, 0.21471959352493286, 0.36985984444618225, -1.0823800563812256, -0.07894420623779297, -0.8892914652824402, 0.2702234387397766, -1.0801292657852173, 0.24787037074565887, 0.3659313917160034, -1.0196177959442139, 0.1646183878183365, -0.09311190992593765, -0.34072616696357727, 0.2509549558162689, -0.13297532498836517, -1.0591332912445068, -0.1371990293264389, -0.26771047711372375, -0.16180798411369324, -0.2318393886089325, -0.1789485365152359, -0.027890682220458984, 0.14487969875335693, 0.34249162673950195, -0.07323331385850906, -0.2946723997592926, -0.024631816893815994, -0.008423677645623684, 0.2906312048435211, -0.06640724092721939, 0.045734208077192307, 0.01379916537553072, 0.15822257101535797, -1.015402913093567, 0.3523533046245575, -0.3774481415748596, -0.016741184517741203, -0.06057941913604736, 0.06463313102722168, -0.297869473695755, -0.09015312790870667, -0.6945098042488098, -0.0934385433793068, 0.10967890918254852, -0.2654680609703064, -0.8765527009963989, -0.35196468234062195, 0.12913839519023895, -0.12852346897125244, -0.04080698639154434, -0.22453437745571136, 0.21869178116321564, -1.1123563051223755, -1.2146072387695312, -0.027160733938217163, -0.22091466188430786, 0.2164151668548584, -0.2254638522863388, -0.20691120624542236, 0.10481446236371994, -0.27113378047943115, 0.2992766201496124, 0.05356137454509735, -0.10661502927541733, -0.14326678216457367, -0.18463724851608276, 0.14829136431217194, -0.3683377504348755, -0.40191277861595154, 0.268555223941803, -1.042494773864746, 0.0028696146328002214, -0.3919195234775543, -0.800446629524231, 0.05584898963570595], [0.1036476194858551, 0.13636615872383118, 0.1145317405462265, -0.18581731617450714, -0.32154348492622375, -0.06997045874595642, 0.20922203361988068, 0.33619195222854614, 0.009493047371506691, 0.4310010075569153, -0.5302003622055054, -0.7311723828315735, -1.2923235893249512, -0.4114131033420563, -0.22240951657295227, -1.2754713296890259, -0.4028499126434326, 0.294452965259552, -1.4152052402496338, -0.528081476688385, 0.19281376898288727, 0.4781225025653839, -0.780495822429657, -0.7558674216270447, 0.1952126920223236, 0.5503445863723755, 0.07178990542888641, -0.17050902545452118, -1.3239911794662476, -1.034281611442566, -0.397513210773468, 0.1824577897787094, 0.41271111369132996, -1.3033978939056396, -1.1545149087905884, -0.07568282634019852, 0.37599045038223267, 0.011427183635532856, -0.2935522496700287, 0.03578180447220802, -1.3117706775665283, 0.01003300305455923, 0.6982027888298035, -0.44689783453941345, 0.802236795425415, -0.21254907548427582, -1.076335072517395, -0.5627691745758057, 0.38828781247138977, 0.247548907995224, -0.3661082088947296, 0.39671120047569275, -0.2779425084590912, -1.0428415536880493, -1.166290044784546, 0.3483535945415497, -0.5351273417472839, 0.12443286180496216, -1.4920732975006104, 0.393964946269989, -1.2296427488327026, -0.851112961769104, 0.3386121690273285, -0.3152958154678345, -0.19077211618423462, -0.40214675664901733, -0.5933957695960999, -0.1444735825061798, 0.6635027527809143, -0.27193519473075867, -0.41163206100463867, -0.03189142793416977, -0.10515382885932922, -0.4000724256038666, -0.9015072584152222, -1.3394908905029297, -0.9548471570014954, -0.3483067750930786, 0.3681817650794983, -0.8625514507293701, -0.852639377117157, -1.2062047719955444, -0.15183258056640625, -0.2964986264705658, -0.5543035268783569, -1.2122454643249512, 0.1647656112909317, -1.1537445783615112, 0.05050130933523178, -0.5400128364562988, -0.2068706452846527, -0.3864281475543976, -0.0022655020002275705, -0.7067143321037292, 0.1177264153957367, 0.09965797513723373, -1.0696450471878052, -0.37176674604415894, 0.3787885010242462, 0.04255476966500282, -1.2222751379013062, -0.4336584806442261, -0.42502474784851074, -0.0840766578912735, -1.4454247951507568, 0.3489019572734833, 0.8027886748313904, -0.7237197160720825, 0.12135738879442215, -0.42922937870025635, 0.11761341243982315, -0.14995674788951874, -1.2062900066375732, -0.05044177919626236, -1.157868504524231, -0.47060757875442505, -0.5841687917709351, -0.5875911712646484, -0.4004311263561249, -0.3958984315395355, 0.27622973918914795, 0.3328598737716675, -1.3215553760528564, 0.4566785991191864, -0.8858957290649414, 0.5483442544937134, 0.16266421973705292, -0.7229519486427307], [0.06202223524451256, 0.1498071253299713, 0.3235117495059967, -0.20488470792770386, -0.2897989749908447, 0.003961266949772835, 0.06360530853271484, 0.3702678084373474, 0.08486313372850418, 0.2791101932525635, -0.22518491744995117, -0.6446288228034973, -1.293665885925293, -0.354758083820343, -0.0412127822637558, -1.3252480030059814, -0.18822498619556427, 0.23874431848526, -1.4025936126708984, -0.4486468434333801, 0.07895229756832123, 0.22404645383358002, -0.6533675789833069, -1.0507230758666992, 0.13290560245513916, 0.45687243342399597, 0.22419068217277527, -0.08313161879777908, -1.1355105638504028, -1.1340250968933105, -0.475134015083313, 0.24945397675037384, 0.10274786502122879, -1.332062005996704, -1.47354257106781, 0.013292050920426846, 0.391941100358963, 0.06649450957775116, -0.20136307179927826, 0.19140323996543884, -1.3268376588821411, 0.10410861670970917, 0.714493453502655, -0.5303605794906616, 0.6703104376792908, -0.11505462974309921, -1.1617461442947388, -0.4025207757949829, 0.09157411009073257, 0.23963820934295654, -0.19538496434688568, 0.33153724670410156, -0.35562336444854736, -0.8366464972496033, -1.349663496017456, 0.3730689287185669, -0.26094329357147217, 0.11207863688468933, -1.0997889041900635, 0.42165058851242065, -1.0918656587600708, -1.1307470798492432, 0.4155643880367279, -0.648202121257782, -0.17089776694774628, -0.34506845474243164, -0.7646565437316895, -0.2091282308101654, 0.49723997712135315, -0.13551920652389526, -0.3961881995201111, -0.11183420568704605, -0.035906434059143066, -0.3139491081237793, -0.8513123393058777, -1.0560131072998047, -1.238373041152954, -0.3036225736141205, 0.154779314994812, -0.8135597109794617, -0.6826330423355103, -0.9536311030387878, -0.08395279943943024, -0.32186761498451233, -0.47899678349494934, -1.3100048303604126, 0.2061794549226761, -1.0678023099899292, 0.1266762614250183, -0.3490072786808014, -0.22910723090171814, -0.4426887333393097, 0.11732017248868942, -0.7647777199745178, 0.13397158682346344, 0.07099178433418274, -0.8217832446098328, -0.17757275700569153, 0.3989706337451935, 0.08993946015834808, -0.9775286316871643, -0.22307048738002777, -0.2684844136238098, -0.039977509528398514, -1.1164467334747314, 0.4174841046333313, 0.6387196183204651, -0.6398407220840454, 0.16737638413906097, -0.5538619756698608, 0.053124599158763885, -0.0304050762206316, -0.9169469475746155, -0.030678141862154007, -0.9105237126350403, -0.3944777548313141, -0.47769179940223694, -0.4981284737586975, -0.11156747490167618, -0.7757501006126404, 0.28313955664634705, 0.23917388916015625, -1.1128933429718018, 0.42987188696861267, -0.6191421151161194, 0.376989483833313, 0.21824786067008972, -0.40809667110443115], [0.05616314336657524, -0.438984751701355, -0.9260091185569763, 0.03419734537601471, -0.6568543314933777, -0.7084757089614868, 0.16737064719200134, -0.38777080178260803, -0.6973103880882263, 0.02289579249918461, -0.45741745829582214, -0.26987728476524353, 0.32188844680786133, -0.3934786021709442, -0.4963566064834595, 0.015223428606987, -0.28424736857414246, -0.09685071557760239, 0.3880390226840973, -0.14122772216796875, -0.1372549831867218, 0.3135268986225128, 0.1482124775648117, 0.38597142696380615, -0.7750689387321472, -0.6976529955863953, -0.6647581458091736, -0.3820037245750427, 0.15633387863636017, -0.09049686789512634, -0.6233438849449158, -0.171957865357399, 0.13312742114067078, 0.5000262260437012, 0.4093450605869293, -0.061856165528297424, -0.8368414044380188, -0.7034961581230164, -0.720820426940918, -0.8031823635101318, 0.1264900267124176, -0.35130229592323303, -0.7527286410331726, 0.2686195373535156, -0.812652587890625, 0.11350250244140625, 0.4114311635494232, -0.36278626322746277, 0.1994697004556656, -0.1441711187362671, -0.6218632459640503, -0.9126076698303223, 0.10523508489131927, 0.19233368337154388, 0.2786228656768799, -0.9407650828361511, -0.2123926281929016, -0.8950195908546448, 0.13544373214244843, -0.8326550126075745, 0.15734578669071198, 0.354167640209198, -0.704910933971405, 0.307463675737381, -0.27083489298820496, -0.6054536700248718, 0.254269540309906, -0.09579826891422272, -0.6034531593322754, -0.4469621479511261, -0.40072426199913025, 0.08129000663757324, -0.4894295036792755, -0.5348304510116577, -0.24358555674552917, -0.12790447473526, 0.3006673753261566, 0.00358129246160388, 0.18062174320220947, -0.28241315484046936, -0.22587458789348602, 0.17856265604496002, 0.003489116672426462, 0.03800423443317413, -0.4072360098361969, -0.07707753032445908, -0.8870624899864197, 0.2680453658103943, -0.4365643858909607, 0.06002083048224449, -0.12285727262496948, 0.24338848888874054, -0.37704432010650635, -0.33684206008911133, -0.6941789388656616, 0.09912470728158951, -0.20820920169353485, -0.43460503220558167, -0.6849685311317444, -0.454777330160141, -0.03856285288929939, -0.5244230031967163, 0.04102054610848427, -0.19141171872615814, 0.24959586560726166, -0.8742064237594604, -0.7506875991821289, -0.34181642532348633, -0.09943907707929611, 0.2018880844116211, 0.1669573038816452, -0.22093962132930756, -0.12141093611717224, -0.3972504734992981, 0.0794011726975441, 0.09825767576694489, -0.38670614361763, -0.4027367830276489, -0.5815929174423218, 0.3108021020889282, -0.1197313442826271, 0.058279190212488174, 0.17791976034641266, -0.8730752468109131, -0.10071969777345657, -0.02091273106634617, -0.9315035939216614, -0.3380352854728699], [-0.10327759385108948, -0.010289940051734447, -0.09159630537033081, 0.03949670493602753, -0.08406465500593185, -0.0043845875188708305, -0.05604817718267441, -0.07097824662923813, -0.06942316889762878, -0.005746103823184967, -0.03678692877292633, 0.0033700536005198956, -0.061653394252061844, -0.07363069802522659, -0.0877864807844162, -0.12072992324829102, -0.10993972420692444, -0.04982354864478111, 0.06259548664093018, -0.013137048110365868, -0.05209559574723244, -0.09816941618919373, 0.010249626822769642, -0.027724934741854668, -0.07182762026786804, -0.010869622230529785, -0.08727378398180008, -0.014495099894702435, -0.08991841971874237, -0.06645361334085464, -0.035052113234996796, 0.01971915364265442, -0.048433542251586914, -0.07046350836753845, -0.05223549157381058, -0.09214013069868088, -0.021774426102638245, -0.06582587957382202, -0.12140323221683502, -0.06388144195079803, 0.021865108981728554, -0.05633038654923439, -0.10055618733167648, -0.0022868653759360313, -0.14524757862091064, -0.05012179911136627, -0.009603915736079216, -0.013404343277215958, -0.1197422593832016, 0.02523387223482132, -0.07379418611526489, -0.11560658365488052, 0.05949553847312927, 0.0475323386490345, -0.0565214529633522, -0.15778182446956635, -0.01854448765516281, -0.14727021753787994, -0.08301936835050583, -0.16436760127544403, -0.10439420491456985, 0.01589098945260048, -0.02431950904428959, -0.08647244423627853, -0.07168272882699966, -0.11164145171642303, -0.07223676145076752, -0.12215526401996613, -0.041538022458553314, -0.09026667475700378, -0.13334840536117554, 0.007732836063951254, -0.12626531720161438, -0.06885138154029846, 0.001899123191833496, -0.12255564332008362, -0.03931824490427971, 0.016433756798505783, 0.004677862860262394, -0.0850938931107521, -0.1287383735179901, -0.08318173140287399, -0.08289606124162674, -0.059117402881383896, -0.015521351248025894, -0.12934353947639465, -0.126095250248909, 0.022509410977363586, -0.040154214948415756, -0.01479677390307188, -0.11573620140552521, -0.07242728769779205, -0.04814046993851662, 0.01794457994401455, -0.04154827445745468, -0.09845519810914993, -0.00579554308205843, -0.0873289406299591, -0.1388269066810608, 0.002977898111566901, -0.05355372279882431, -0.04529654234647751, -0.006563565693795681, -0.10575450211763382, -0.007032911293208599, -0.1052350327372551, -0.15275828540325165, -0.010190627537667751, -0.02890031412243843, 0.051117949187755585, 0.01968449167907238, -0.055645737797021866, -0.0685693621635437, 0.009776283986866474, -0.027897922322154045, 0.043349526822566986, -0.062334541231393814, -0.06072751805186272, -0.060388293117284775, -0.02647092007100582, -0.0008860687375999987, -0.01141320914030075, 0.06023396924138069, -0.06838703900575638, -0.1145894005894661, 0.01626495085656643, -0.11471155285835266, -0.12644504010677338], [0.00988810509443283, 0.1466149538755417, 0.01870719902217388, 0.18520504236221313, -0.010379524901509285, 0.13981296122074127, 0.010584134608507156, 0.023534158244729042, 0.20704759657382965, -0.01424227561801672, 0.17548006772994995, -0.23282304406166077, -0.16508930921554565, 0.013477880507707596, 0.31946519017219543, -0.3045402765274048, 0.26206815242767334, 0.12478149682283401, -0.09914868324995041, 0.3763982653617859, 0.2737812101840973, 0.016841763630509377, 0.2206110656261444, 0.1746504008769989, 0.16125498712062836, 0.04943951219320297, 0.09223160892724991, 0.2705586552619934, 0.09121326357126236, -0.29529932141304016, -0.2337407022714615, 0.1513574719429016, 0.04775058478116989, -0.051513515412807465, -0.04696192592382431, 0.24434010684490204, 0.05115632340312004, 0.23186415433883667, -0.012673919089138508, 0.14935915172100067, -0.3255980908870697, 0.18749509751796722, -0.1287347972393036, 0.0696379616856575, -0.09866979718208313, 0.25490158796310425, 0.02634611912071705, 0.17678697407245636, -0.034305375069379807, 0.12164546549320221, -0.14923542737960815, 0.02608419768512249, 0.30213430523872375, 0.2690339982509613, 0.05222257599234581, -0.07894448190927505, 0.2918597459793091, -0.0019867843948304653, 0.010767974890768528, 0.08100754022598267, -0.01611468940973282, -0.0010107174748554826, 0.06616932898759842, 0.07259009033441544, 0.31793415546417236, -0.22787366807460785, 0.14071334898471832, 0.3048727512359619, -0.08047180622816086, 0.2943831980228424, 0.0880979374051094, 0.17086069285869598, 0.22609379887580872, 0.20959524810314178, -0.058532148599624634, 0.037999242544174194, 0.11934900283813477, 0.21247819066047668, 0.1263018101453781, -0.15497654676437378, 0.16771253943443298, 0.13413716852664948, 0.2648290991783142, 0.3318975567817688, 0.16880464553833008, -0.4624139666557312, -0.10307067632675171, 0.04419673606753349, 0.1781923770904541, 0.25150370597839355, 0.24929611384868622, 0.14251397550106049, 0.18868432939052582, -0.19523802399635315, 0.13324947655200958, 0.19923105835914612, -0.030325016006827354, 0.09473564475774765, 0.1447121649980545, 0.27047234773635864, 0.09225806593894958, 0.18254375457763672, 0.2679385840892792, 0.3576353192329407, 0.00013160600792616606, 0.03866028040647507, -0.15776313841342926, 0.07444028556346893, 0.24176117777824402, 0.1327705979347229, 0.1559000462293625, 0.21208679676055908, 0.14670071005821228, 0.33786651492118835, 0.23302991688251495, 0.24218173325061798, -0.22671881318092346, 0.012386350892484188, 0.1523859202861786, 0.03630915656685829, 0.13599428534507751, 0.046317584812641144, -0.04450259357690811, -0.09524901211261749, 0.08936607837677002, -0.012541997246444225, 0.11927051842212677, 0.19034512341022491], [-0.6116989850997925, -0.09203074872493744, 0.3762058913707733, -0.6663325428962708, 0.2898463010787964, 0.22408495843410492, -0.6675196290016174, 0.07402930408716202, 0.1084575429558754, -0.29478970170021057, 0.07875288277864456, 0.2606732249259949, -0.8781900405883789, 0.2442065179347992, -0.033623918890953064, -0.05488219112157822, -0.1370025873184204, -0.3203803598880768, -0.6954630017280579, -0.2934340238571167, -0.3347380459308624, -0.5641849637031555, -0.8152722120285034, -1.1704068183898926, 0.24173413217067719, 0.3031902611255646, 0.03976873680949211, -0.055289365351200104, -0.5110425353050232, 0.19996625185012817, 0.2811027765274048, -0.2943713963031769, -0.3964380919933319, -0.8337098360061646, -1.0484381914138794, -0.4591716229915619, 0.29865071177482605, 0.19998641312122345, 0.31429070234298706, 0.2896871864795685, 0.02377915382385254, -0.22330190241336823, 0.5827251672744751, -1.1238106489181519, 0.7298439145088196, -0.7773308753967285, -0.9806101322174072, -0.02142196148633957, -0.47148004174232483, -0.22609730064868927, 0.3030080795288086, 0.41214749217033386, -0.7808805704116821, -1.0328031778335571, -1.0893970727920532, 0.23386737704277039, -0.1256086528301239, 0.38527044653892517, -0.41417351365089417, 0.33867886662483215, -0.6671731472015381, -1.3257170915603638, 0.3257986307144165, -1.0866819620132446, -0.29804232716560364, 0.3106648623943329, -1.2324049472808838, -0.5065416693687439, 0.2957001030445099, -0.017189422622323036, 0.13835974037647247, -0.5765387415885925, -0.18999740481376648, 0.15066644549369812, -0.0020134407095611095, -0.3099845051765442, -1.1813507080078125, -0.7613510489463806, -0.42266079783439636, 0.04299071058630943, -0.15360480546951294, -0.7883783578872681, -0.5440035462379456, -0.5263413786888123, -0.10174489766359329, 0.14493532478809357, 0.3668341040611267, -0.8139537572860718, -0.0298586618155241, -0.7813632488250732, -0.5371126532554626, -0.9928827881813049, -0.257534384727478, 0.177845299243927, 0.20631465315818787, -0.5972934365272522, 0.02515283040702343, 0.17586345970630646, 0.09003925323486328, -0.13123667240142822, -0.46404191851615906, -0.03913046047091484, -0.6152564883232117, -0.2372174859046936, -0.4411628246307373, 0.24173133075237274, 0.7627239227294922, 0.03209372237324715, -0.3647180199623108, -1.108052372932434, -0.4559348225593567, -0.19073282182216644, -0.3239462971687317, -0.2226564735174179, -0.737187385559082, -0.9337204098701477, 0.29091355204582214, 0.21846547722816467, 0.1259329617023468, -1.1914118528366089, -0.3010304868221283, -0.3116592466831207, -0.5974256992340088, 0.30804872512817383, -0.20613960921764374, -0.03154697269201279, 0.2610394358634949, -0.07171827554702759], [-0.03165701776742935, 0.11707980185747147, 0.023915531113743782, 0.13285993039608002, -0.09390359371900558, 0.16828779876232147, -0.13099786639213562, 0.055470723658800125, 0.13623329997062683, -0.1401171088218689, 0.05492894724011421, -0.18077917397022247, -0.07949064671993256, -0.01076575554907322, 0.19674955308437347, -0.2992805540561676, 0.225851371884346, -0.012980284169316292, -0.013251674361526966, 0.2952094078063965, 0.06913534551858902, -0.237686887383461, 0.2058497667312622, -0.008634572848677635, 0.17389194667339325, -0.04353175684809685, 0.01982799358665943, 0.24889802932739258, -0.0391412116587162, -0.35768362879753113, -0.3286776542663574, -0.005484915804117918, -0.04854939877986908, -0.11465749889612198, -0.05522529408335686, 0.12954559922218323, -0.004584712907671928, 0.09934214502573013, 0.01663358509540558, 0.1488015502691269, -0.3334503769874573, 0.13243721425533295, -0.151992067694664, 0.09477592259645462, -0.08830375224351883, 0.15954342484474182, 0.01814505271613598, 0.20514151453971863, -0.15664921700954437, 0.08526619523763657, -0.0234816987067461, -0.08476715534925461, 0.07040845602750778, 0.09407928586006165, 0.032043520361185074, -0.01873926818370819, 0.2970084846019745, -0.05214414373040199, -0.021345920860767365, 0.01788320206105709, 0.038323525339365005, -0.04743491858243942, -0.022647719830274582, 0.07266347110271454, 0.19300924241542816, -0.25193285942077637, -0.050011202692985535, 0.2457733303308487, -0.053577348589897156, 0.14003238081932068, 0.04121609032154083, 0.04772230610251427, 0.23253685235977173, 0.1647343933582306, 0.02041229046881199, 0.06811504065990448, -0.025352193042635918, 0.0404006652534008, -0.055590808391571045, -0.24583549797534943, 0.11275284737348557, 0.1518932282924652, 0.11662125587463379, 0.07985994219779968, 0.22294455766677856, -0.4990549087524414, -0.061782319098711014, -0.028740577399730682, 0.12427166104316711, 0.07944182306528091, 0.07933966815471649, 0.013952800072729588, 0.21952781081199646, -0.31397199630737305, 0.1436256766319275, 0.034461475908756256, 0.06524836272001266, 0.1182914450764656, 0.05357750877737999, 0.20840811729431152, 0.13280785083770752, 0.2330702543258667, 0.23517799377441406, 0.1462598592042923, -0.06372248381376266, 0.02265739068388939, -0.20465312898159027, 0.02149084582924843, 0.03860650956630707, -0.06118344888091087, -0.014114896766841412, 0.2512590289115906, 0.18595291674137115, 0.13790203630924225, 0.15343095362186432, 0.17156855762004852, -0.23121383786201477, -0.08484334498643875, 0.1372930407524109, -0.10868702828884125, 0.04709065705537796, -0.14220640063285828, 0.06987777352333069, -0.1356579065322876, 0.10461075603961945, -0.1724671870470047, 0.13382340967655182, 0.10371620953083038], [-0.07897483557462692, -0.14039915800094604, -0.06845492869615555, -0.04490529000759125, -0.038869354873895645, -0.12799867987632751, -0.09901648014783859, -0.06332181394100189, -0.0619286485016346, -0.06511635333299637, -0.05201186239719391, -0.14235450327396393, -0.07643956691026688, -0.04183310642838478, -0.13356369733810425, -0.0011001774109899998, -0.009035661816596985, -0.09623859822750092, -0.10278532654047012, 0.002529111923649907, -0.11291737854480743, -0.12130892276763916, 0.027763253077864647, 0.013163319788873196, -0.1008286327123642, -0.10440848767757416, -0.08486609905958176, -0.08567600697278976, 0.05799054354429245, -0.03606969863176346, -0.08532766252756119, 0.023209555074572563, -0.05778924375772476, -0.04636634141206741, -0.009045515209436417, -0.04456830769777298, -0.11082759499549866, -0.009335177019238472, -0.02948673442006111, -0.01121216919273138, -0.05946415290236473, -0.12940973043441772, -0.06479183584451675, -0.04899890348315239, -0.014476677402853966, -0.09934286028146744, 0.04413808137178421, -0.0046239751391112804, -0.04935148358345032, -0.09469199925661087, -0.06029541417956352, -0.0055135926231741905, -0.0378926545381546, -0.10973098874092102, -0.013680871576070786, -0.10200271010398865, -0.06335027515888214, -0.054939962923526764, -0.09420447796583176, -0.08407023549079895, -0.09454265981912613, 0.02708793431520462, -0.081516332924366, -0.07544956356287003, -0.028198866173624992, -0.12177687883377075, 0.00022061559138819575, -0.12100397050380707, -0.0010964625980705023, -0.08081398159265518, -0.060663651674985886, -0.007172814570367336, -0.09542235732078552, -0.06101534515619278, -0.0005392781458795071, 0.00652335025370121, -0.00669475831091404, -0.04271189868450165, -0.015949854627251625, -0.07883284986019135, -0.09458236396312714, -0.010121430270373821, 0.021418018266558647, -0.006369066424667835, -0.06057475879788399, -0.027116432785987854, -0.017537178471684456, -0.06829620152711868, -0.11249637603759766, -0.08041584491729736, 0.023156123235821724, -0.04337417334318161, -0.13084132969379425, -0.14352093636989594, -0.015246444381773472, -0.09902631491422653, 0.0034366855397820473, -0.09384387731552124, -0.038396067917346954, -0.13726554811000824, -0.05444594472646713, -0.026933932676911354, 0.0410085953772068, 0.0002089848421746865, -0.06421864032745361, -0.13352954387664795, -0.12777559459209442, -0.12113972008228302, -0.08739703893661499, 0.0170170646160841, 0.014413023367524147, 0.017251215875148773, 0.02677033096551895, 0.025502337142825127, 0.06311070919036865, 0.01166373398154974, -0.01674584671854973, -0.12373824417591095, -0.11206876486539841, -0.09372012317180634, -0.029644720256328583, -0.07812555134296417, 0.007924770005047321, -0.0946340262889862, -0.08526597917079926, -0.14514972269535065, -0.026320431381464005, -0.04507317394018173], [-0.12852494418621063, 0.19973933696746826, -0.026242628693580627, 0.13478313386440277, 0.09030897170305252, 0.04851662367582321, 0.004962581675499678, 0.04666660726070404, 0.16496090590953827, -0.15544582903385162, 0.06954843550920486, -0.11942338943481445, -0.1659698635339737, -0.06014943867921829, 0.15349408984184265, -0.2825891971588135, 0.18803399801254272, 0.06105920672416687, -0.09485697001218796, 0.3216724991798401, 0.1648053228855133, -0.18964940309524536, 0.09222456067800522, 0.0927591547369957, 0.050253406167030334, -0.17263643443584442, 0.17681141197681427, 0.20736896991729736, 0.1089923083782196, -0.2004060298204422, -0.06740065664052963, 0.21256206929683685, -0.11662248522043228, -0.08945558220148087, -0.030301174148917198, 0.20865797996520996, -0.06331976503133774, 0.13515622913837433, 0.0026109814643859863, 0.13210000097751617, -0.2734219431877136, 0.08861970156431198, -0.1892627626657486, 0.13201270997524261, -0.14110149443149567, 0.10772968828678131, -0.09484127908945084, 0.13787809014320374, -0.1880461424589157, 0.09580159187316895, 0.009372222237288952, 0.018909191712737083, 0.193143829703331, 0.05855906009674072, -0.05105813965201378, -0.1611413061618805, 0.16817322373390198, 0.04542262852191925, 0.08934742212295532, -0.06281968206167221, -0.04245651513338089, 0.06919952481985092, -0.056939203292131424, 0.02538800798356533, 0.32933729887008667, -0.03570852428674698, 0.04305024445056915, 0.23282121121883392, -0.09850972890853882, 0.2136329859495163, 0.14421933889389038, 0.20391589403152466, 0.19546224176883698, 0.1284644901752472, 0.04887877777218819, 0.09399894624948502, -0.04104115068912506, 0.15499168634414673, 0.012117964215576649, -0.06305108964443207, 0.13979987800121307, 0.15899167954921722, 0.21137842535972595, 0.20886267721652985, 0.21361127495765686, -0.2913101017475128, -0.0757036954164505, -0.004938429221510887, 0.10428333282470703, 0.1768212616443634, 0.2817407250404358, 0.09116019308567047, 0.22365690767765045, -0.18242374062538147, 0.06194894760847092, 0.1433049738407135, -0.015745071694254875, 0.07290132343769073, -0.05527108162641525, 0.1789778172969818, 0.1218445673584938, 0.13112440705299377, 0.13593359291553497, 0.19562889635562897, -0.0943574458360672, 0.016468439251184464, -0.09211068600416183, 0.10675271600484848, 0.17413875460624695, -0.01367497630417347, -0.04736562818288803, 0.16323204338550568, 0.02572658471763134, 0.3121154010295868, 0.028556281700730324, 0.1920282542705536, -0.1211513802409172, -0.005816811230033636, 0.07892126590013504, -0.010003805160522461, -0.009023076854646206, -0.08113007992506027, 0.018792739138007164, -0.018124502152204514, 0.10752477496862411, -0.10599201172590256, 0.03344772383570671, 0.08528736978769302], [0.1134919673204422, 0.20167893171310425, 0.03945325314998627, 0.13261453807353973, -0.09045210480690002, 0.15494394302368164, 0.2285430133342743, 0.1859036237001419, 0.14856885373592377, 0.2644544839859009, 0.004485446959733963, -0.13467131555080414, -0.40649840235710144, -0.0793529525399208, 0.09843896329402924, -0.3059411644935608, 0.21419282257556915, 0.33965039253234863, -0.4540483355522156, 0.1508663445711136, 0.3124927282333374, 0.14577536284923553, -0.0254256222397089, -0.1330714076757431, 0.16377392411231995, 0.26363658905029297, 0.1949206441640854, 0.22486451268196106, -0.1874399483203888, -0.38265588879585266, -0.2957881987094879, 0.37150484323501587, 0.19505062699317932, -0.3462212085723877, -0.2541425824165344, 0.28057628870010376, 0.1737329512834549, 0.1433602273464203, 0.05590195581316948, 0.14482276141643524, -0.4366726577281952, 0.3376741409301758, 0.16686172783374786, -0.02100938744843006, 0.302328497171402, 0.2631986141204834, -0.16733655333518982, 0.020036617293953896, 0.22560174763202667, 0.3667362332344055, -0.10873626172542572, 0.29156294465065, 0.06418777257204056, 0.011922979727387428, -0.34188905358314514, 0.231366828083992, 0.15252822637557983, 0.10377899557352066, -0.2262343466281891, 0.22491446137428284, -0.2628532946109772, -0.14078059792518616, 0.18771597743034363, -0.0620490238070488, 0.25029078125953674, -0.23443368077278137, -0.10400015115737915, 0.21812281012535095, 0.30326157808303833, 0.15103088319301605, 0.011910170316696167, 0.277277410030365, 0.27119845151901245, 0.053871650248765945, -0.07325457781553268, -0.10332242399454117, -0.2425382286310196, 0.08224320411682129, 0.31228435039520264, -0.20962010324001312, -0.1157071515917778, 0.010549288243055344, 0.2016887664794922, 0.2168891876935959, -0.013748347759246826, -0.3838711380958557, 0.049528397619724274, -0.18720807135105133, 0.25153329968452454, 0.06794295459985733, 0.30069810152053833, -0.07659466564655304, 0.2522621750831604, -0.26498693227767944, 0.23211142420768738, 0.17260965704917908, -0.14901618659496307, 0.03462927043437958, 0.31473788619041443, 0.29812702536582947, -0.11416185647249222, 0.09203565120697021, 0.13900494575500488, 0.20929871499538422, -0.2481091022491455, 0.20150819420814514, 0.25448381900787354, 0.0018207153771072626, 0.292001336812973, -0.08315395563840866, 0.09615499526262283, 0.29092705249786377, -0.047805145382881165, 0.19157345592975616, -0.13576814532279968, 0.09231418371200562, -0.22081448137760162, -0.07299124449491501, 0.10119284689426422, -0.1724926084280014, 0.30332309007644653, 0.21045799553394318, -0.28039953112602234, 0.14865291118621826, -0.048643335700035095, 0.2722398042678833, 0.07641149312257767, 0.03206983581185341], [0.1301371157169342, 0.012635340914130211, -0.12703780829906464, 0.2038176953792572, -0.008138402365148067, 0.06588979065418243, 0.22411957383155823, 0.047881100326776505, 0.04604272171854973, 0.029964666813611984, 0.07512868195772171, -0.06003223732113838, 0.3484326899051666, -0.094838447868824, 0.06822048872709274, 0.06186292693018913, 0.050743307918310165, 0.0411994606256485, 0.2732636332511902, 0.2376096248626709, 0.11030842363834381, 0.029103662818670273, 0.251366525888443, 0.20698896050453186, 0.07811705023050308, -0.08429565280675888, 0.005681393202394247, 0.07810849696397781, 0.16616138815879822, 0.09709252417087555, 0.006727833300828934, 0.06921126693487167, 0.17192430794239044, 0.18753163516521454, 0.3485674262046814, 0.12769420444965363, 0.008638674393296242, -0.06373099237680435, -0.0074483249336481094, -0.08043970912694931, 0.1330776959657669, 0.15116208791732788, -0.1970491111278534, 0.1869911551475525, -0.1453188806772232, 0.18479982018470764, 0.3191012740135193, 0.14480091631412506, 0.17162840068340302, 0.1449575424194336, -0.05857745185494423, -0.02298579551279545, 0.19862054288387299, 0.31791970133781433, 0.20578022301197052, -0.055178627371788025, 0.10528494417667389, -0.07539843767881393, 0.21405532956123352, -0.01871434971690178, 0.3481549918651581, 0.24914908409118652, -0.07720941305160522, 0.1504139006137848, 0.18907290697097778, -0.0873519778251648, 0.2169128805398941, 0.23500104248523712, -0.042484350502491, 0.03001687116920948, 0.08126839995384216, 0.1062496155500412, 0.18171417713165283, 0.07040619105100632, 0.05239153280854225, 0.18305517733097076, 0.3198092579841614, 0.15583813190460205, 0.13409453630447388, 0.05163358151912689, 0.14642269909381866, 0.2323889285326004, 0.20638886094093323, 0.24321946501731873, 0.10977394133806229, 0.09142639487981796, -0.107821524143219, 0.19404007494449615, 0.12143950164318085, 0.14934289455413818, 0.21987301111221313, 0.20748239755630493, 0.10964178293943405, 0.0471576564013958, 0.050428908318281174, 0.1827927976846695, 0.10576171427965164, 0.09581904858350754, -0.07960572093725204, 0.07092802971601486, 0.1546899378299713, 0.16375473141670227, 0.29403427243232727, 0.2224862277507782, 0.1587611436843872, -0.05741630122065544, -0.25834131240844727, 0.02275250107049942, 0.1095651388168335, 0.2385052591562271, 0.1261804699897766, 0.11115529388189316, 0.21810513734817505, 0.1827239692211151, 0.300489604473114, 0.15537631511688232, 0.023646628484129906, -0.04535793885588646, -0.012746701017022133, 0.17144104838371277, 0.08376382291316986, 0.16268201172351837, 0.31287646293640137, -0.15595024824142456, 0.23033185303211212, 0.07899901270866394, 0.02436193637549877, 0.17850452661514282], [-0.02597120776772499, 0.1303521990776062, 0.07266880571842194, 0.17822617292404175, 0.057548221200704575, 0.14852413535118103, 0.04572790861129761, 0.05260207876563072, 0.21186864376068115, -0.07428755611181259, 0.08740191906690598, -0.2004021853208542, -0.1515183448791504, -0.14106996357440948, 0.13494107127189636, -0.2725808918476105, 0.26947057247161865, 0.004623148124665022, -0.11029017716646194, 0.29589444398880005, 0.09518979489803314, -0.17885299026966095, 0.13083158433437347, 0.020836476236581802, 0.17805215716362, -0.03728700429201126, 0.18194255232810974, 0.2933688461780548, -0.026568681001663208, -0.3780457079410553, -0.12239650636911392, 0.18788713216781616, 0.011251403018832207, -0.09148512035608292, -0.052988190203905106, 0.10022483021020889, 0.0768008902668953, 0.14860233664512634, -0.07213900238275528, 0.09766410291194916, -0.261809378862381, 0.11987147480249405, -0.17811666429042816, 0.0635288804769516, -0.04956613853573799, 0.09404732286930084, 0.06147449463605881, 0.1833108514547348, -0.06553373485803604, 0.06958581507205963, -0.11562374979257584, -0.009527802467346191, 0.08015389740467072, 0.06433766335248947, -0.009548133239150047, -0.027656370773911476, 0.30203163623809814, 0.05036390200257301, 0.11091089248657227, 0.03008674830198288, 0.09097907692193985, -0.04430597275495529, 0.005230361130088568, -0.030037300661206245, 0.2167116105556488, -0.10413066297769547, 0.0860978364944458, 0.2053726464509964, -0.15995188057422638, 0.29469534754753113, 0.1187044233083725, 0.09399943053722382, 0.31505411863327026, 0.15971830487251282, -0.11333521455526352, 0.07776302844285965, 0.0870232954621315, 0.17983153462409973, -0.030232561752200127, -0.19002573192119598, 0.07288285344839096, 0.051012083888053894, 0.2191372960805893, 0.17354297637939453, 0.10390373319387436, -0.3082652688026428, -0.06601392477750778, 0.0411522313952446, 0.2302032709121704, 0.12730707228183746, 0.2082154005765915, 0.14215517044067383, 0.2536506950855255, -0.2746548652648926, 0.06054289638996124, -0.01903863064944744, -0.06871647387742996, 0.0742473304271698, 0.017076406627893448, 0.13252240419387817, 0.004617826081812382, 0.17844456434249878, 0.16715455055236816, 0.21173521876335144, -0.12636862695217133, 0.105142742395401, -0.07844889909029007, 0.036915991455316544, 0.09378382563591003, 0.11973104625940323, -0.00821707583963871, 0.18474030494689941, 0.20720311999320984, 0.18230368196964264, 0.17921681702136993, 0.18669797480106354, -0.2398708015680313, -0.01055590808391571, 0.16080068051815033, -0.03510502725839615, 0.14721612632274628, -0.026564324274659157, 0.006897362414747477, -0.09460233151912689, 0.16514962911605835, 0.027197226881980896, 0.13337688148021698, 0.1958240270614624], [-0.13420765101909637, 0.005050599575042725, -0.022891012951731682, -0.05694912001490593, -0.00734577514231205, -0.0827324166893959, -0.03890923038125038, -0.13549940288066864, 0.0023640436120331287, -0.13061724603176117, -0.03324130177497864, -0.10337097942829132, 0.036473989486694336, -0.12007545679807663, -0.0492602214217186, -0.08399058878421783, -0.04919569194316864, -0.08113972842693329, -0.08033548295497894, -0.06384758651256561, -0.09889960289001465, -0.020057331770658493, -0.044389016926288605, -0.001347194192931056, -0.1195499524474144, -0.04997248947620392, -0.0670318529009819, -0.14686815440654755, 0.01141273882240057, -0.06520647555589676, -0.027151672169566154, -0.044798970222473145, -0.06722255051136017, 0.06249820068478584, 0.015220161527395248, 0.005730508826673031, 0.02150360681116581, -0.09348282963037491, -0.14329834282398224, -0.12441606819629669, -0.07718849927186966, -0.017117910087108612, -0.0058845761232078075, -0.06230492889881134, -0.005541366990655661, -0.09919789433479309, -0.06553158164024353, -0.06612052023410797, -0.1251695603132248, -0.07152727991342545, -0.040197379887104034, 0.018336696550250053, -0.09912526607513428, 0.023700542747974396, 0.01343490183353424, -0.10427616536617279, 0.015559566207230091, -0.12418854236602783, -0.04754148796200752, -0.1239156723022461, 0.0280349962413311, -0.00538288289681077, -0.09667837619781494, -0.05692840740084648, 0.012427124194800854, -0.01868942752480507, -0.02059917338192463, 0.021182095631957054, -0.011074632406234741, -0.03845277801156044, 0.029285207390785217, -0.06805934011936188, -0.016096560284495354, -0.10420869290828705, 0.0016739576822146773, 0.0007061058422550559, -0.06010837480425835, -0.0213939156383276, -0.023335637524724007, -0.09062037616968155, -0.011712280102074146, 0.05025837942957878, -0.04598166421055794, -0.12654678523540497, 0.02965822070837021, -0.056346140801906586, -0.08827732503414154, -0.06457038223743439, -0.07279933243989944, 0.003297582268714905, -0.1030634343624115, -0.047645170241594315, -0.11354167759418488, -0.09736262261867523, -0.02873547002673149, -0.05943119525909424, -0.13073669373989105, -0.051607243716716766, -0.07599212974309921, -0.10276205837726593, 0.02650432288646698, -0.029182802885770798, -0.10008104145526886, -0.14348681271076202, -0.10129431635141373, -0.025823723524808884, 0.006658103782683611, -0.10048229247331619, -0.0680508017539978, -0.12057218700647354, -0.05582798272371292, -0.05316814407706261, -0.11396906524896622, -0.01187958475202322, -0.08194097131490707, 0.03291875123977661, -0.06773536652326584, -0.05673225224018097, -0.0027275450993329287, 0.0024122055619955063, -0.06359187513589859, -0.036857232451438904, -0.06352272629737854, -0.07085102796554565, -0.057893525809049606, 0.001720748725347221, -0.045153483748435974, -0.09575679153203964], [-0.157683327794075, 0.04496287554502487, -0.07422974705696106, 0.0698152408003807, -0.07416720688343048, 0.09055282175540924, -0.043520260602235794, -0.05471598356962204, -0.0017085241852328181, -0.08811764419078827, 0.023475149646401405, -0.21169114112854004, -0.10978352278470993, -0.0971335843205452, 0.1178165152668953, -0.1133531779050827, 0.051010455936193466, -0.010861939750611782, -0.12637858092784882, 0.06382942944765091, 0.005603940226137638, -0.07666433602571487, 0.05318064242601395, -0.13662204146385193, 0.04386898875236511, -0.10700773447751999, -0.02688201144337654, 0.1126541793346405, -0.0024610143154859543, -0.18572351336479187, -0.08789411187171936, 0.01847556047141552, -0.13749520480632782, -0.055692631751298904, -0.08526524901390076, 0.012286689132452011, -0.06830552965402603, 0.005606515798717737, -0.055694226175546646, -0.010954177938401699, -0.1223285049200058, -0.05581604689359665, -0.15982750058174133, -0.03511140123009682, -0.2111879140138626, 0.09011218696832657, -0.008368372917175293, 0.08161257952451706, -0.10535209625959396, -0.06373009085655212, -0.09806002676486969, -0.09286697208881378, -0.03229038789868355, -0.04636095464229584, -0.1378941535949707, -0.16586677730083466, 0.03747712820768356, -0.09631458669900894, -0.04595043137669563, -0.0337955504655838, 0.039126958698034286, -0.10811988264322281, -0.0035572603810578585, -0.08640126883983612, 0.05547608807682991, -0.21819941699504852, -0.02091187611222267, -0.051761873066425323, -0.14136870205402374, 0.013761766254901886, -0.03685331344604492, -0.006974851246923208, 0.04926760122179985, -0.03224555775523186, -0.059338320046663284, 0.017580898478627205, -0.10406114161014557, -0.050910282880067825, -0.021032234653830528, -0.05325428023934364, -0.03382871672511101, -0.06790880113840103, 0.040787793695926666, 0.0008422413375228643, 0.04009278491139412, -0.2551562786102295, -0.016179004684090614, -0.06905345618724823, 0.00010016196756623685, -0.03209499642252922, -0.06586411595344543, -0.12435632199048996, 0.015141664072871208, -0.167954221367836, 0.07842609286308289, -0.03887804597616196, 0.0031911451369524, 0.07500835508108139, 0.03887676075100899, 0.12534184753894806, -0.028365105390548706, 0.08064424246549606, 0.05196676403284073, 0.022558532655239105, -0.0077126044780015945, -0.060468174517154694, -0.2085796445608139, -0.03946053236722946, 0.06969012320041656, 0.026441099122166634, -0.14665548503398895, 0.029502907767891884, -0.06826255470514297, 0.08685890585184097, 0.020653247833251953, 0.019950972869992256, -0.12937408685684204, -0.03436364233493805, 0.022875003516674042, -0.0519784651696682, 0.05012083426117897, -0.1651325821876526, -0.038160938769578934, -0.07701876759529114, 0.033712271600961685, -0.04111795499920845, -0.04355061054229736, 0.02138485386967659], [-0.06731592118740082, -0.022372759878635406, -0.0534500852227211, -0.013763663358986378, -0.07817277312278748, -0.08128099888563156, 0.02895752154290676, -0.05716976150870323, -0.11078719794750214, -0.08486897498369217, -0.011269683949649334, -0.06944212317466736, -0.012003379873931408, -0.06471677869558334, -0.11522535234689713, -0.02224174700677395, -0.10282743722200394, -0.11107631027698517, -0.07756409794092178, -0.03070317953824997, -0.09501001238822937, -0.1260179728269577, -0.017904099076986313, 0.056967929005622864, -0.08745887875556946, 0.02960357628762722, 0.04499015212059021, 0.04678183048963547, -0.055388934910297394, 0.03081311658024788, -0.03311010077595711, -0.09827657043933868, 0.02359037473797798, -0.08354439586400986, -0.03227296099066734, -0.04163488373160362, -0.09744542837142944, -0.021529823541641235, 0.04830697923898697, 0.0010219463147222996, 0.023670339956879616, -0.06839074194431305, -0.06840310245752335, -0.008219086565077305, -0.025980684906244278, -0.02728639543056488, -0.01634720340371132, 0.001041450654156506, -0.030909433960914612, -0.06589074432849884, -0.060302734375, -0.08039121329784393, -0.004048389382660389, -0.03483744338154793, -0.00054350052960217, 0.04278223216533661, -0.02637910097837448, -0.07941845059394836, 0.05145702138543129, -0.02345072478055954, -0.08800099045038223, 0.013164456933736801, -0.011244469322264194, -0.029702123254537582, -0.08057694137096405, -0.04452908784151077, -0.08485478162765503, -0.025619717314839363, -0.050601545721292496, -0.03210611268877983, 0.01521111186593771, -0.12300393730401993, 0.010484060272574425, -0.08818979561328888, 0.030857471749186516, -0.047051116824150085, 0.07616496831178665, -0.017178621143102646, 0.03523867949843407, -0.0013438123278319836, -0.06085434928536415, 0.05870203301310539, 0.024994080886244774, -0.054555878043174744, -0.10850296914577484, -0.08769327402114868, 0.05021022632718086, 0.002243434777483344, -0.009839082136750221, -0.017895426601171494, 0.034425411373376846, -0.07050174474716187, -0.018633026629686356, 0.027539433911442757, -0.035117581486701965, -0.016832426190376282, -0.022801173850893974, -0.10728859156370163, 0.041265107691287994, -0.08783374726772308, -0.04630191624164581, -0.10616589337587357, -0.1262577772140503, -0.020792411640286446, -0.01641220785677433, -0.039808016270399094, 0.013910152949392796, -0.017697282135486603, 0.046226076781749725, -0.08288947492837906, 0.02232980914413929, -0.04398981109261513, -0.03033461980521679, -0.018787605687975883, -0.011960476636886597, -0.10092049837112427, -0.007521462626755238, 0.0037777528632432222, -0.029798777773976326, -0.08290418237447739, -0.11449886858463287, -0.019967950880527496, -0.09411629289388657, -0.05332740768790245, -0.09852224588394165, -0.04279853776097298, -0.023696215823292732, -0.06633558869361877], [-0.016715530306100845, 0.025066912174224854, -0.12871485948562622, -0.06149554252624512, -0.006761076860129833, -0.0802568644285202, -0.08286122977733612, -0.0043909577652812, 0.02077627368271351, 0.030890963971614838, -0.019620006904006004, -0.0434998981654644, -0.02143709361553192, -0.0031160300131887197, -0.047695666551589966, -0.059502001851797104, 0.04522298648953438, -0.08508767187595367, -0.11835166066884995, 0.04210043326020241, -0.07890812307596207, -0.021353641524910927, -0.035203710198402405, 0.026571961119771004, 0.021502891555428505, -0.06746615469455719, -0.09641692042350769, -0.022623335942626, -0.10786116868257523, -0.04988234490156174, -0.01266443356871605, 0.042114343494176865, -0.012653334997594357, -0.026438573375344276, 0.005395170301198959, -0.04506726190447807, 0.0441325381398201, -0.061762385070323944, -0.09714151173830032, 0.059975091367959976, -0.11349450796842575, -0.005681518465280533, -0.10290144383907318, 0.022267557680606842, -0.008477716706693172, -0.06460367888212204, 0.001811484107747674, -0.0002831151941791177, -0.05848259851336479, 0.03163490071892738, -0.05944332107901573, -0.1055394634604454, 0.04869562387466431, -0.005946682300418615, 0.028516916558146477, -0.04685410484671593, -0.050808507949113846, -0.04180024936795235, 0.013371584005653858, -0.10277023911476135, 0.012128381058573723, -0.0876086875796318, -0.03898618742823601, -0.1151420995593071, 0.004076733719557524, -0.13339480757713318, -0.13037259876728058, -0.03464241325855255, 0.03626365214586258, -0.06449045240879059, -0.04914411902427673, -0.036654625087976456, -0.031275078654289246, -0.01131353434175253, -0.00948928203433752, 0.024725915864109993, -0.12062214314937592, -0.10253783315420151, -0.08587604761123657, -0.10312406718730927, 0.042353104799985886, -0.003232077695429325, 0.042235467582941055, -0.04320197552442551, 0.013371755369007587, -0.06087668985128403, 0.014752781018614769, -0.09509515017271042, 0.021190481260418892, -0.1033686101436615, 0.043830178678035736, 0.0022929832339286804, -0.0015956326387822628, -0.12880881130695343, -0.07561575621366501, -0.08190649747848511, -0.056154921650886536, 0.03596219792962074, 0.012120719067752361, 0.054549191147089005, -0.06932269036769867, -0.013027380220592022, 0.052207574248313904, -0.06508634239435196, -0.014727388508617878, 0.005902420729398727, -0.06631869822740555, -0.10217992961406708, -0.01838836260139942, -0.012307178229093552, -0.014219463802874088, -0.010669082403182983, -0.014994916506111622, -0.07408616691827774, -0.011991904117166996, 0.047818880528211594, -0.0013417229056358337, -0.022694606333971024, 0.02910713106393814, -0.06457000970840454, -0.044769447296857834, -0.045747675001621246, -0.008425588719546795, -0.05380282923579216, 0.05170053988695145, -0.04455135390162468, 0.029015986248850822, 0.038529690355062485], [0.03913002088665962, 0.14535951614379883, 0.6316105127334595, -0.2161535620689392, 0.24705232679843903, 0.383134663105011, -0.03047439455986023, 0.39821767807006836, 0.2956361770629883, 0.2242688089609146, 0.14287281036376953, -0.01358058676123619, -1.2068768739700317, 0.10360431671142578, 0.08772286027669907, -0.12856364250183105, -0.05333559215068817, 0.10883306711912155, -1.3546667098999023, -0.23824821412563324, 0.03704972565174103, -0.014583821408450603, -0.6030980348587036, -0.9698095917701721, 0.40310215950012207, 0.6038658022880554, 0.42253121733665466, 0.012206382118165493, -0.6311841607093811, -0.10840479284524918, 0.2076920121908188, 0.19466105103492737, 0.024478396400809288, -1.2881451845169067, -1.4666775465011597, -0.049253158271312714, 0.5403130054473877, 0.2779308259487152, 0.21164344251155853, 0.3623417317867279, -0.31466031074523926, 0.12268423289060593, 0.8100898861885071, -0.6253501772880554, 0.8234533667564392, -0.2008669227361679, -1.1883654594421387, -0.01984434574842453, 0.07223864644765854, 0.2925482988357544, 0.28225788474082947, 0.6452581286430359, -0.43197548389434814, -0.8698270916938782, -1.3492461442947388, 0.567033588886261, -0.017366653308272362, 0.4820692241191864, -0.7094603776931763, 0.664601743221283, -0.8856362104415894, -1.0701236724853516, 0.5164883732795715, -0.5904493927955627, -0.16019956767559052, 0.24279385805130005, -0.8477100133895874, -0.21924269199371338, 0.7658565640449524, 0.029770392924547195, 0.16275787353515625, -0.1722092628479004, 0.11996497958898544, 0.1281212717294693, -0.15081042051315308, -0.3622468411922455, -1.2161461114883423, -0.39517393708229065, 0.130487322807312, 0.004699823446571827, -0.08138663321733475, -0.7497999668121338, -0.20152123272418976, -0.22512032091617584, -0.059780120849609375, -0.1346045583486557, 0.48016825318336487, -0.997400164604187, 0.18503473699092865, -0.3721937835216522, -0.23182637989521027, -0.5823150277137756, 0.04636051878333092, 0.14289487898349762, 0.3831321895122528, -0.03304871544241905, -0.17803432047367096, 0.0616966187953949, 0.5224103331565857, 0.09157630056142807, -0.6852717995643616, 0.008905015885829926, -0.35281169414520264, 0.057858239859342575, -0.7363349199295044, 0.6888742446899414, 0.9960330128669739, -0.04928438737988472, 0.08156345039606094, -0.7447611093521118, -0.016128800809383392, 0.0676901564002037, -0.4602268934249878, 0.06331447511911392, -0.839358925819397, -0.41268640756607056, 0.07531062513589859, 0.11021800339221954, 0.20039153099060059, -0.8341514468193054, 0.2570495307445526, 0.0965869128704071, -0.8865334987640381, 0.6628309488296509, -0.3363766372203827, 0.29462504386901855, 0.4830273985862732, -0.16633066534996033], [0.5131908655166626, 0.1835809201002121, 0.16449865698814392, 0.03892621397972107, -0.3227706253528595, -0.04848020523786545, 0.4112771153450012, 0.3827035129070282, 0.059813495725393295, 0.5031191110610962, -0.38535892963409424, -0.7271409630775452, -0.5812365412712097, -0.5269403457641602, -0.0065947845578193665, -0.9483498930931091, -0.2334718108177185, 0.3948266804218292, -0.728145956993103, -0.21182352304458618, 0.31455421447753906, 0.48298361897468567, -0.36115625500679016, -0.19413331151008606, 0.16149260103702545, 0.483130544424057, 0.17163896560668945, -0.052416492253541946, -0.7854335308074951, -0.9845882654190063, -0.5423598289489746, 0.347634494304657, 0.5358452796936035, -0.4614001214504242, -0.4424569606781006, 0.27889156341552734, 0.2744166851043701, 0.12387578189373016, -0.22661617398262024, 0.08803568035364151, -1.1086995601654053, 0.21224378049373627, 0.5897115468978882, -0.012443318031728268, 0.45969000458717346, 0.19045205414295197, -0.4171154797077179, -0.4798124432563782, 0.47710177302360535, 0.3613026738166809, -0.30085667967796326, 0.3658319413661957, -0.03045974113047123, -0.4486083984375, -0.4669700264930725, 0.4325094521045685, -0.1965315043926239, 0.1024942696094513, -0.6706680059432983, 0.3221479058265686, -0.6136074662208557, -0.3037467300891876, 0.38856589794158936, 0.017933668568730354, -0.003116900334134698, -0.45815613865852356, -0.1392611414194107, -0.02582179382443428, 0.5419660806655884, -0.1488361358642578, -0.5070376396179199, 0.17527520656585693, 0.07621487230062485, -0.32536646723747253, -0.7869943380355835, -0.6686702370643616, -0.3753417432308197, 0.040804844349622726, 0.4534831941127777, -0.7114576101303101, -0.575371265411377, -0.49332112073898315, 0.0339573472738266, 0.03452298790216446, -0.4236252009868622, -0.9290434718132019, 0.1815444678068161, -0.5662164092063904, 0.1593369096517563, -0.16998621821403503, -0.017485179007053375, 0.0742226094007492, 0.06752382963895798, -0.7052849531173706, 0.13732531666755676, 0.3849027156829834, -0.6895140409469604, -0.36783137917518616, 0.32006776332855225, 0.08410456031560898, -0.581491231918335, -0.2659439742565155, -0.09654669463634491, 0.06277448683977127, -0.6993225812911987, 0.29336249828338623, 0.47846949100494385, -0.5152319669723511, 0.30856895446777344, 0.07794564962387085, 0.4826197922229767, 0.10897644609212875, -0.6032087802886963, 0.11091306060552597, -0.47930192947387695, -0.08910458534955978, -0.5410057902336121, -0.6037253141403198, -0.35962072014808655, 0.1210319772362709, 0.4288666546344757, 0.45460328459739685, -0.5599880814552307, 0.5336754322052002, -0.58244389295578, 0.5541257262229919, 0.06151043251156807, -0.4560883045196533], [-0.04138854146003723, 0.05725033953785896, -0.1610090583562851, -0.04878123104572296, -0.0567181371152401, 0.0023927835281938314, -0.12148002535104752, -0.07737915962934494, -0.049621280282735825, -0.06099556013941765, -0.07156221568584442, -0.09338665008544922, -0.030245201662182808, -0.09341900050640106, 0.03677762299776077, 0.034638043493032455, 0.03419521823525429, -0.04883880168199539, 0.006828987970948219, -0.11920420825481415, -0.10709646344184875, -0.08695186674594879, 0.001658292836509645, -0.023675838485360146, -0.07863187789916992, -0.17324818670749664, 0.03965681046247482, -0.04140114411711693, 0.023824771866202354, -0.07358438521623611, -0.11792603135108948, -0.09467237442731857, -0.0760950818657875, -0.05063819885253906, -0.06431074440479279, -0.0740668922662735, -0.08072210103273392, 0.018082603812217712, -0.036178506910800934, -0.0740283876657486, -0.046148356050252914, -0.007917376235127449, -0.18903300166130066, -0.14906395971775055, -0.17746351659297943, -0.08535099774599075, -0.12530672550201416, 0.03806847706437111, -0.04225048050284386, -0.018635261803865433, -0.08193135261535645, -0.1130843386054039, -0.09802220016717911, -0.02293376624584198, -0.08187025040388107, -0.03796934708952904, -0.11207491904497147, -0.03316928818821907, -0.02850447967648506, -0.06856738775968552, -0.08077488094568253, 0.010056635364890099, -0.13613219559192657, 0.00014110862684901804, 0.04925726354122162, -0.09613689035177231, -0.0652521401643753, -0.04530245065689087, -0.1554574966430664, -0.03521808236837387, 0.043964631855487823, 0.013202410191297531, 0.00043233553878962994, -0.0414024256169796, -0.08251530677080154, -0.06194426119327545, -0.06322925537824631, -0.08901283144950867, -0.012589065358042717, 0.022701747715473175, -0.12021691352128983, -0.10859041661024094, -0.04473939538002014, 0.0046064541675150394, -0.07763691246509552, -0.08834885060787201, -0.18523775041103363, -0.029796350747346878, 0.013550616800785065, -0.06942818313837051, -0.01461032684892416, -0.04646042734384537, -0.07660812139511108, 0.013127616606652737, -0.06723205745220184, 0.020834993571043015, -0.08422310650348663, 0.06543213129043579, 0.016170550137758255, 0.022269513458013535, -0.09864795953035355, 0.0198824405670166, -0.04733402281999588, -0.05909814313054085, -0.050406455993652344, -0.06631595641374588, -0.10039619356393814, -0.07297233492136002, -0.0664932131767273, -0.09178704023361206, -0.01774119772017002, 0.03080875612795353, -0.06194895878434181, 0.03771521523594856, 0.01184999942779541, 0.019960947334766388, 0.045999638736248016, 0.0176796056330204, -0.07287544757127762, -0.13187630474567413, -0.09827389568090439, -0.041102334856987, -0.06409741938114166, -0.1295900046825409, -0.07294859737157822, 0.016713473945856094, -0.05975763127207756, 0.002406095154583454], [-0.2683314085006714, 0.1157027930021286, -0.04431760683655739, 0.11434858292341232, -0.08426716178655624, -0.015623467974364758, -0.11630543321371078, 0.03515063226222992, -0.02393932268023491, -0.2109278440475464, 0.09466689079999924, -0.057878393679857254, -0.03289327025413513, -0.03338540345430374, 0.027709996327757835, -0.08977619558572769, -0.000684219878166914, 0.05484042689204216, -0.1389295607805252, 0.07049422711133957, 0.017176328226923943, -0.32091695070266724, -0.05928700789809227, -0.031757935881614685, 0.13716936111450195, -0.12664179503917694, -0.015337422490119934, 0.16755127906799316, -0.043929968029260635, -0.022052504122257233, -0.07813238352537155, 0.1060449481010437, -0.16457805037498474, -0.19308407604694366, -0.17515914142131805, 0.08842504024505615, -0.031771231442689896, 0.06428658217191696, -0.08559734374284744, -0.04306606203317642, -0.019587332382798195, 0.06321503967046738, -0.25146642327308655, 0.037844218313694, -0.22530655562877655, 0.09485409408807755, -0.1899878829717636, 0.04741120710968971, -0.2916215658187866, -0.09829746186733246, 0.06484859436750412, -0.008874807506799698, 0.10513924807310104, 0.04263804107904434, -0.1036885604262352, -0.02644207514822483, 0.17166359722614288, 0.052716214209795, -0.058302901685237885, 0.010684595443308353, -0.05687251687049866, -0.12707383930683136, -0.04311341047286987, -0.1229780986905098, 0.17483457922935486, -0.10974296927452087, 0.014718318358063698, 0.14697162806987762, -0.19157560169696808, 0.05057987570762634, -0.040820587426424026, 0.14527812600135803, 0.14996248483657837, 0.08548108488321304, 0.04803551360964775, 0.08370520174503326, -0.11961961537599564, 0.06807144731283188, -0.1182631254196167, -0.09163245558738708, 0.011422322131693363, 0.12718050181865692, 0.19948796927928925, 0.1078694760799408, 0.01558286789804697, -0.1603887379169464, -0.1467142254114151, -0.017610501497983932, 0.1156494989991188, 0.07710931450128555, 0.10513104498386383, -0.1222420185804367, 0.11898507177829742, -0.05247531458735466, -0.035889193415641785, -0.08245675265789032, 0.06658539175987244, 0.10824435204267502, -0.06579729914665222, 0.07169678062200546, 0.043256714940071106, 0.0721655860543251, 0.04218607023358345, 0.08010385185480118, -0.08729780465364456, -0.0017559515545144677, -0.18656589090824127, 0.1353176236152649, 0.13774405419826508, -0.1256745606660843, -0.13082613050937653, 0.0949760302901268, 0.058402013033628464, 0.10078771412372589, -0.015018310397863388, 0.15105879306793213, -0.06361830979585648, 0.07477889209985733, -0.021672138944268227, -0.11735665053129196, -0.0377659909427166, -0.160866841673851, 0.06488532572984695, -0.12208933383226395, -0.00015041063306853175, -0.10164681822061539, -0.031196696683764458, 0.030645329505205154], [-0.09091301262378693, 0.08302684873342514, 0.017651351168751717, 0.11066005378961563, -0.08572659641504288, 0.16700761020183563, -0.14215554296970367, 0.07416859269142151, 0.2158856838941574, -0.10328438878059387, 0.0672338604927063, -0.23224103450775146, -0.14380010962486267, -0.0014254358829930425, 0.26738911867141724, -0.4632766842842102, 0.2829369902610779, 0.09706567972898483, -0.18786947429180145, 0.29293936491012573, 0.16576310992240906, -0.3238059878349304, 0.09214916825294495, -0.08943910896778107, 0.08197905123233795, -0.007218501530587673, 0.17444661259651184, 0.3248286843299866, 0.053166989237070084, -0.3428555727005005, -0.21036048233509064, 0.19037026166915894, -0.0326579213142395, -0.08887861669063568, -0.04322919249534607, 0.14972466230392456, 0.07231393456459045, 0.08414924144744873, 0.003834563074633479, 0.14904189109802246, -0.37021973729133606, 0.10617555677890778, -0.11284325271844864, -0.023466797545552254, -0.06974466145038605, 0.23165811598300934, 0.0485081672668457, 0.05878801643848419, -0.09139091521501541, 0.06807243824005127, -0.028654061257839203, 0.0610128752887249, 0.14802418649196625, 0.12773507833480835, 0.036020129919052124, 0.0034456525463610888, 0.31416380405426025, 0.009380870498716831, 0.01500598806887865, 0.0744166374206543, -0.06346211582422256, 0.053303465247154236, -0.016627995297312737, 0.029824553057551384, 0.3366020917892456, -0.2635314464569092, 0.004506384022533894, 0.2649276554584503, -0.14149267971515656, 0.3135985732078552, 0.0175437331199646, 0.2080196887254715, 0.22385206818580627, 0.16189037263393402, -0.012153389863669872, -0.020930062979459763, -0.06059922277927399, 0.14470523595809937, -0.10034415870904922, -0.24976599216461182, 0.00784369744360447, 0.1825832724571228, 0.1430893987417221, 0.28902751207351685, 0.18867558240890503, -0.49259594082832336, -0.11670654267072678, 0.02153686061501503, 0.23808500170707703, 0.13569630682468414, 0.20278026163578033, -0.022204352542757988, 0.2940008342266083, -0.3187754452228546, 0.21464933454990387, -0.0154458899050951, -0.016370488330721855, 0.143147811293602, 0.16190308332443237, 0.20619213581085205, 0.11621929705142975, 0.16402550041675568, 0.17840594053268433, 0.2637172043323517, -0.07636116445064545, 0.04317666217684746, -0.015295641496777534, 0.026228027418255806, 0.0808737650513649, -0.00626761419698596, -0.03160508722066879, 0.19745983183383942, 0.13627833127975464, 0.1507086157798767, 0.14272017776966095, 0.21838709712028503, -0.27652665972709656, -0.17130108177661896, 0.08077472448348999, -0.09872332215309143, 0.06991743296384811, -0.1317216008901596, -0.05197723209857941, -0.029264573007822037, 0.17172817885875702, -0.08424271643161774, 0.1305907964706421, 0.21190552413463593], [-0.2049161046743393, -0.030221231281757355, 0.35235586762428284, -0.4719259440898895, 0.2746216058731079, 0.08320752531290054, -0.37123316526412964, 0.1608230322599411, 0.11687757819890976, -0.0492863729596138, 0.12241065502166748, 0.20972375571727753, -0.7673137187957764, 0.10150033980607986, -0.07845233380794525, 0.02917405590415001, -0.11311013996601105, -0.06726779788732529, -0.7630179524421692, -0.31079450249671936, -0.1167127937078476, -0.1633181869983673, -0.5924282073974609, -0.8486645817756653, 0.11807805299758911, 0.35383012890815735, 0.16191589832305908, 0.002749410457909107, -0.4039159417152405, 0.0965614914894104, 0.2346280813217163, -0.09888376295566559, -0.16352547705173492, -0.6983738541603088, -0.9080263376235962, -0.24263586103916168, 0.21978217363357544, 0.12622348964214325, 0.13625995814800262, 0.2282533496618271, -0.0207771398127079, -0.009604241698980331, 0.49660536646842957, -0.7693969011306763, 0.41196390986442566, -0.4774869978427887, -0.7601972818374634, 0.05660274252295494, -0.1968316286802292, -0.07584104686975479, 0.24178344011306763, 0.31689468026161194, -0.5851284265518188, -0.6477144360542297, -0.7988999485969543, 0.32050031423568726, -0.12734770774841309, 0.2956617474555969, -0.47302863001823425, 0.18730942904949188, -0.6107354760169983, -0.8516116738319397, 0.3018587529659271, -0.6980413794517517, -0.2715473473072052, 0.238954097032547, -0.8609914779663086, -0.34649398922920227, 0.38071176409721375, -0.013089734129607677, 0.1589304655790329, -0.38819336891174316, -0.13512511551380157, -0.0438225232064724, -0.08679535984992981, -0.17483273148536682, -0.8789799213409424, -0.5391677618026733, -0.16937866806983948, 0.06456615030765533, -0.1965654492378235, -0.5946293473243713, -0.27423152327537537, -0.45052847266197205, -0.03334684669971466, 0.04725782573223114, 0.2559499144554138, -0.7593165636062622, 0.039094071835279465, -0.46712493896484375, -0.3439715504646301, -0.814771294593811, -0.014992284588515759, 0.16199681162834167, 0.09843207895755768, -0.24709255993366241, 0.016902852803468704, 0.1135607361793518, 0.2338583916425705, 0.04025162756443024, -0.44338491559028625, -0.06374379992485046, -0.516836404800415, -0.11899275332689285, -0.4218652546405792, 0.2815028131008148, 0.5806434154510498, 0.032135967165231705, -0.19722668826580048, -0.8529202342033386, -0.32966306805610657, -0.07505512982606888, -0.335175484418869, 0.018084067851305008, -0.6814237833023071, -0.6515724062919617, 0.21178944408893585, 0.12174589931964874, 0.045588184148073196, -0.8321983814239502, 0.01118078175932169, -0.08869975060224533, -0.5502565503120422, 0.3003889322280884, -0.236333429813385, 0.13050341606140137, 0.18385981023311615, -0.17071162164211273], [-0.09000592678785324, 0.039463408291339874, 0.002957000397145748, 0.18743786215782166, 0.023302214220166206, 0.07401704043149948, -0.005629230290651321, -0.026940826326608658, 0.10896407812833786, -0.1577095091342926, 0.08287694305181503, -0.06369367241859436, -0.13203567266464233, 0.06762006133794785, 0.21305319666862488, -0.18755321204662323, 0.16672609746456146, 0.05394814908504486, -0.12141384929418564, 0.22190380096435547, 0.008909696713089943, -0.14299489557743073, 0.0057827020063996315, -0.11318378895521164, 0.05936411768198013, -0.18656009435653687, 0.11988608539104462, 0.1459980309009552, 0.006281841080635786, -0.17648865282535553, -0.025180695578455925, 0.11752286553382874, -0.14521336555480957, -0.20919832587242126, -0.1601523607969284, 0.14044158160686493, -0.10853098332881927, 0.07859587669372559, 0.09601953625679016, -0.010293222032487392, -0.1592995971441269, 0.10213036090135574, -0.26081472635269165, -0.021556250751018524, -0.24191129207611084, 0.09667132794857025, -0.12679754197597504, 0.12433889508247375, -0.12240626662969589, -0.009278111159801483, -0.04732409492135048, -0.07066676765680313, 0.13766498863697052, 0.0969739630818367, -3.896583802998066e-05, -0.022228801622986794, 0.19054892659187317, 0.015541560016572475, 0.05800272524356842, -0.059448692947626114, -0.009072712622582912, -0.048806414008140564, -0.05376971513032913, 0.02764597162604332, 0.2324611097574234, -0.05235455557703972, 0.05239695683121681, 0.25897014141082764, -0.08418602496385574, 0.1310962438583374, 0.09773590415716171, 0.13233037292957306, 0.16484932601451874, 0.06449411809444427, -0.014252613298594952, 0.14903029799461365, -0.08956699818372726, 0.043512023985385895, -0.1293909102678299, -0.1335214525461197, 0.03314302861690521, 0.031522855162620544, 0.13454480469226837, 0.12774212658405304, 0.09121321886777878, -0.14019839465618134, 0.012913135811686516, -0.053672753274440765, 0.19266703724861145, 0.07361767441034317, 0.11237065494060516, -0.06850393116474152, 0.19140028953552246, -0.17155799269676208, 0.13580918312072754, -0.035015132278203964, 0.004889248870313168, 0.020545609295368195, 0.07238131761550903, 0.16189898550510406, 0.06665943562984467, 0.12468814104795456, 0.21650029718875885, 0.18231229484081268, -0.10098201781511307, 0.008520935662090778, -0.15363219380378723, 0.04031064733862877, 0.09934955090284348, -0.09966696798801422, -0.13752397894859314, 0.26762890815734863, 0.08911963552236557, 0.1638142615556717, 0.0393495112657547, 0.09812364727258682, -0.07633480429649353, -0.014570172876119614, 0.08609714359045029, -0.09615056961774826, 0.06354539841413498, -0.10004675388336182, 0.006960890255868435, -0.0974084883928299, 0.08848247677087784, -0.08688519895076752, 0.1263188272714615, 0.09660130739212036], [0.14790505170822144, 0.13229875266551971, 0.07050637155771255, -0.07236288487911224, -0.2763267457485199, -0.1433831751346588, 0.14279383420944214, 0.35116055607795715, 0.06890230625867844, 0.38301992416381836, -0.3405041992664337, -0.5734812021255493, -0.9396506547927856, -0.3724590241909027, -0.0405915342271328, -1.0854579210281372, -0.24884848296642303, 0.2683814764022827, -1.1588383913040161, -0.28286799788475037, 0.1496734917163849, 0.2524932622909546, -0.5573216676712036, -0.47743168473243713, 0.10355006158351898, 0.2995847761631012, 0.1151864230632782, -0.06653176993131638, -0.8776258230209351, -1.0415669679641724, -0.3712180256843567, 0.26051729917526245, 0.2576654255390167, -1.015044093132019, -0.9677237868309021, 0.07242856174707413, 0.20600125193595886, 0.13957571983337402, -0.15896214544773102, 0.05470437929034233, -1.0664184093475342, 0.04212408512830734, 0.5288581848144531, -0.13473249971866608, 0.6205826997756958, -0.046959176659584045, -0.8400703072547913, -0.4448181390762329, 0.34719318151474, 0.3079780638217926, -0.24518722295761108, 0.3391168713569641, -0.059245284646749496, -0.6815200448036194, -1.017297625541687, 0.3247353732585907, -0.2965056300163269, -0.021838663145899773, -0.9813748598098755, 0.3510824143886566, -0.8678207397460938, -0.6184546947479248, 0.28621935844421387, -0.2659166753292084, -0.12212006747722626, -0.46344077587127686, -0.3089563548564911, -0.05033527687191963, 0.5517129302024841, -0.22788797318935394, -0.3176475465297699, 0.003158138832077384, -0.0029694349505007267, -0.27790704369544983, -0.6613520979881287, -0.8539268970489502, -0.7117876410484314, -0.15524379909038544, 0.2800566256046295, -0.7158679962158203, -0.5417957901954651, -0.7487103939056396, -0.008174608461558819, -0.12588757276535034, -0.500275731086731, -1.0239723920822144, 0.06796886026859283, -0.7540693879127502, 0.012369876727461815, -0.29709675908088684, -0.03197591006755829, -0.10334277153015137, -0.05203463137149811, -0.7944455742835999, 0.054260604083538055, 0.14715124666690826, -0.8410643339157104, -0.3741796910762787, 0.2181830108165741, -0.009358597919344902, -0.9044869542121887, -0.21125377714633942, -0.25706425309181213, 0.035690613090991974, -0.8669172525405884, 0.28981152176856995, 0.5415922999382019, -0.5544328093528748, 0.14655810594558716, -0.2566572427749634, 0.1832951456308365, 0.03052077256143093, -0.8083990216255188, 0.03306306526064873, -0.8236878514289856, -0.3108612298965454, -0.5813278555870056, -0.5775777101516724, -0.30151742696762085, -0.20784886181354523, 0.22612866759300232, 0.270831435918808, -0.8660699129104614, 0.28898775577545166, -0.656189501285553, 0.4568086862564087, 0.11266840994358063, -0.43959423899650574], [-0.15762974321842194, -0.034262608736753464, 0.06865942478179932, -0.031498465687036514, 0.07652860879898071, -0.08857252448797226, 0.019594980403780937, -0.09394703805446625, -0.013466199859976768, 0.002195816719904542, -0.09410878270864487, -0.018892675638198853, -0.02947518229484558, 0.013942573219537735, -0.029600640758872032, -0.09654457122087479, -0.04265992343425751, -0.008074675686657429, -0.022297952324151993, -0.10859958082437515, -0.11192183196544647, -0.012910332530736923, 0.012097408063709736, -0.0779101550579071, -0.07389730215072632, -0.024586521089076996, -0.004505227319896221, -0.08086396753787994, -0.11259503662586212, -0.018455835059285164, 0.04301152378320694, -0.11156439036130905, -0.08599258214235306, -0.11711501330137253, -0.1333022266626358, -0.021053653210401535, -0.07507810741662979, -0.024817753583192825, 0.04286683723330498, 0.04494095593690872, -0.023981107398867607, -0.1493535339832306, -0.004894793499261141, -0.007992949336767197, 0.0731939971446991, -0.09709012508392334, -0.10949637740850449, -0.03623877093195915, -0.030986545607447624, -0.08923107385635376, -0.027351664379239082, -0.022592883557081223, 0.0030144695192575455, -0.058546971529722214, -0.07831324636936188, -0.0087865786626935, -0.03252120316028595, -0.008181538432836533, -0.12355005741119385, -0.06585736572742462, -0.047193851321935654, -0.09767137467861176, 0.06441614776849747, -0.1259414255619049, -0.09139582514762878, 0.003938030917197466, -0.1343783587217331, 0.018093856051564217, -0.08085576444864273, -0.08119981735944748, -0.0015268375864252448, 0.02296864427626133, -0.0467282198369503, 0.007952846586704254, -0.08775225281715393, -0.05355556309223175, -0.0992153063416481, -0.08924229443073273, -0.04112128168344498, 0.03318376466631889, -0.15780435502529144, -0.13219627737998962, -0.14042161405086517, -0.14771224558353424, -0.040399011224508286, -0.09275484830141068, 0.04121414199471474, -0.0025312930811196566, -0.04810137674212456, -0.12216975539922714, -0.1032675951719284, -0.026000987738370895, -0.002556339604780078, 0.012054415419697762, -0.09858489781618118, -0.090971440076828, -0.00388550222851336, -0.11832547187805176, -0.1120346188545227, -0.13582558929920197, -0.10084651410579681, -0.03577948734164238, 0.007835046388208866, 0.010391934774816036, -0.09101630002260208, 0.07741189002990723, 0.13755881786346436, 0.022245142608880997, -0.03663524240255356, -0.1080421581864357, -0.0007212366908788681, -0.0616811066865921, -0.046446483582258224, -0.03340626507997513, -0.01346552837640047, 0.018220342695713043, -0.030511237680912018, -0.07814346253871918, 0.018644696101546288, -0.09821076691150665, -0.07248234003782272, -0.015259076841175556, -0.10352061688899994, -0.016658630222082138, -0.15515127778053284, -0.11372232437133789, 0.04369011148810387, -0.08595649152994156], [-1.1448124647140503, 0.009382863529026508, 0.45091503858566284, -0.8083986639976501, 0.19361372292041779, 0.2918705344200134, -1.2110812664031982, 0.15268929302692413, 0.15378762781620026, -0.46520930528640747, 0.13482388854026794, 0.06654736399650574, -0.8605839014053345, 0.22845359146595, 0.07422216236591339, -0.47156161069869995, -0.114529088139534, -0.31821298599243164, -1.0663402080535889, -0.2652120590209961, -0.40063393115997314, -1.2728205919265747, -0.6053077578544617, -0.8615014553070068, 0.16590502858161926, 0.3374851644039154, 0.1356465369462967, 0.03750621899962425, -0.6320218443870544, -0.16886115074157715, 0.18376435339450836, -0.34097012877464294, -0.8343786597251892, -0.9400661587715149, -0.9626510739326477, -0.6024231314659119, 0.33423876762390137, 0.1189424991607666, 0.21633557975292206, 0.24789389967918396, -0.47547808289527893, -0.2511749565601349, 0.7144717574119568, -1.0696074962615967, 0.7360012531280518, -0.8333916068077087, -0.8547872304916382, -0.051700249314308167, -1.0377384424209595, -0.2061142772436142, 0.2447042316198349, 0.3965718150138855, -0.817470133304596, -0.7390197515487671, -0.9543983340263367, 0.3603498637676239, -0.1775331050157547, 0.42160388827323914, -0.7742997407913208, 0.3513661324977875, -0.8142228722572327, -0.8188413977622986, 0.26015353202819824, -1.022623062133789, -0.3022443354129791, 0.31762218475341797, -0.9633744955062866, -0.5398073196411133, 0.3816409707069397, -0.06786519289016724, 0.018338792026042938, -0.6256641149520874, -0.04355638846755028, 0.03669938072562218, -0.23930712044239044, -0.423003226518631, -0.7536473274230957, -0.7037750482559204, -0.7228767275810242, 0.00329403905197978, -0.2796711027622223, -0.7102134823799133, -0.5576504468917847, -0.5048529505729675, -0.11404834687709808, -0.35450640320777893, 0.38583698868751526, -0.894377589225769, 0.03989511728286743, -0.66513592004776, -0.42906126379966736, -1.095588207244873, -0.20849813520908356, -0.002422926016151905, 0.19924378395080566, -0.9197115302085876, -0.04398719221353531, 0.03840741142630577, 0.24848029017448425, -0.11243237555027008, -0.7014884948730469, 0.07108841091394424, -0.6351308822631836, -0.38899368047714233, -0.8540592789649963, 0.4123654365539551, 0.770824670791626, -0.12476060539484024, -0.38259705901145935, -1.1224939823150635, -1.0396268367767334, -0.2474631816148758, -0.425847589969635, -0.08709201961755753, -0.723796010017395, -0.7726079821586609, 0.15187260508537292, 0.06710299104452133, 0.04967379570007324, -1.1721993684768677, -0.4007471799850464, -0.6416096687316895, -0.9248450994491577, 0.3241333067417145, -0.30396604537963867, -0.2941487729549408, 0.22191645205020905, -0.15416467189788818], [-2.446126699447632, -0.28022560477256775, -1.2398719787597656, -0.1894455999135971, -0.15504257380962372, -0.3335590362548828, -2.340259313583374, -0.8945092558860779, -0.3919382691383362, -1.6035468578338623, 0.14016740024089813, 0.13939213752746582, 0.5619018077850342, 0.06410858780145645, -0.05852784216403961, 0.4795953035354614, 0.1247139424085617, -0.9415432810783386, 0.6381468772888184, 0.3887544274330139, -1.0366523265838623, -2.780810832977295, 0.41497448086738586, 0.05449557676911354, -0.670342206954956, -1.5438628196716309, -0.45087602734565735, 0.09070465713739395, 0.6465997695922852, 0.4163224697113037, -0.011902060359716415, -0.8729686141014099, -2.0510642528533936, 0.646439790725708, 0.5944437980651855, -0.3056620657444, -1.2339046001434326, -0.5333628058433533, -0.24899134039878845, -0.6539754271507263, 0.42941415309906006, -0.18199795484542847, -1.6437900066375732, -0.11414289474487305, -1.591090440750122, -0.2934541404247284, 0.541581392288208, 0.17779459059238434, -2.3830926418304443, -0.8755366802215576, -0.13454364240169525, -1.5196356773376465, -0.11065957695245743, 0.38230884075164795, 0.5116844773292542, -1.5941898822784424, 0.32033097743988037, -0.9446744918823242, 0.6568348407745361, -1.3946921825408936, 0.5413694977760315, 0.3223283886909485, -1.4372152090072632, -0.4429229497909546, 