[{"weight": [[-0.8969738483428955, -0.30519306659698486], [-0.4784162640571594, 0.026099374517798424], [-0.5677853226661682, 0.41949793696403503], [-0.1631762534379959, -0.1731707602739334], [0.6565794348716736, -0.1912156343460083], [0.14616838097572327, -0.2428375631570816], [-0.12877681851387024, -0.16971836984157562], [-0.2168145626783371, 1.1032172441482544], [-0.27752870321273804, 0.05733227729797363], [1.2438457012176514, -0.6374616622924805], [1.240264892578125, -0.2767191231250763], [-0.7876222729682922, -0.7593420147895813], [-0.7593225836753845, 0.039477892220020294], [0.3323180675506592, -0.6276188492774963], [-0.219582200050354, -0.10179861634969711], [-0.4060593843460083, -0.8306711912155151], [-0.1583796888589859, -0.28030893206596375], [1.1745150089263916, -1.0302492380142212], [0.7546793818473816, -0.1880616992712021], [-0.30367976427078247, -0.09098611772060394], [0.7028496861457825, -0.8837447762489319], [-0.8502511382102966, -0.5786135196685791], [-0.9148654341697693, -1.4484366178512573], [0.9277288913726807, 1.4143426418304443], [0.45834773778915405, 1.2098853588104248], [-1.250869631767273, 0.4441906809806824], [1.3159774541854858, 1.464565396308899], [-0.06946717202663422, 0.02740764245390892], [-0.7320216298103333, -0.9513323903083801], [0.5869212746620178, -0.8347815275192261], [-0.11055705696344376, -0.7695066928863525], [0.6860865354537964, -0.21648289263248444], [0.7141586542129517, 0.08078273385763168], [-0.6719616651535034, 1.1778186559677124], [1.225437045097351, 1.3125637769699097], [-1.1923702955245972, 0.27070996165275574], [1.2377362251281738, 1.1380836963653564], [-1.361128330230713, -0.16090208292007446], [-0.4380968511104584, -0.022069549188017845], [0.7194753885269165, -0.07349351048469543], [1.3379114866256714, -0.684812605381012], [0.7730749845504761, -0.8965202569961548], [0.17562343180179596, -0.3036869764328003], [-0.36309176683425903, 0.12291893362998962], [-0.3060513734817505, 0.1839686781167984], [0.336799293756485, -0.8017881512641907], [-0.058706652373075485, -0.24799910187721252], [1.6101999282836914, -0.5436391234397888], [-0.09580393880605698, -0.40277349948883057], [-0.5194670557975769, 0.35675227642059326], [1.247625708580017, 1.077276349067688], [-0.9959936738014221, 0.015531733632087708], [-0.4073280096054077, -0.8609259128570557], [-0.1932203620672226, -0.05893133208155632], [1.0151795148849487, 0.34137219190597534], [-0.20113490521907806, -0.23074088990688324], [0.7530642151832581, -0.675865650177002], [1.3315917253494263, 1.1646965742111206], [-0.15496475994586945, -0.20762240886688232], [1.1278698444366455, -0.1977212131023407], [-1.3071656227111816, 0.5198236703872681], [-0.02060985565185547, 1.8187988996505737], [-0.13474732637405396, 0.7732179760932922], [-0.8700471520423889, -0.9697457551956177], [-1.056017518043518, 0.9228705167770386], [-0.21814529597759247, -0.2329779416322708], [0.8460638523101807, -0.7700096368789673], [-0.28141623735427856, -0.1296970397233963], [1.0378271341323853, -0.8007872104644775], [0.12929463386535645, 1.2920507192611694], [-0.20527945458889008, -0.10901814699172974], [0.7111852765083313, 0.03394743427634239], [-0.8008013963699341, -0.9039520621299744], [-0.38950300216674805, 0.017944835126399994], [-1.0781657695770264, -0.41123059391975403], [1.1249980926513672, 1.178080677986145], [1.317237377166748, 1.2400257587432861], [-0.5374912619590759, -0.6101204752922058], [1.4738988876342773, -0.6423788070678711], [1.069333553314209, 1.1292849779129028], [-0.9552682042121887, -0.842841386795044], [-0.2895851135253906, -0.00664839381352067], [-0.3521905243396759, -0.047296132892370224], [-0.393163800239563, 0.01711423136293888], [-0.04727953299880028, -0.11193150281906128], [-0.0016477137105539441, -0.18489034473896027], [-0.41291531920433044, -0.02527095377445221], [1.2533776760101318, 1.4334383010864258], [-1.2962226867675781, -2.0557210445404053], [0.6795252561569214, 2.1698169708251953], [-0.14494626224040985, 0.15325793623924255], [-0.06668280065059662, -0.7344332337379456], [0.8589591383934021, -1.304716944694519], [0.715293288230896, -0.8900864124298096], [-0.232339009642601, 1.1499512195587158], [1.3040424585342407, -0.2309446632862091], [0.9969044923782349, 1.199201226234436], [-0.12894569337368011, -0.13121424615383148], [-0.11280211061239243, -0.09348928183317184], [0.10561847686767578, -0.4730544090270996], [-0.8518040180206299, 0.3547365069389343], [0.21210923790931702, -0.9324767589569092], [-0.4608325660228729, -0.004892705474048853], [0.5153650641441345, -0.8827720880508423], [-0.015332506038248539, -0.18087592720985413], [-1.115473747253418, 1.1709569692611694], [-0.3636440336704254, -0.7766487002372742], [0.6143851280212402, -0.1251899152994156], [0.9949602484703064, -0.5753832459449768], [-1.03318190574646, 0.7974263429641724], [0.9396535158157349, -0.8978620767593384], [0.6836370825767517, -1.0690944194793701], [0.1662798672914505, -0.8579590916633606], [1.2953273057937622, 1.673996925354004], [-0.3455407917499542, 1.099010705947876], [0.2347552627325058, 1.6818143129348755], [-1.2694884538650513, -0.17860932648181915], [0.4590943157672882, 1.4176334142684937], [-0.2819049656391144, -0.15116044878959656], [-1.5315264463424683, 0.7811166048049927], [0.5371622443199158, -0.6812611222267151], [-0.3500143885612488, -0.13532805442810059], [-0.18477581441402435, 1.6983118057250977], [-1.1175134181976318, 0.29702988266944885], [-0.20715667307376862, -0.21270877122879028], [-0.017137855291366577, -0.2755626440048218], [0.48531052470207214, -0.022423362359404564], [0.7480489015579224, 2.040436267852783]], "bias": [1.1927145719528198, 1.5569721460342407, 1.3030601739883423, 1.27106511592865, 0.34129399061203003, 0.40763238072395325, 0.8270018696784973, -0.2747114598751068, 0.6967602372169495, -0.37331363558769226, 0.08291419595479965, -0.33636224269866943, 1.1842833757400513, 0.35648053884506226, 0.8159195184707642, -0.46993640065193176, 1.3482303619384766, 0.4294176697731018, 0.013753066770732403, 0.7958385348320007, -0.33297020196914673, -0.015452858991920948, 1.1015517711639404, 0.24232502281665802, 0.6715942025184631, -0.33479854464530945, 0.6498665809631348, 0.17749974131584167, 0.9332417845726013, 0.010679344646632671, 0.22579766809940338, 0.6177229285240173, -0.2333848923444748, -0.23299995064735413, -0.28671497106552124, 0.2683093845844269, -0.4981630742549896, 0.26487621665000916, 0.9213001132011414, 0.797659158706665, 0.6136229634284973, -0.13165074586868286, 0.8098574280738831, 0.6428285241127014, -0.017188169062137604, 0.21604397892951965, 0.10743238031864166, 1.7454040050506592, 1.1012046337127686, 1.1263821125030518, -0.07899840921163559, 1.2469286918640137, -0.39731061458587646, 0.023816250264644623, -0.1633240133523941, 0.7780917882919312, 1.138765811920166, -0.6602576375007629, 1.1813809871673584, 0.5648605227470398, 0.45177024602890015, 0.6687828898429871, 1.0437718629837036, -0.4163270890712738, -0.5695276856422424, 1.5175652503967285, 0.330003023147583, 0.28398117423057556, -0.1980171948671341, -0.6999402642250061, 0.7004252076148987, 0.8203506469726562, -0.25833478569984436, 0.35981079936027527, 0.11321227252483368, -0.6192280054092407, -0.3344414234161377, 0.5343021154403687, 0.2019054889678955, -0.5125245451927185, -0.15545710921287537, 0.3663020431995392, 0.5699440240859985, 1.3392730951309204, 1.0981082916259766, 0.25420111417770386, 1.571428894996643, -0.31355151534080505, 1.3986562490463257, -0.23387406766414642, 0.048085954040288925, -0.48117387294769287, 1.0201789140701294, 0.30582544207572937, -0.1501065045595169, 0.027246007695794106, -0.18639476597309113, 0.6786990761756897, 0.38891103863716125, 1.640653133392334, 1.403449535369873, 0.7606356143951416, 0.64605313539505, 0.0026547268498688936, 0.6181437373161316, -0.34423530101776123, -0.29254764318466187, -0.3470080494880676, 0.8126427531242371, 0.5208112001419067, -0.43224042654037476, 0.4582532048225403, 1.0548571348190308, 0.6269186735153198, 1.0734871625900269, 0.07313018292188644, 0.28931111097335815, -0.2977844178676605, 1.2639107704162598, 0.7119446992874146, 1.4012398719787598, 1.2613664865493774, 1.009658932685852, 0.153764009475708, 1.1134239435195923, 0.5507105588912964, 0.2793940007686615, 0.8476854562759399]}, {"weight": [[0.027495766058564186, -0.05540728569030762, 0.00263684312812984, 0.052984949201345444, 0.008707038126885891, -0.03695566579699516, 0.025569386780261993, 0.05084887892007828, 0.06435792148113251, 0.013247187249362469, 0.030954087153077126, -0.08428317308425903, 0.011029881425201893, 0.024279898032546043, -0.01952342316508293, 0.0033576353453099728, -0.08483666181564331, -0.13603028655052185, -0.03390001878142357, -0.06042412668466568, -0.06840706616640091, -0.09309614449739456, -0.03932106867432594, -0.07842250913381577, -0.07152993232011795, 0.025442685931921005, -0.03804260492324829, 0.07453365623950958, 0.04162897169589996, -0.002368612913414836, 0.016380883753299713, -0.032894667237997055, -0.0017860770458355546, -0.04111763834953308, -0.08529942482709885, -0.05005999282002449, -0.017891691997647285, -0.00227325945161283, 0.006881726905703545, -0.12452161312103271, -0.11074022948741913, 0.014937994070351124, 0.023846184834837914, 0.0577029325067997, 0.0295732319355011, -0.06358977407217026, -0.04856039956212044, -0.0029076887294650078, -0.029359586536884308, 0.053726885467767715, -0.13531537353992462, 0.04163071885704994, -0.13155332207679749, 0.0808175653219223, -0.12581337988376617, 0.001082775415852666, 0.013837849721312523, 0.016863709315657616, -0.06981615722179413, -0.02166447602212429, -0.05442711338400841, -0.06773791462182999, -0.09888040274381638, -0.01047916617244482, 0.03080977126955986, -0.04163318872451782, -0.04949827864766121, -0.05832960456609726, 0.023602453991770744, -0.028974229469895363, -0.08398499339818954, -0.008304271847009659, 0.020218998193740845, 0.07177802175283432, 0.05275888741016388, -0.019731583073735237, -0.12600205838680267, -0.04159872233867645, -0.017287008464336395, -0.10496632009744644, -0.13413111865520477, 0.0399610660970211, 0.008271174505352974, -0.0027290063444525003, -0.03383803367614746, -0.0542130246758461, -0.06141939014196396, -0.09232383221387863, -0.06512798368930817, -0.1656028777360916, -0.08285447955131531, -0.11605388671159744, -0.0766708105802536, 0.02063903771340847, 0.0010165926069021225, -0.13091500103473663, -0.021371182054281235, -0.06788389384746552, -0.015479961410164833, -0.07825610041618347, -0.053699515759944916, -0.019871026277542114, -0.011918215081095695, -0.0625290796160698, -0.07585833966732025, 0.011469741351902485, -0.030371006578207016, -0.05282129719853401, -0.03947543725371361, -0.04282776638865471, -0.030757037922739983, -0.013740272261202335, -0.08786728978157043, -0.08819343894720078, -0.05404026061296463, 0.0033047464676201344, 0.01188632007688284, -0.09661270678043365, 0.05253872647881508, 0.02251918613910675, 0.02316799759864807, -0.04295821487903595, 0.02725461684167385, 0.054268188774585724, -0.06619403511285782, 0.05754554271697998, -0.048833779990673065, -0.0993814617395401], [-0.124676913022995, 0.06869025528430939, 0.12504151463508606, 0.18546602129936218, 0.09666239470243454, 0.18131324648857117, 0.22723224759101868, -0.012547758407890797, 0.1189502701163292, -0.031572986394166946, 0.06667227298021317, -0.39502158761024475, -0.07146038860082626, 0.10359714925289154, 0.18984875082969666, -0.29791656136512756, 0.1055791825056076, -0.05188456177711487, 0.045214537531137466, 0.20804272592067719, -0.10353109985589981, -0.3880592882633209, -0.7005081176757812, 0.0649627223610878, 0.048222027719020844, -0.09060029685497284, 0.05290193110704422, 0.10124372690916061, -0.5323421359062195, -0.03424025699496269, -0.1763850897550583, 0.02178259938955307, -0.0014130126219242811, -0.14506998658180237, 0.05032237619161606, -0.19914494454860687, -0.10682109743356705, -0.3068792521953583, 0.0063466886058449745, 0.0943344458937645, -0.09301324188709259, -0.06042703241109848, 0.2421172559261322, 0.1348690241575241, 0.15089042484760284, -0.11250435560941696, 0.14323502779006958, 0.013746792450547218, 0.1310654878616333, 0.03229008615016937, -0.03530244529247284, -0.07707557082176208, -0.3700217604637146, 0.19757971167564392, -0.008932302705943584, 0.16303806006908417, 0.06246359273791313, -0.05121375247836113, 0.24927741289138794, 0.059471942484378815, -0.15088440477848053, 0.10711757093667984, 0.10403905808925629, -0.4785720407962799, -0.18472586572170258, 0.19788625836372375, 0.008558874949812889, 0.06207752600312233, -0.030789930373430252, -0.09083611518144608, 0.27053168416023254, 0.10153675079345703, -0.42884713411331177, 0.15078581869602203, -0.2740858495235443, -0.06914504617452621, -0.08665245771408081, -0.3375662863254547, -0.024169107899069786, -0.007012013345956802, -0.3735712766647339, 0.2370694875717163, 0.021043265238404274, 0.09796737134456635, 0.14321660995483398, 0.2035638391971588, 0.24890117347240448, 0.043220434337854385, -0.61468106508255, 0.07198376208543777, 0.12004269659519196, -0.1498461812734604, -0.17781296372413635, 0.024588093161582947, -0.13520114123821259, 0.046777307987213135, 0.06893918663263321, 0.2586980164051056, 0.28293871879577637, 0.1239733025431633, -0.04849682375788689, -0.12961101531982422, 0.09331505745649338, -0.18305720388889313, 0.13382871448993683, -0.17896060645580292, -0.3313831686973572, 0.09621952474117279, 0.08994182199239731, -0.1543002724647522, -0.1815268099308014, -0.1008833795785904, -0.16211917996406555, 0.0007528053829446435, 0.1022019013762474, 0.00204929756000638, -0.2746823728084564, -0.07420877367258072, 0.13786344230175018, -0.023375436663627625, 0.029873240739107132, 0.07604876905679703, 0.058441027998924255, -0.12238091975450516, 0.21366167068481445, 0.1858881115913391, 0.12641790509223938, 0.08331745117902756], [0.09206972271203995, 0.07822327315807343, 0.1540868878364563, 0.07419971376657486, -0.08304690569639206, 0.1073419377207756, 0.13622316718101501, 0.04230165109038353, 0.16906562447547913, -0.18020284175872803, -0.06588100641965866, -0.045158691704273224, 0.04793449491262436, -0.08727569878101349, 0.048584938049316406, -0.14534910023212433, 0.04986059293150902, -0.18762429058551788, -0.07807904481887817, 0.02042645588517189, -0.08628979325294495, -0.06468642503023148, 0.02270963042974472, -0.3574446439743042, -0.09217701107263565, 0.08694006502628326, -0.39536359906196594, 0.08892503380775452, 0.06840977072715759, -0.17724864184856415, -0.20012013614177704, -0.05993077531456947, 0.06919892132282257, -0.032765310257673264, -0.3750995397567749, 0.07474864274263382, -0.27082446217536926, -0.002829561475664377, 0.052245449274778366, -0.06584566086530685, -0.03221984952688217, -0.1838500201702118, -0.004932427778840065, 0.08008090406656265, 0.046121180057525635, -0.1300710290670395, 0.09033147990703583, -0.0556274950504303, -0.052104413509368896, 0.06755821406841278, -0.24637556076049805, 0.1288316696882248, -0.10112204402685165, 0.16575446724891663, -0.13384902477264404, 0.09246280044317245, -0.09781931340694427, -0.3511497676372528, 0.02476459927856922, -0.0011120843701064587, -0.0136833181604743, -0.07199597358703613, -0.027615590021014214, -0.035933174192905426, -0.03887057304382324, 0.05601416155695915, -0.07923036813735962, -0.00673107011243701, -0.1976330429315567, -0.12510523200035095, 0.11275243014097214, -0.0718512237071991, -0.05649374797940254, 0.061200931668281555, 0.03566436842083931, -0.26427266001701355, -0.4279732406139374, -0.03939278423786163, -0.10734390467405319, -0.3818398118019104, -0.06326618790626526, 0.07139275968074799, 0.06744001060724258, 0.1594446897506714, 0.04174380376935005, 0.05842438340187073, 0.1171090379357338, -0.4393085539340973, -0.048283617943525314, -0.40369704365730286, 0.04463152959942818, -0.12485691905021667, -0.26699358224868774, -0.08332883566617966, -0.035811662673950195, -0.0346817746758461, -0.2692026197910309, 0.07344387471675873, 0.007567724213004112, 0.06799888610839844, 0.03363296017050743, -0.18852823972702026, 0.05870401859283447, -0.14582788944244385, 0.031212953850626945, 0.08456218242645264, -0.11962782591581345, -0.06628252565860748, -0.015783539041876793, -0.009722109884023666, -0.19912195205688477, -0.13112428784370422, -0.10334514081478119, -0.38231325149536133, 0.04946960508823395, -0.18453466892242432, -0.0049610198475420475, -0.26538610458374023, 0.031329113990068436, 0.11686839908361435, -0.08082006871700287, 0.09255839884281158, 0.012530623935163021, 0.12479294091463089, 0.08423671126365662, 0.017256958410143852, 0.08167866617441177, -0.2159098982810974], [0.04289549961686134, 0.0761256217956543, 0.005856679752469063, 0.10407523065805435, 0.02089681848883629, 0.11140089482069016, -0.006648777052760124, -0.06086369603872299, 0.06358198076486588, 0.0071874987334012985, 0.010793552733957767, -0.08658603578805923, 0.06435959786176682, 0.013062412850558758, -0.012352199293673038, -0.06372677534818649, 0.016781194135546684, 0.14016492664813995, 0.029825106263160706, -0.0036000353284180164, -0.0062892744317650795, -0.13246458768844604, 0.036155033856630325, -0.19184277951717377, -0.042270477861166, -0.18868228793144226, -0.03454948961734772, 0.05393682420253754, 0.06171005591750145, 0.0645485669374466, 0.10581061989068985, 0.018354669213294983, 0.024588439613580704, -0.26448991894721985, -0.2667037844657898, -0.15464751422405243, -0.1327367126941681, -0.059420619159936905, 0.06635735183954239, 0.05535181984305382, 0.10911665856838226, 0.000845173723064363, 0.1703643649816513, 0.02244308963418007, -0.01952551119029522, 0.11291090399026871, 0.09447445720434189, 0.11390529572963715, 0.04894748330116272, 0.0513620600104332, -0.1378631293773651, 0.02465086616575718, -0.10738679766654968, 0.07542098313570023, 0.008946283720433712, 0.03852441906929016, 0.16322116553783417, -0.25172269344329834, -0.016820497810840607, 0.0422496423125267, -0.18106769025325775, 0.12290532886981964, 0.03003019466996193, -0.07359335571527481, -0.1872308850288391, 0.09692170470952988, 0.11383002251386642, 0.019899601116776466, 0.07246363908052444, -0.14642895758152008, 0.07281109690666199, -0.018135564401745796, -0.07711147516965866, 0.047488730400800705, -0.07187378406524658, -0.3733328580856323, -0.1736672967672348, 0.07391282171010971, -0.005381512921303511, -0.24432332813739777, -0.0175156407058239, 0.006037380080670118, 0.045442432165145874, 0.007428198121488094, 0.018159357830882072, 0.054057035595178604, 0.06419061124324799, -0.36366409063339233, -0.10607806593179703, -0.141902893781662, 0.05557547137141228, -0.06501467525959015, 0.05615134537220001, 0.07049213349819183, -0.058564893901348114, 0.1152491644024849, -0.2998889684677124, 0.03847265616059303, 0.15887008607387543, -0.007360519375652075, 0.025327304378151894, 0.08609021455049515, 0.02579726278781891, -0.016012247651815414, 0.12963910400867462, -0.3057624101638794, -0.06854234635829926, 0.05906017869710922, 0.09095289558172226, -0.11692151427268982, -0.010190541855990887, 0.14445090293884277, 0.12400561571121216, -0.2072058916091919, 0.028728334233164787, -0.15907183289527893, -0.1352895200252533, -0.29330724477767944, 0.008737464435398579, -0.20323798060417175, 0.1555468589067459, 0.07290275394916534, 0.01998000033199787, -0.09006994962692261, 0.11275795847177505, 0.08544661104679108, 0.0421576127409935, -0.0962231233716011], [-0.19678835570812225, 0.1190146878361702, 0.18512913584709167, 0.19833487272262573, 0.18722212314605713, 0.18622209131717682, 0.20633871853351593, 0.009754866361618042, 0.20161888003349304, -0.40835899114608765, -0.22559069097042084, -0.6759635210037231, 0.04946392402052879, -0.003980797249823809, 0.22293701767921448, -0.5620197057723999, 0.20576484501361847, -0.4776932895183563, 0.12359098345041275, 0.2422167956829071, -0.2949470579624176, -0.40148723125457764, -1.0283061265945435, 0.09091410040855408, 0.01618286967277527, -0.1919272392988205, 0.08574987202882767, 0.19218994677066803, -0.601682722568512, -0.185172900557518, -0.19373933970928192, 0.11458666622638702, 0.04305179789662361, -0.0364273376762867, -0.10890796780586243, -0.17702187597751617, -0.09270309656858444, -0.41667768359184265, 0.05303553491830826, 0.12542663514614105, -0.31320250034332275, -0.33184757828712463, 0.24621248245239258, 0.2170916199684143, 0.03206900879740715, -0.0753457322716713, 0.10874369740486145, -0.14675921201705933, 0.05066072195768356, 0.027075989171862602, 0.04172578081488609, -0.10383863002061844, -0.5329393744468689, 0.21862508356571198, -0.10133136808872223, 0.1625036895275116, -0.010927014984190464, -0.07009634375572205, 0.205950066447258, -0.004693201743066311, -0.15200214087963104, 0.11036121100187302, 0.15883076190948486, -0.7402334213256836, -0.24140934646129608, 0.27948758006095886, -0.21173731982707977, 0.14672990143299103, -0.4234113395214081, -0.12248507142066956, 0.19946911931037903, 0.056926179677248, -0.6911522746086121, 0.07608451694250107, -0.5002469420433044, -0.01998419500887394, -0.1177380159497261, -0.43284881114959717, -0.4240921437740326, -0.023922031745314598, -0.6038520336151123, 0.09838303923606873, 0.13086582720279694, 0.16495884954929352, 0.3279609680175781, 0.3394632637500763, 0.22034932672977448, -0.07076886296272278, -1.2479051351547241, 0.00841744989156723, 0.20787154138088226, -0.2953874170780182, -0.4123140871524811, -0.3181811571121216, -0.02806028351187706, -0.3157674968242645, -0.022004375234246254, 0.2532734274864197, 0.21049228310585022, 0.23043236136436462, 0.04718894883990288, -0.3550797402858734, 0.039888590574264526, -0.14241157472133636, 0.2264270931482315, -0.06318333745002747, -0.37188512086868286, 0.1496703028678894, -0.018459497019648552, -0.023118972778320312, -0.5038700699806213, -0.36805635690689087, -0.2977537512779236, 0.10072904080152512, 0.07283380627632141, 0.10172151774168015, -0.3244147002696991, 0.021651919931173325, 0.21037259697914124, -0.05411776527762413, 0.10660271346569061, 0.245793879032135, 0.010387390851974487, -0.12600967288017273, 0.20634563267230988, 0.24429485201835632, 0.19196933507919312, 0.16824352741241455], [-0.004203860182315111, -0.00037139130290597677, -0.04522705078125, -0.05943182110786438, 0.029316995292901993, 0.05243172496557236, -0.014505178667604923, 0.012063561007380486, 0.07795651257038116, -0.024957679212093353, -0.029374156147241592, 0.026003636419773102, 0.04374600201845169, -0.12277689576148987, -0.01826872117817402, 0.025370106101036072, -0.03237757831811905, -0.14918692409992218, 0.012652065604925156, 0.08131848275661469, -0.11889783293008804, -0.09644562751054764, -0.15177884697914124, 0.04852840304374695, 0.0037874665576964617, 0.012114359065890312, 0.06722621619701385, 0.007895149290561676, -0.03401057794690132, -0.006874670274555683, -0.06807062774896622, -0.11600638926029205, -0.06008373573422432, -0.10348635911941528, 0.0014940446708351374, -0.07579663395881653, -0.07789793610572815, -0.05548178404569626, -0.09624446928501129, 0.004511781968176365, -0.1760847121477127, -0.1539801061153412, -0.03845446556806564, 0.02248731628060341, -0.0541265644133091, -0.1335177719593048, 0.013240843079984188, -0.1500583440065384, -0.09532223641872406, -0.032122738659381866, -0.10281693935394287, -0.09935517609119415, -0.14119064807891846, -0.06406469643115997, -0.05058937147259712, -0.010201612487435341, -0.1816883534193039, -0.1277608424425125, -0.007672119420021772, -0.008260838687419891, 0.058532487601041794, 0.07247449457645416, 0.0299677774310112, 0.005751993507146835, -0.09821896255016327, -0.037648819386959076, -0.14934618771076202, -0.00195214431732893, -0.1127021536231041, 0.03253413364291191, 0.054325614124536514, 0.03547174856066704, -0.060849692672491074, -0.018428010866045952, 0.00183145294431597, -0.005526124034076929, -0.024112310260534286, -0.10103815048933029, -0.16899935901165009, -0.07734478265047073, -0.16069336235523224, -0.07644391059875488, -0.028740130364894867, 0.016836993396282196, -0.043834149837493896, 0.04448589310050011, -0.02977297455072403, -0.0765443965792656, -0.10835947841405869, 0.010334809310734272, -0.02542753517627716, -0.06826348602771759, -0.15264858305454254, -0.09674399346113205, 0.022442510351538658, -0.1490556001663208, 0.024615557864308357, 0.05362435057759285, -0.03096475452184677, -0.12453337013721466, -0.007943015545606613, -0.09506931900978088, -0.028130333870649338, -0.132338747382164, -0.008259467780590057, -0.08456587791442871, -0.0329323336482048, -0.08095511794090271, -0.11481139808893204, -0.08406181633472443, -0.03779178485274315, -0.05141370743513107, -0.029973767697811127, -0.026600373908877373, -0.05319923907518387, -0.043779127299785614, -0.000412252004025504, -0.020215267315506935, 0.03836170211434364, -0.003516759490594268, -0.1476038247346878, -0.09278123080730438, 0.02635165862739086, -0.03253543749451637, 0.03306727483868599, 0.05853189900517464, 0.06708892434835434, -0.0028591896407306194], [-0.28207388520240784, 0.0377262681722641, 0.2059440165758133, -0.12533585727214813, -0.23078662157058716, -0.20563673973083496, -0.09440167993307114, 0.3924766182899475, 0.0711931362748146, -0.4094572067260742, -0.32748478651046753, -0.7203673720359802, -0.03611477091908455, -0.22688710689544678, -0.16940028965473175, -0.6211718320846558, -0.10636434704065323, -0.45500364899635315, -0.14395380020141602, -0.185185045003891, -0.46712350845336914, -0.3392305076122284, -0.5899505019187927, 0.29068341851234436, 0.13111944496631622, 0.18664096295833588, 0.043275050818920135, 0.030367640778422356, -0.47950315475463867, -0.34502455592155457, -0.2833065390586853, -0.2622723877429962, -0.08747462183237076, 0.3432203531265259, 0.243408203125, 0.1102752685546875, 0.1944090574979782, 0.007966266013681889, -0.06274732202291489, -0.09319441765546799, -0.4529530704021454, -0.4564542770385742, -0.11260835826396942, 0.031822215765714645, 0.13013869524002075, -0.21364448964595795, -0.14797912538051605, -0.38072869181632996, -0.1846405267715454, 0.21318329870700836, 0.0816190168261528, 0.00018725305562838912, -0.47346800565719604, -0.05867154896259308, -0.13860997557640076, -0.22858288884162903, -0.30604374408721924, 0.23223990201950073, -0.14159514009952545, -0.3488171100616455, 0.30285006761550903, 0.10726956278085709, 0.20728641748428345, -1.0420082807540894, 0.31843799352645874, -0.11344283074140549, -0.38291072845458984, -0.2299729585647583, -0.5217933058738708, 0.32890576124191284, -0.1234453096985817, -0.15039654076099396, -0.842766284942627, -0.10134141147136688, -0.10923994332551956, 0.1586267352104187, 0.05436196178197861, -0.3719951808452606, -0.48695337772369385, 0.23107144236564636, -0.5526787638664246, -0.09211675077676773, -0.09074203670024872, -0.022617677226662636, -0.12704993784427643, -0.15163403749465942, -0.0373886376619339, 0.20372499525547028, -0.7321711778640747, 0.15105845034122467, 0.07771573960781097, -0.21224547922611237, -0.3807653486728668, -0.3517937958240509, 0.37111181020736694, -0.22388724982738495, 0.2192666381597519, -0.14719055593013763, -0.1442490965127945, -0.043358951807022095, 0.10469338297843933, -0.09011265635490417, 0.011861879378557205, -0.15799812972545624, -0.19357571005821228, 0.324993759393692, -0.47151651978492737, -0.2775621712207794, -0.2899547517299652, 0.22313539683818817, -0.4761486053466797, -0.37234941124916077, -0.10942629724740982, 0.20089660584926605, 0.20143601298332214, 0.287723571062088, 0.026450613513588905, 0.3746113181114197, -0.10734038800001144, 0.1594132035970688, -0.34035637974739075, -0.11533576250076294, 0.1488555669784546, 0.1987769603729248, -0.12593522667884827, -0.19423072040081024, -0.07024718075990677, 0.23295055329799652], [-0.4517834186553955, -0.3584916889667511, -0.49585825204849243, -0.18042415380477905, -0.024572933092713356, -0.02503873221576214, -0.09945402294397354, -0.6527876257896423, -0.26212936639785767, 0.23343634605407715, 0.11773906648159027, -0.05588463321328163, -0.543305516242981, 0.24575547873973846, -0.253084272146225, 0.26083168387413025, 0.019611096009612083, 0.20876440405845642, 0.07290069013834, -0.32045748829841614, 0.313808798789978, -0.3888950049877167, -0.07265429943799973, -0.2050975114107132, -0.3015861213207245, -0.8225386738777161, -0.010869650170207024, -0.22425422072410583, -0.05067945644259453, 0.2963627278804779, 0.254108190536499, -0.016007699072360992, -0.10019706934690475, -0.5718061327934265, -0.08757764101028442, -0.8357880711555481, -0.05340293422341347, -0.7633723020553589, -0.41691452264785767, -0.04773978888988495, 0.2773192524909973, 0.3455126881599426, 0.00012678615166805685, -0.2745065987110138, -0.31715598702430725, 0.30612242221832275, 0.06924289464950562, 0.15041357278823853, 0.08075059950351715, -0.3811357021331787, -0.052656140178442, -0.6562825441360474, 0.14235568046569824, -0.286481648683548, 0.011932245455682278, -0.13165798783302307, 0.15776602923870087, -0.014225269667804241, -0.1648889183998108, 0.15136417746543884, -0.8749796748161316, -0.6295213103294373, -0.4087460935115814, 0.13363929092884064, -0.6252935528755188, -0.12212058901786804, 0.28281721472740173, -0.19044587016105652, 0.3695017099380493, -0.6242199540138245, -0.24007363617420197, -0.11624545603990555, 0.17767909169197083, -0.38093301653862, -0.666491687297821, -0.11341798305511475, 0.03281687572598457, -0.11320998519659042, 0.3238503932952881, -0.12490085512399673, -0.24276655912399292, -0.3383861482143402, -0.35727623105049133, -0.3199464678764343, -0.1746261566877365, -0.0691436231136322, -0.36747267842292786, -0.18242782354354858, -0.03381064906716347, -0.5273241400718689, -0.24882781505584717, 0.2922453284263611, 0.17424966394901276, 0.32007166743278503, -0.6199507713317871, 0.16826161742210388, -0.1304716169834137, -0.21548569202423096, -0.19570298492908478, 0.08729048818349838, -0.7091253995895386, 0.23985546827316284, -0.35251641273498535, 0.26508426666259766, -0.15921200811862946, -0.6389233469963074, 0.1960032880306244, -0.026986682787537575, 0.09908439964056015, -0.6390843391418457, 0.35512807965278625, 0.22457459568977356, 0.16999134421348572, -0.21755003929138184, -0.5521683096885681, -0.6616191864013672, -0.710816502571106, -0.523720920085907, -0.2416418492794037, -0.8265856504440308, 0.1420041173696518, -0.16066136956214905, -0.638762354850769, -0.8115742802619934, -0.10088682919740677, 0.01436544768512249, 0.0015593519201502204, -0.4182954728603363], [-0.6155757308006287, -0.3121843934059143, -0.22415146231651306, -0.22545400261878967, 0.10924690216779709, -0.1689741015434265, -0.33176618814468384, 0.1378135085105896, -0.16318970918655396, 0.21181578934192657, -0.03544776141643524, -0.8547378778457642, -0.42472153902053833, -0.2751973569393158, -0.2987840473651886, -0.9287762641906738, -0.420548677444458, -0.0193916205316782, 0.1385277807712555, -0.42961710691452026, -0.05541425198316574, -0.7136437892913818, -1.1210070848464966, 0.3275955319404602, 0.12952719628810883, -0.5197321176528931, 0.3323512673377991, -0.03542781621217728, -0.9078615307807922, -0.14167319238185883, -0.6181465983390808, 0.0985272154211998, 0.050673067569732666, -0.06391818821430206, 0.4004695415496826, -0.36654242873191833, 0.4653417468070984, -0.8590486645698547, -0.38134196400642395, 0.08007784932851791, 0.05562277138233185, -0.0132436603307724, -0.22608843445777893, -0.30567049980163574, -0.2005179524421692, -0.23253598809242249, -0.3306557834148407, -0.07067658752202988, -0.4418192207813263, -0.22038014233112335, 0.33415141701698303, -0.47996917366981506, -0.849983274936676, -0.26769113540649414, 0.20307676494121552, -0.46555837988853455, -0.1950957477092743, 0.39447054266929626, -0.29148077964782715, 0.03966352716088295, -0.39926788210868835, 0.0819845050573349, -0.027942262589931488, -1.0844707489013672, -0.20418527722358704, -0.4214749336242676, -0.03761584684252739, -0.38328760862350464, 0.11504384130239487, 0.23857471346855164, -0.35878047347068787, 0.17994548380374908, -0.9083009362220764, -0.33889615535736084, -0.7373849153518677, 0.42599818110466003, 0.38426369428634644, -0.6755934357643127, 0.1864912211894989, 0.30431732535362244, -0.8693178296089172, -0.23970654606819153, -0.4243612289428711, -0.4194380044937134, -0.14276134967803955, -0.23490050435066223, -0.3858802914619446, 0.4586200416088104, -1.4414902925491333, 0.17640939354896545, -0.07116290926933289, -0.5302674174308777, -0.014746058732271194, -0.11061841249465942, 0.06401388347148895, 0.2292996644973755, 0.36676090955734253, -0.31408482789993286, -0.18690204620361328, -0.3003392219543457, -0.32205742597579956, -0.4664956033229828, -0.36015573143959045, -0.2202003002166748, -0.2588256299495697, 0.00504181906580925, -0.68614661693573, 0.07867484539747238, -0.059915777295827866, -0.16928598284721375, 0.08798841387033463, -0.04078534618020058, -0.4649592339992523, 0.31864404678344727, 0.01025225967168808, 0.17048649489879608, -0.7611173987388611, 0.29167306423187256, -0.38699498772621155, -0.3655361235141754, -0.10354151576757431, -0.4769497215747833, 0.007089830003678799, -0.4422203004360199, -0.35011935234069824, -0.2882426083087921, 0.07278207689523697, 0.21046750247478485], [0.056220512837171555, 0.08695325255393982, -0.033034928143024445, 0.030864959582686424, -0.12700971961021423, -0.13903139531612396, 0.02058628387749195, -0.30911579728126526, -0.041383881121873856, -0.1112288162112236, -0.18969835340976715, 0.24929958581924438, 0.03587474301457405, -0.03495628014206886, -0.027372432872653008, 0.27094516158103943, -0.023338044062256813, -0.035670068114995956, -0.07961232215166092, 0.07211649417877197, -0.04843943938612938, 0.19392681121826172, 0.15833355486392975, -0.18005603551864624, -0.1897290199995041, 0.07420662045478821, -0.038776591420173645, -0.11845922470092773, 0.1994820386171341, 0.027322452515363693, 0.19042541086673737, -0.06464119255542755, -0.06920187175273895, -0.11083425581455231, -0.03201407939195633, 0.11000418663024902, 0.10241574794054031, 0.19076195359230042, 0.018476955592632294, -0.15575619041919708, -0.14487627148628235, -0.09438456594944, -0.13901083171367645, -0.05557578429579735, -0.0631813183426857, 0.024316705763339996, 0.026067523285746574, -0.11346248537302017, 0.06753557920455933, 0.024440865963697433, -0.07413523644208908, 0.06840111315250397, 0.23449337482452393, -0.002846494782716036, -0.12074465304613113, 0.0062245335429906845, -0.14246207475662231, 0.06522160768508911, -0.04413430392742157, -0.14951567351818085, -0.03611971065402031, -0.3339296281337738, -0.207960844039917, 0.3594138026237488, -0.1142205074429512, 0.12463971227407455, -0.09401635825634003, 0.062402162700891495, -0.11774621903896332, -0.38067153096199036, 0.009157117456197739, -0.14112518727779388, 0.23412255942821503, -0.07558073103427887, 0.21951662003993988, -0.08094523102045059, -0.0015190173871815205, 0.129489004611969, -0.16910894215106964, -0.10633287578821182, 0.30684739351272583, -0.07836226373910904, 0.05445842817425728, -0.013237183913588524, -0.12552772462368011, -0.130869060754776, -0.06255467236042023, -0.08822839707136154, 0.16683821380138397, -0.5115005970001221, -0.024186493828892708, 0.19074851274490356, -0.13458432257175446, -0.011303606443107128, -0.3062992990016937, -0.0502316839993, -0.10743467509746552, -0.02598993293941021, -0.06108194589614868, -0.0845862627029419, 0.07293002307415009, -0.061770156025886536, 0.05542261153459549, 0.06474126875400543, -0.14094990491867065, -0.1647309511899948, 0.13030757009983063, -0.0653504729270935, -0.03492825850844383, -0.017203249037265778, -0.0266250092536211, -0.021284498274326324, -0.06937910616397858, -0.11110187321901321, -0.12285228073596954, -0.41081738471984863, 0.2024175375699997, -0.24820907413959503, -0.013175985775887966, -0.01634746603667736, -0.08767032623291016, 0.11351079493761063, -0.2537115216255188, 0.0716237798333168, 0.1251702755689621, 0.027175158262252808, -0.027472302317619324, -0.43536877632141113], [0.01337780337780714, 0.018179278820753098, 0.08154340833425522, 0.0037436108104884624, -0.024215925484895706, 0.01060817763209343, 0.031218884512782097, -0.08872700482606888, 0.10080668330192566, -0.18697702884674072, -0.14929886162281036, -0.09000211954116821, 0.07283392548561096, -0.018254680559039116, 0.07044537365436554, -0.08993537724018097, -0.006434076000005007, -0.08421191573143005, -0.14246489107608795, -0.015946635976433754, -0.12908485531806946, -0.19046296179294586, -0.17071998119354248, 0.087217316031456, -0.03298034146428108, -0.04013638570904732, -0.05115336552262306, 0.07157044857740402, -0.1484120488166809, -0.01592804491519928, -0.052573177963495255, -0.11894234269857407, -0.01995258964598179, 0.012562364339828491, -0.004009770229458809, 0.011236135847866535, -0.04745066165924072, -0.22486835718154907, -0.04398735240101814, -0.021366113796830177, -0.16947472095489502, -0.06632126122713089, 0.0005754782469011843, -0.05036265030503273, -0.07712601125240326, -0.06787247955799103, -0.049086205661296844, -0.14518021047115326, -0.03881489485502243, 0.06186617910861969, -0.041296202689409256, -0.021438119933009148, -0.023577958345413208, -0.03205415979027748, -0.0734855905175209, 0.0749870091676712, -0.12026149034500122, -0.06109186261892319, 0.056566156446933746, -0.02747362293303013, -0.07856938987970352, -0.04756838455796242, -0.017858613282442093, -0.15674565732479095, -0.10688361525535583, -0.0718112513422966, -0.05243238806724548, 0.05769749730825424, -0.19061504304409027, 0.043476738035678864, -0.004527605138719082, -0.04653292894363403, -0.08271688222885132, -0.06377705186605453, -0.13119012117385864, -0.0976027324795723, -0.13113917410373688, -0.16273638606071472, -0.13780128955841064, -0.1503235250711441, -0.21972417831420898, 0.006834062281996012, -0.03589833527803421, 0.10649973154067993, 0.11679739505052567, -0.03365185856819153, 0.06312030553817749, -0.1065414622426033, -0.2675369679927826, 0.08216436207294464, -0.05541176348924637, -0.08931343257427216, -0.1664685606956482, -0.1828978806734085, 0.06772489100694656, -0.07312475144863129, 0.007703338749706745, 0.002593753393739462, 0.0583825521171093, -0.04947042465209961, -0.03485247492790222, -0.10097561776638031, -0.05870787054300308, -0.03166662156581879, -0.0686357319355011, -0.051012277603149414, -0.11763327568769455, -0.07662761211395264, -0.19587796926498413, 0.0073286909610033035, -0.16882917284965515, -0.15031515061855316, -0.11405277252197266, 0.060065511614084244, 0.019485170021653175, -0.04873163253068924, -0.10867711156606674, -0.01976599544286728, -0.009819692000746727, -0.023454876616597176, -0.051771264523267746, 0.08809402585029602, 0.02865501306951046, 0.03414647653698921, -0.029179764911532402, 0.008594213053584099, -0.018581531941890717, 0.039029810577631], [0.06037525460124016, 0.040597546845674515, 0.010591520927846432, 0.098892442882061, -0.128182053565979, -0.023345425724983215, -0.0670659989118576, -0.07612301409244537, 0.025439998134970665, -0.13176938891410828, -0.10336156189441681, 0.006285863928496838, -0.039944663643836975, -0.09766215085983276, -0.038765523582696915, -0.027525275945663452, 0.022578148171305656, -0.06065772473812103, -0.04425184801220894, -0.01364385150372982, -0.1007288470864296, 0.0014338953187689185, -0.0724407210946083, -0.10170598328113556, -0.10506623983383179, -0.002987934509292245, -0.18802963197231293, -0.0638299509882927, 0.03207177296280861, -0.11274714767932892, -0.12625114619731903, -0.11403961479663849, -0.04035983979701996, 0.05884962156414986, -0.1328924000263214, 0.04712208732962608, -0.14903433620929718, -0.03151736035943031, 0.07580321282148361, -0.02087198756635189, -0.14875803887844086, -0.062197424471378326, -0.06949445605278015, 0.06934435665607452, 0.05902038887143135, -0.042000237852334976, -0.07800304889678955, -0.003928856458514929, -0.051820434629917145, 0.02023155800998211, -0.1260267049074173, -0.011429639533162117, -0.13849274814128876, 0.08692982792854309, -0.02930254116654396, -0.020192278549075127, -0.17796437442302704, -0.12300720810890198, 0.07136937230825424, 0.017466338351368904, 0.10743892192840576, -0.03488527238368988, -0.0827615037560463, -0.09804590046405792, 0.032841265201568604, -0.023004939779639244, -0.05635293573141098, -0.0405183844268322, -0.12832652032375336, -0.09429952502250671, -0.06569190323352814, -0.09205882996320724, -0.0005004109116271138, 0.10715949535369873, 0.06161235645413399, -0.1612904816865921, -0.05012569576501846, -0.09372835606336594, -0.1277276575565338, -0.12883397936820984, -0.0537329763174057, -0.034030482172966, 0.1026095524430275, 0.039399027824401855, -0.07108467072248459, -0.030637847259640694, 0.014438491314649582, -0.26537173986434937, -0.09127850085496902, -0.2039983719587326, 0.03271554037928581, -0.08559347689151764, -0.04222290962934494, -0.08381474763154984, 0.030057668685913086, 0.022609952837228775, -0.226619690656662, 0.008481595665216446, -0.05840154364705086, -0.07517101615667343, -0.010549971833825111, -0.19648878276348114, 0.028052793815732002, -0.16785362362861633, 0.07394182682037354, 0.11419621109962463, -0.07797495275735855, 0.03282865509390831, -0.05918498337268829, 0.059414900839328766, -0.09289509057998657, -0.12855808436870575, -0.05690952390432358, -0.1570759117603302, 0.09575195610523224, -0.17262272536754608, 0.015740973874926567, -0.17811158299446106, 0.015841709449887276, 0.0430997796356678, -0.10744588077068329, -0.036191340535879135, -0.06927591562271118, 0.11977093666791916, 0.03340821713209152, 0.053403906524181366, -0.102157823741436, -0.09613841772079468], [0.03056812286376953, 0.08374208956956863, -0.08596900850534439, 0.022091135382652283, -0.10037212818861008, 0.046629052609205246, -0.021110419183969498, -0.06102382391691208, -0.08426114916801453, -0.13311192393302917, -0.1615820974111557, 0.066743865609169, -0.09799201786518097, -0.0014969977783039212, 0.04414472356438637, -0.06379076838493347, 0.07138051837682724, -0.0851399302482605, -0.1245841309428215, 0.057195793837308884, 0.013126575388014317, -0.02071911096572876, 0.03626403212547302, -0.09952163696289062, -0.08995307981967926, -0.02225624956190586, -0.10063017904758453, 0.03746018186211586, -0.06164060905575752, -0.08289126306772232, -0.010966639034450054, -0.10247212648391724, -0.01590263471007347, -0.01576288416981697, -0.12679710984230042, -0.0759577751159668, -0.054111938923597336, 0.03854572772979736, -0.09293300658464432, 0.013508923351764679, -0.13281196355819702, -0.03836871311068535, -0.09849665313959122, -0.06800255924463272, 0.002119977492839098, -0.043143294751644135, -0.0906558409333229, -0.0585373155772686, 0.05471864342689514, -0.06726473569869995, -0.05071552097797394, -0.0941353589296341, 0.0739055648446083, -0.010289461351931095, -0.0036505970638245344, 0.001382793067023158, -0.11914758384227753, -0.09012570232152939, -0.0382491834461689, 0.017825830727815628, -0.02716330997645855, -0.07338934391736984, 0.009326282888650894, -0.0705675259232521, -0.07414817065000534, 0.07083629816770554, 0.010569093748927116, 0.08486419171094894, -0.1383601278066635, 0.05188682675361633, -0.018514033406972885, -0.09602660685777664, 0.07793790847063065, 0.04143938422203064, -0.02187630534172058, -0.03221997618675232, -0.04405319318175316, 0.07509256899356842, -0.14798612892627716, -0.049246903508901596, -0.08381294459104538, -0.07286971062421799, 0.07060474902391434, -0.026402100920677185, -0.02552751824259758, -0.0015626860549673438, -0.006712276488542557, -0.08485410362482071, -0.04102899506688118, -0.011974651366472244, 0.07421279698610306, -0.045638557523489, -0.05057981237769127, -0.09268397092819214, 0.011246060021221638, -0.12221653014421463, 0.03692874684929848, -0.09308367967605591, 0.04675545170903206, -0.06095298379659653, -0.020095905289053917, -0.09357663989067078, -0.008764480240643024, 0.0016414803685620427, -0.08696578443050385, -0.13751128315925598, -0.018685782328248024, -0.12689387798309326, -0.08979298919439316, 0.04292278736829758, -0.07100663334131241, 0.010430479422211647, 0.004631647374480963, -0.10045292973518372, 0.07515586912631989, -0.08679929375648499, -0.052881740033626556, -0.06930230557918549, 0.06185314431786537, 0.05296265706419945, -0.11701993644237518, 0.03232554346323013, 0.0008689791429787874, -0.05959061533212662, 0.04265660047531128, 0.034448254853487015, 0.01770423725247383, 0.0032204994931817055], [-0.0506676621735096, 0.12450338155031204, 0.043018318712711334, -0.03725934401154518, -0.07428818196058273, 0.0005236610886640847, 0.07137873768806458, 0.054032597690820694, 0.10703246295452118, -0.07762220501899719, -0.05208790302276611, 0.021586259827017784, 0.0979161262512207, 0.004041868727654219, -0.02605246938765049, -0.2168074995279312, -0.08030810207128525, -0.03420529142022133, 0.005346867721527815, 0.11752860993146896, -0.02603633888065815, -0.0008369751740247011, -0.10222505033016205, -0.1211816743016243, -0.05907837674021721, -0.018316561356186867, -0.22740943729877472, 0.02192814275622368, -0.07211814075708389, -0.05918613448739052, -0.06153174117207527, -0.02757912129163742, 0.011181412264704704, 0.029510734602808952, -0.18256092071533203, 0.040626004338264465, -0.13141831755638123, -0.015382292680442333, -0.01114716287702322, -0.1378757804632187, -0.1846734583377838, -0.03857448324561119, 0.03599058464169502, 0.04376929998397827, -0.030855443328619003, -0.06104205548763275, -0.03445659577846527, -0.15743063390254974, -0.09853073954582214, 0.10292316228151321, -0.1876569390296936, 0.059962596744298935, -0.12281699478626251, 0.09233146905899048, -0.12549099326133728, 0.08671901375055313, -0.12934450805187225, -0.23621515929698944, 0.04241352528333664, -0.08453234285116196, -0.022741522639989853, -0.0773632675409317, 0.06482549756765366, -0.11177115142345428, 0.020313655957579613, 0.10577627271413803, -0.02169147878885269, -0.06206837669014931, -0.1224786788225174, -0.1781807243824005, 0.1044388860464096, -0.06971733272075653, -0.14704346656799316, 0.08768443018198013, 0.01273365505039692, -0.10451989620923996, -0.157896488904953, -0.04368972405791283, -0.08087289333343506, -0.07252385467290878, -0.039516631513834, 0.0661361888051033, -0.03378918766975403, -0.021883932873606682, -0.039039190858602524, 0.03797966241836548, 0.023226657882332802, -0.12607698142528534, 0.008131089620292187, -0.13612496852874756, -0.04498511925339699, -0.16734468936920166, -0.07293988019227982, -0.14673501253128052, -0.1017746850848198, -0.153208926320076, -0.14340224862098694, 0.09416697174310684, 0.00847422331571579, -0.02219455875456333, 0.05613352358341217, -0.04857503995299339, 0.1027725487947464, -0.19139854609966278, 0.004373498260974884, -0.007080700248479843, -0.03314566984772682, -0.025498993694782257, -0.10741256922483444, -0.00010566061246208847, -0.16482138633728027, -0.05426115542650223, -0.09409484267234802, -0.15934160351753235, 0.09187905490398407, -0.00629272498190403, 0.030632471665740013, -0.12475845217704773, 0.08639630675315857, 0.10663734376430511, -0.13556882739067078, 0.11274851113557816, 0.005577539559453726, 0.0845031589269638, 0.06156077980995178, 0.043392568826675415, -0.0757652148604393, -0.04469995200634003], [0.014189483597874641, -0.061086490750312805, -0.07949753850698471, -0.06251262873411179, 0.011031855829060078, -0.07287824898958206, 0.043523579835891724, 0.008449305780231953, 0.005988474003970623, 0.00476534990593791, 0.07725752890110016, -0.04297824203968048, -0.017154710367321968, 0.0053122020326554775, 0.03897282853722572, 0.03579729422926903, 0.06747708469629288, 0.02610129490494728, -0.030782248824834824, 0.03919849172234535, -0.053763069212436676, -0.05790071561932564, -0.06333009153604507, 0.029478007927536964, -0.07805945724248886, -0.03368215262889862, -0.034496866166591644, 0.030680079013109207, 0.06355123966932297, -0.015055330470204353, -0.027582552284002304, -0.0012084342306479812, -0.08851515501737595, -0.08145777881145477, -0.052291277796030045, -0.010416276752948761, -0.0711662769317627, -0.06854173541069031, 0.04921148717403412, -0.01806642673909664, -0.05951515585184097, 6.872804078739136e-05, -0.09707459807395935, -0.0033755681943148375, -0.05251948907971382, -0.06599849462509155, -0.05200802534818649, -0.04366486892104149, 0.04660901799798012, -0.08951272815465927, 0.042342741042375565, -0.0037476643919944763, 0.04303964972496033, -0.04916910082101822, 0.03488999605178833, 0.038648076355457306, -0.09266318380832672, -0.02284019999206066, -0.05682435259222984, -0.04452892765402794, -0.048589371144771576, 0.00030708767008036375, -0.04029693827033043, -0.1148497685790062, -0.14773398637771606, 0.026553960517048836, 0.012301734648644924, 0.010171965695917606, -0.01963008940219879, 0.05689043924212456, -0.045171935111284256, 0.012345531955361366, 0.045742426067590714, -0.088191919028759, 0.019862700253725052, 0.022734276950359344, 0.020602932199835777, 0.007369958329945803, -0.023296061903238297, -0.0395958311855793, -0.06113509088754654, -0.04703773930668831, -0.09657494723796844, 0.059795401990413666, -0.05771678686141968, -0.04282446205615997, -0.09566400945186615, 0.03802000358700752, -0.07851198315620422, 0.04615810513496399, -0.05522935092449188, -0.043697696179151535, -0.08636355400085449, -0.09201094508171082, -0.06010777875781059, -0.0012583552161231637, -0.03887225314974785, -0.038832686841487885, -0.03187097609043121, -0.10450292378664017, -0.1290263682603836, 0.05926208198070526, -0.022745482623577118, 0.01121601928025484, -0.007923864759504795, -0.15101975202560425, -0.07710046321153641, 0.01838802359998226, 0.001036651199683547, -0.08824235945940018, 0.01700647547841072, -0.009513742290437222, 0.038247883319854736, -0.06373346596956253, -0.04090886563062668, -0.054947465658187866, -0.057701561599969864, 0.04764889180660248, -0.09850921481847763, -0.08502984046936035, -0.10088518261909485, 0.01767202466726303, -0.040023960173130035, -0.10209014266729355, -0.08540481328964233, -0.0849330723285675, 0.014179703779518604, 0.04061751067638397], [0.037667788565158844, -0.06736601889133453, 0.0035058632493019104, 0.018774300813674927, 0.05763694643974304, 0.04959573969244957, -0.08567561209201813, -0.11285388469696045, 0.020189452916383743, 0.027486348524689674, 0.04813108965754509, 0.013972961343824863, -0.00047904698294587433, -0.06502135097980499, -0.06137298047542572, -0.10165511816740036, -0.003211123403161764, 0.01333896815776825, -0.034470465034246445, -0.09431260079145432, -0.08560596406459808, 0.03579719364643097, -0.026964355260133743, -0.13191883265972137, 0.006934028584510088, -0.003935494925826788, -0.08519536256790161, 0.015147524885833263, -0.020109599456191063, -0.10046841204166412, -0.0687374621629715, -0.06596355885267258, 0.005436823703348637, 0.024667948484420776, -0.08438218384981155, 0.02552560716867447, -0.08170976489782333, -0.05312974378466606, -0.07753259688615799, -0.01599554903805256, 0.02287447825074196, -0.1253904402256012, 0.05067344009876251, 0.05326957628130913, 0.025833604857325554, -0.03674642741680145, -0.09087985754013062, 0.07741041481494904, -0.07327606528997421, -0.030855415388941765, -0.04993966221809387, 0.01961820386350155, -0.02325807884335518, 0.06221694499254227, -0.044289104640483856, -0.01947609893977642, 0.01961212046444416, -0.08143741637468338, 0.0394577756524086, 0.014288190752267838, -0.0650356262922287, -0.00832781009376049, -0.045627105981111526, -0.06820946931838989, -0.11318592727184296, -0.06556463986635208, -0.0402480885386467, 0.011827731505036354, -0.06988593190908432, -0.0082626948133111, -0.020568637177348137, 0.009920531883835793, -0.09397266060113907, 0.02277170680463314, -0.04799272119998932, -0.025616323575377464, -0.07531772553920746, -0.11855131387710571, -0.05308486521244049, 0.025189384818077087, -0.13540180027484894, 0.00020665352349169552, 0.05349733307957649, 0.038600772619247437, -0.09321889281272888, 0.025223974138498306, 0.07480969280004501, -0.11175242811441422, -0.08609840273857117, -0.02703041397035122, 0.0376940593123436, -0.04122340306639671, -0.11246902495622635, -0.0691526010632515, -0.06255380809307098, 0.048778045922517776, -0.15144045650959015, -0.013662854209542274, -0.026791075244545937, -0.10318893194198608, 0.008286494761705399, -0.021327069029211998, -0.057025372982025146, -0.11564528197050095, 0.025037311017513275, 0.013646685518324375, -0.04014003649353981, 0.06907668709754944, -0.037099845707416534, 0.023831751197576523, -0.004211361054331064, -0.0875314250588417, -0.13724178075790405, -0.029367152601480484, -0.015671899542212486, -0.07026012241840363, -0.07845407724380493, -0.12068018317222595, -0.017440786585211754, 0.03782506659626961, -0.02540554106235504, -0.07246008515357971, -0.08822065591812134, -0.003320384304970503, 0.04637161269783974, 0.01452358067035675, 0.03428151085972786, -0.05109104886651039], [-1.7997527122497559, -0.9187046885490417, -0.9068396091461182, -0.1920212060213089, 0.156622052192688, 0.08290356397628784, -0.17772173881530762, -0.5528771281242371, -0.3700869083404541, 0.35290011763572693, 0.3733135759830475, -0.8280946612358093, -1.5755852460861206, 0.2874852120876312, -0.3362785577774048, -0.1888764202594757, -0.05878511071205139, 0.35126355290412903, 0.20519225299358368, -0.5194196105003357, 0.409329891204834, -1.2736477851867676, -0.610260009765625, -0.6952632665634155, -0.5306337475776672, -1.2250689268112183, -0.189634770154953, -0.20943693816661835, -0.5356060266494751, 0.30045410990715027, 0.12792739272117615, 0.13705620169639587, 0.14238600432872772, -0.4844203591346741, -0.53215092420578, -1.3579970598220825, -0.3160267770290375, -1.747139573097229, -1.0860365629196167, 0.07421905547380447, 0.21659937500953674, 0.3903779089450836, 0.026501372456550598, -0.7009164094924927, -0.5231059193611145, 0.20010130107402802, -0.018796633929014206, 0.2233496606349945, 0.011246384121477604, -0.9088739156723022, -0.13942009210586548, -1.765549898147583, -0.21695159375667572, -0.3197568356990814, 0.21567989885807037, -0.14164875447750092, 0.32854360342025757, -0.5123917460441589, -0.19814461469650269, 0.30100634694099426, -1.1145801544189453, -0.8831776976585388, -0.4697904884815216, -0.8393123745918274, -0.7337058186531067, -0.21230226755142212, 0.29343071579933167, -0.5307481288909912, 0.28044235706329346, -0.6784433722496033, -0.3082561492919922, 0.06226934865117073, -0.7625223398208618, -0.7391383647918701, -1.6377989053726196, -0.6845768690109253, -0.36115941405296326, -0.5903965830802917, 0.2473674863576889, -0.5619283318519592, -1.2323882579803467, -0.5425028800964355, -0.8992499113082886, -0.5940995216369629, -0.12283386290073395, -0.07226968556642532, -0.6848545074462891, -0.7609190344810486, -0.807266354560852, -1.1229264736175537, -0.24970409274101257, 0.17797887325286865, 0.27262869477272034, 0.3601958453655243, -0.6309286952018738, 0.24188554286956787, -0.5099484920501709, -0.13950957357883453, -0.17527282238006592, 0.07437945157289505, -1.4947152137756348, 0.16311101615428925, -1.114992618560791, 0.30987784266471863, 0.029826750978827477, -0.40249642729759216, -0.23284883797168732, 0.19391100108623505, 0.24498671293258667, -0.8958814144134521, 0.39091625809669495, 0.3167804181575775, 0.09270363301038742, -0.4079757332801819, -0.7109964489936829, -0.9839321970939636, -1.7635356187820435, -0.9424907565116882, -0.2721079885959625, -0.9306474924087524, 0.197581484913826, -0.6537949442863464, -0.7245156764984131, -1.3661260604858398, -0.23815040290355682, 0.004775203298777342, 0.0794890746474266, -1.08030366897583], [-0.12396098673343658, -0.02439357526600361, 0.05128202587366104, -0.014437481760978699, -0.04907830432057381, 0.02266385219991207, -0.024498455226421356, -0.05086380988359451, 0.11326107382774353, -0.09132947772741318, -0.11628378182649612, -0.15531426668167114, 0.08209224045276642, -0.0625651553273201, -0.029571184888482094, -0.021453475579619408, 0.04154101014137268, 0.015169600956141949, -0.07145420461893082, -0.03204406052827835, -0.14026522636413574, -0.23588760197162628, -0.14959067106246948, -0.0957115888595581, -0.025722185149788857, -0.037364307790994644, 0.06557115167379379, 0.06434670835733414, -0.09312385320663452, -0.03669126331806183, 0.005771060474216938, -0.05538882687687874, 0.02307853475213051, -0.0813603475689888, 0.014047716744244099, -0.04681570455431938, -0.039394866675138474, -0.21801654994487762, 0.09031182527542114, -0.07309114187955856, -0.0858868733048439, -0.09861043095588684, -0.0685940533876419, -0.01065362710505724, 0.013405860401690006, -0.10608496516942978, -0.04935931786894798, 0.01372654177248478, 0.02222423627972603, 0.09072582423686981, -0.07278800755739212, -0.03615937381982803, -0.033587757498025894, -0.03596138954162598, -0.0072672804817557335, 0.06720597296953201, -0.03769272565841675, -0.054848313331604004, 0.040282975882291794, -0.13039147853851318, -0.040293142199516296, 0.09794633090496063, 0.07549329847097397, -0.03203466534614563, -0.10031533986330032, -0.05186266079545021, 0.015483182854950428, -0.06849545240402222, -0.08076838403940201, 0.012918440625071526, -0.011405492201447487, -0.06233581155538559, -0.1786354035139084, 0.09359096735715866, -0.21971376240253448, -0.07892917096614838, -0.0856243371963501, -0.139742910861969, 0.004233766812831163, -0.1244872584939003, -0.18029065430164337, -0.013788670301437378, -0.013100000098347664, 0.018991870805621147, 0.017523236572742462, 0.07060982286930084, 0.004256782587617636, 0.04740452393889427, -0.11634743958711624, 0.04507722705602646, -0.008924406953155994, -0.07604987174272537, -0.0804266706109047, 0.012422765605151653, -0.1012946218252182, -0.03688674792647362, 0.00829025823622942, -0.025306925177574158, 0.1009577140212059, 0.027708763256669044, -0.07591807842254639, -0.027894889935851097, -0.0634440928697586, -0.1178508773446083, -0.0025993334129452705, 0.029660610482096672, -0.061047207564115524, 0.0412449985742569, -0.08747493475675583, -0.07242388278245926, -0.05708286166191101, -0.016886498779058456, -0.16416053473949432, 0.06538045406341553, 0.07383347302675247, 0.07857208698987961, -0.09388526529073715, 0.0006342118140310049, 0.009644834324717522, -0.014010926708579063, -0.056205980479717255, -0.05036350339651108, -0.056512534618377686, -0.054293736815452576, -0.030325667932629585, -0.012874318286776543, -0.014339428395032883, -0.013378280214965343], [0.08285457640886307, 0.14739994704723358, 0.029815087094902992, 0.2386743426322937, 0.06911531090736389, 0.19850274920463562, 0.1483558863401413, -0.14795202016830444, 0.0798088014125824, -0.46889528632164, -0.15049490332603455, -0.07320389896631241, -0.012092269025743008, -0.004343077540397644, 0.19119994342327118, -0.07044126838445663, 0.11699122935533524, -0.4085163474082947, 0.02785347029566765, 0.22292903065681458, -0.26690781116485596, 0.07266676425933838, 0.06206497550010681, -0.017290502786636353, -0.006218006368726492, -0.2263319045305252, -0.01654166169464588, 0.13481777906417847, 0.08704081177711487, -0.2750760614871979, 0.005897241178900003, -0.06544630974531174, 0.06999576091766357, -0.10659902542829514, -0.032866835594177246, -0.1332705169916153, -0.0675368532538414, -0.10894395411014557, 0.1779288798570633, 0.06929761171340942, -0.370785117149353, -0.2932238280773163, 0.1864636093378067, 0.07560326159000397, -0.000294772966299206, -0.151328906416893, 0.23560351133346558, -0.2320031076669693, 0.0954219177365303, 0.07927975803613663, -0.07575580477714539, -0.02798430249094963, -0.08058035373687744, 0.14621759951114655, -0.14516744017601013, 0.16397857666015625, -0.042292896658182144, -0.1410144567489624, 0.13929757475852966, -0.1543300300836563, -0.06254967302083969, -0.1319403350353241, -0.08407862484455109, -0.05010739341378212, -0.25078609585762024, 0.21637101471424103, -0.19343829154968262, 0.07829173654317856, -0.33543744683265686, -0.18303869664669037, 0.24985384941101074, -0.022467510774731636, 0.024203382432460785, 0.04143775254487991, 0.03960462287068367, -0.14965584874153137, -0.14356732368469238, 0.10334398597478867, -0.48907211422920227, -0.13888266682624817, -0.01640406623482704, 0.18656370043754578, 0.1154039278626442, 0.14946265518665314, 0.18086737394332886, 0.10006578266620636, 0.1920214742422104, -0.11913534253835678, 0.09978681802749634, -0.020100850611925125, 0.03880846127867699, -0.005366570316255093, -0.29293712973594666, -0.2635686695575714, -0.19782505929470062, -0.3052867650985718, -0.032956644892692566, 0.2573276460170746, 0.164181187748909, 0.2576289474964142, 0.03308313339948654, -0.0056776972487568855, 0.05028735473752022, -0.0930800661444664, 0.2518359422683716, -0.2568656802177429, -0.04708150774240494, -0.06894049793481827, -0.20164836943149567, -0.07341282069683075, -0.4681493937969208, -0.12164249271154404, -0.04719146341085434, -0.04199671745300293, -0.12230874598026276, -0.0369311198592186, 0.03190096095204353, -0.05365210771560669, 0.27254506945610046, -0.10277149081230164, -0.017378129065036774, 0.17261101305484772, -0.11247415840625763, -0.14653506875038147, 0.17084188759326935, 0.14158613979816437, 0.08801526576280594, 0.01850731112062931], [-0.06790474057197571, 0.07881692051887512, -0.059744127094745636, 0.04166840389370918, -0.000192502629943192, 0.09379880875349045, 0.08608109503984451, 0.015389325097203255, 0.07084274291992188, 0.051150813698768616, -0.07291301339864731, 0.0203337911516428, 0.07384684681892395, 0.0014277743175625801, 0.0019223091658204794, -0.16054445505142212, 0.07090005278587341, -0.08421871066093445, 0.005061313975602388, 0.1193600669503212, -0.10735385864973068, -0.018296703696250916, -0.06544798612594604, -0.14337649941444397, -0.03359963372349739, -0.050317008048295975, -0.008375138975679874, 0.11428500711917877, 0.07443847507238388, -0.07558739185333252, -0.07010557502508163, -0.023345723748207092, -0.023504870012402534, 0.011934845708310604, -0.10892894864082336, 0.07316770404577255, -0.0072457981295883656, -0.00440987478941679, 0.059919923543930054, -0.004218971822410822, -0.022892991080880165, -0.03018832765519619, -0.002977080177515745, -0.01746920682489872, -0.028075596317648888, -0.08034827560186386, 0.03693588823080063, 0.011306442320346832, -0.012475302442908287, 0.02446729689836502, -0.002100738463923335, 0.014019018970429897, -0.02903049997985363, -0.042827997356653214, -0.012048774398863316, 0.024412721395492554, 0.055317629128694534, -0.10549751669168472, 0.06272007524967194, 0.001992238452658057, -0.07870815694332123, -0.11061447113752365, -0.00932270847260952, -0.1124662458896637, -0.017732417210936546, 0.12206051498651505, -0.01802542805671692, 0.08847638219594955, -0.07043274492025375, -0.14658088982105255, 0.11408080160617828, 0.09756014496088028, -0.03740033879876137, 0.026030808687210083, -0.08255419880151749, -0.11276543140411377, -0.08008986711502075, -0.03703920915722847, -0.023616880178451538, -0.10706058889627457, -0.08237839490175247, 0.059585001319646835, -0.00331537751480937, 0.03065495938062668, 0.09566116333007812, 0.09233655035495758, -0.01260109432041645, 0.010347035713493824, -0.11930929124355316, -0.07647909224033356, 0.023886220529675484, -0.07781865447759628, -0.04736737161874771, -0.11488520354032516, 0.004694934468716383, 0.02019045129418373, -0.09185159206390381, 0.1263287216424942, 0.05349958315491676, 0.085994191467762, 0.07760368287563324, -0.03304959833621979, 0.06521405279636383, 0.0012892642989754677, 0.06379254907369614, 0.023781346157193184, -0.0786145031452179, 0.06151164323091507, -0.054560307413339615, 0.025263654068112373, -0.07594014704227448, -0.027343519032001495, 0.03675371780991554, -0.14274978637695312, 0.004543310962617397, -0.006891657132655382, 0.017902692779898643, -0.15494869649410248, 0.09959085285663605, -0.06205213442444801, -0.07004284113645554, 0.02134839817881584, -0.042721305042505264, -0.09156209975481033, -0.04384665563702583, -0.011168261989951134, 0.10424286872148514, -0.004159062635153532], [-0.07185523957014084, 0.02565905638039112, -0.12151560932397842, 0.015809809789061546, 0.025418952107429504, 0.032010745257139206, -0.058095332235097885, -0.13085632026195526, -0.017357535660266876, 0.020953480154275894, 0.009706107899546623, -0.08776373416185379, -0.09811733663082123, -0.030629293993115425, 0.044128306210041046, 0.0015829746844246984, -0.0026493812911212444, -0.0028937263414263725, -0.07718074321746826, -0.09263668209314346, -0.007127598859369755, 0.03462369740009308, 0.05870972201228142, -0.10322728008031845, -0.09070828557014465, 0.01127099059522152, -0.054154958575963974, -0.039102282375097275, -0.0567215234041214, -0.09156060963869095, -0.09272567182779312, -0.08899228274822235, 0.023322906345129013, -0.04702170938253403, -0.03859701007604599, -0.1350340098142624, 0.019440820440649986, 0.007330070715397596, 0.05687537416815758, -0.03712877258658409, -0.07737482339143753, -0.10234695672988892, 0.024735353887081146, -0.04834680259227753, -0.10946246981620789, -0.10230518877506256, -0.034027546644210815, -0.06304952502250671, 0.05614699050784111, -0.003383483039215207, -0.10718333721160889, -0.020952368155121803, 0.011367736384272575, -0.09449100494384766, -0.04848590865731239, -0.060786932706832886, 0.026718489825725555, -0.06706808507442474, -0.09890644252300262, 0.035636767745018005, -0.05035114288330078, -0.02129468321800232, 0.030902225524187088, -0.06253699958324432, -0.1340649127960205, -0.022943880409002304, 0.03778426721692085, -0.08050335198640823, 0.00023182897712104023, -0.11525341868400574, -0.06859054416418076, -0.10640224814414978, -0.021949125453829765, 0.024157125502824783, -0.0632287859916687, -0.040281958878040314, 0.00447078887373209, -0.0610995888710022, -0.05972879379987717, -0.09113097935914993, -0.005244161002337933, 0.05550215765833855, -0.02398534305393696, -0.062178682535886765, 0.04119418188929558, 0.013836191967129707, -0.08582612127065659, -0.07719530165195465, -0.014755075797438622, -0.060274530202150345, -0.08981795608997345, -0.11756280809640884, -0.09465071558952332, -0.10905729979276657, -0.07789047062397003, -0.014050857163965702, 0.003554507391527295, 0.042522281408309937, -0.06371087580919266, 0.02026965841650963, -0.04699309170246124, -0.01715429313480854, -0.02159135788679123, -0.017193008214235306, -0.049504902213811874, -0.1639539897441864, 0.008954958990216255, 0.0008331937133334577, -0.09316803514957428, -0.04155263304710388, -0.02866503596305847, -0.11609706282615662, 0.004884257446974516, -0.10802601277828217, -0.1335558444261551, 0.029341282323002815, -0.03941085562109947, -0.04813113063573837, 0.019199462607502937, -0.04436063766479492, 0.02327338047325611, -0.102631114423275, -0.015336302109062672, -0.012639784254133701, 0.03714407607913017, -0.012202899903059006, -0.025796817615628242, -0.013687795028090477], [0.05543958768248558, 0.12119299173355103, 0.12754970788955688, -0.059758953750133514, -0.02828962542116642, -0.12922094762325287, -0.015194438397884369, 0.0742528960108757, 0.11602360755205154, -0.4431873559951782, -0.16044262051582336, 0.0644899383187294, 0.05048959329724312, -0.2889029085636139, 0.06973119080066681, 0.04553443565964699, -0.05938658490777016, -0.6998966932296753, -0.06325908750295639, 0.09195270389318466, -0.4696192741394043, -0.036289434880018234, 0.07985974103212357, 0.04790579900145531, 0.13577452301979065, 0.014876427128911018, 0.0887928158044815, 0.07915054261684418, 0.09631923586130142, -0.45265883207321167, 0.035467471927404404, -0.06226615607738495, -0.011580249294638634, 0.10918886959552765, 0.10773511230945587, 0.06148618087172508, 0.03652237355709076, -0.010602980852127075, 0.09546404331922531, -0.07864612340927124, -0.6028997302055359, -0.49251970648765564, -0.047543320804834366, 0.15657083690166473, 0.15511231124401093, -0.2669673264026642, 0.010055813938379288, -0.24787338078022003, 0.041970521211624146, 0.17241059243679047, 0.05551322549581528, 0.044334061443805695, 0.026540469378232956, 0.06678393483161926, -0.09931236505508423, 0.004253366030752659, -0.462756872177124, 0.0005024353740736842, 0.07332383841276169, -0.14394187927246094, 0.16097499430179596, 0.04928698018193245, 0.03670598566532135, -0.02518942393362522, 0.020512111485004425, 0.03965090960264206, -0.5272458791732788, -0.049508869647979736, -0.6599603295326233, 0.16232724487781525, -0.006116589065641165, -0.11045654863119125, 0.002924476284533739, 0.14479397237300873, 0.0011730672558769584, 0.18636037409305573, 0.13618099689483643, 0.05444055050611496, -0.5344366431236267, 0.13597553968429565, -0.033170007169246674, 0.006468899082392454, 0.0873694196343422, 0.1306377649307251, -0.012212978675961494, -0.07228649407625198, -0.02286868542432785, 0.06694526970386505, 0.035286907106637955, 0.194405198097229, 0.15207943320274353, -0.03332396596670151, -0.680732011795044, -0.517883837223053, 0.22713468968868256, -0.23979100584983826, 0.0883868858218193, 0.06419933587312698, -0.03639807179570198, -0.03672792762517929, 0.07935751229524612, -0.13954955339431763, 0.03635459765791893, -0.4224133789539337, -0.06512705236673355, 0.04820761829614639, -0.07501258701086044, -0.04930529743432999, -0.36103591322898865, 0.13292008638381958, -0.5771393775939941, -0.47159695625305176, -0.2036021202802658, 0.020007548853754997, 0.08221663534641266, 0.057615675032138824, 0.011686762794852257, 0.14926794171333313, 0.011597694829106331, 0.09879769384860992, -0.328713595867157, 0.028840454295277596, 0.09964142739772797, 0.08292709290981293, -0.07245674729347229, -0.11110036820173264, -0.052711982280015945, 0.09341972321271896], [0.044884294271469116, -0.02671281434595585, 0.01395682618021965, 0.044325292110443115, 0.039751481264829636, -0.03017393685877323, -0.06408296525478363, -0.02106315642595291, -0.028530409559607506, -0.13967972993850708, -0.13042274117469788, 0.009635115042328835, -0.07238510251045227, -0.09682554006576538, 0.005637837573885918, -0.06969013810157776, -0.019100246950984, -0.06800989806652069, -0.0358535498380661, -0.08181050419807434, -0.10301782190799713, 0.006647375877946615, 0.03352050855755806, -0.0993400290608406, -0.03189842030405998, -0.04155362397432327, -0.08598692715167999, 0.024035824462771416, -0.09580615162849426, -0.06404478847980499, 0.037987202405929565, 0.032661814242601395, 0.02777630276978016, 0.02161451429128647, -0.05959802120923996, -0.00806315429508686, -0.07715919613838196, -0.03975719213485718, -0.02719295397400856, 0.023685503751039505, -0.06508955359458923, -0.09291016310453415, 0.01729082688689232, 0.07732038199901581, 0.061035096645355225, 0.026756566017866135, 0.014642461203038692, -0.1305219978094101, 0.03575589507818222, -0.0883542001247406, -0.048560403287410736, 0.04189231991767883, -0.0514795184135437, 0.05893611162900925, -0.041593123227357864, -0.055891577154397964, -0.022082392126321793, -0.13824473321437836, -0.023356622084975243, -0.10794088244438171, -0.08737916499376297, 0.060271941125392914, -0.06416072696447372, -0.051259879022836685, -0.07113249599933624, -0.08508104830980301, -0.03831140324473381, 0.06361880898475647, -0.11068576574325562, 0.0007060831412672997, -0.05578489601612091, 0.0019872398115694523, -0.11070146411657333, -0.04429696500301361, 0.042419955134391785, -0.006413412280380726, -0.04600774869322777, 0.029320834204554558, -0.1023104265332222, 0.014914496801793575, 0.02793760783970356, 0.026389583945274353, 0.014641351997852325, -0.020508650690317154, 0.07601139694452286, 0.027667278423905373, -0.08796475827693939, -0.07694368064403534, -0.08784717321395874, 0.05201265960931778, -0.03960564732551575, -0.02609066478908062, -0.06933019310235977, -0.09173382073640823, 0.04731307178735733, -0.14937375485897064, -0.010123973712325096, -0.03663458675146103, 0.06708265095949173, 0.03091622143983841, -0.03865685686469078, 0.002200821880251169, -0.0286747794598341, -0.03945286571979523, 0.07543756067752838, -0.10260899364948273, 0.028707053512334824, 0.015151758678257465, -0.12016341835260391, 0.02031026780605316, -0.07516699284315109, 0.009971932508051395, -0.027512960135936737, 0.025868266820907593, 0.05170170217752457, -0.042933933436870575, -0.06978616118431091, 0.04298943281173706, -0.08351685106754303, 0.05616769939661026, -0.061106983572244644, -0.09562303870916367, -0.06814569234848022, 0.03056386671960354, 0.03646421432495117, 0.04524378478527069, 0.023385820910334587, -0.08710378408432007], [0.12605085968971252, 0.09119869768619537, 0.012821361422538757, 0.057437412440776825, 0.06459158658981323, 0.11351548880338669, -0.031041814014315605, 0.0035551907494664192, 0.11698541790246964, 0.10992466658353806, -0.05447880178689957, -0.04681194946169853, 0.0985989198088646, 0.06361070275306702, 0.017407970502972603, -0.04419998079538345, 0.023150445893406868, 0.10168540477752686, 0.11103430390357971, 0.03959883749485016, -0.012415269389748573, 0.044314924627542496, -0.0071725500747561455, -0.2573316693305969, -0.03057871200144291, 0.0713256374001503, -0.26738879084587097, 0.08134052902460098, -0.046675920486450195, -0.03218679875135422, 0.046781498938798904, -0.018789304420351982, -0.01838822290301323, 0.06742504239082336, -0.29234737157821655, 0.10976988822221756, -0.32982200384140015, 0.0839492678642273, 0.10058588534593582, -0.01602005772292614, 0.041353754699230194, 0.11070651561021805, 0.0492037795484066, 0.09841673821210861, 0.07365832477807999, 0.0352686271071434, 0.02371995337307453, 0.06578104943037033, 0.07023166120052338, -0.01478967722505331, -0.07358182966709137, 0.08240456879138947, -0.1435820758342743, 0.01078781858086586, 0.04051113501191139, 0.018100516870617867, 0.09096292406320572, -0.21037279069423676, 0.05300005152821541, 0.07936622202396393, 0.10384727269411087, -0.13318248093128204, -0.028640059754252434, -0.04201922565698624, 0.08333086967468262, -0.021952278912067413, 0.008950966410338879, -0.02536488138139248, 0.015675371512770653, -0.11618485301733017, -0.01051388494670391, -0.0340094193816185, 0.039593711495399475, 0.012109631672501564, -0.012523693963885307, -0.23701171576976776, -0.17280812561511993, -0.032887086272239685, 0.013419518247246742, -0.13201452791690826, 0.029648499563336372, 0.05487869679927826, 0.13145895302295685, 0.11807464808225632, 0.09781834483146667, 0.13059750199317932, 0.14144296944141388, -0.25406625866889954, 0.060015786439180374, -0.2768080234527588, 0.08426035940647125, -0.099260114133358, 0.035227205604314804, 0.008392969146370888, -0.06326036155223846, -0.0037768727634102106, -0.2173440307378769, 0.09435117244720459, 0.12379711866378784, 0.08393389731645584, 0.06406357884407043, 0.046928856521844864, 0.13933442533016205, 0.11333054304122925, 0.07208196073770523, 0.09844636172056198, 0.008694656193256378, 0.023002242669463158, -0.00027572002727538347, -0.03451644629240036, 0.01824035309255123, 0.0016262128483504057, 0.09831608831882477, -0.3146900236606598, -0.09908465296030045, -0.19019974768161774, 0.07494748383760452, -0.20888009667396545, 0.1086629182100296, 0.041468922048807144, 0.15173043310642242, 0.05015067383646965, -0.08200445026159286, 0.06807716935873032, 0.11753184348344803, 0.09549051523208618, 0.1074109598994255, -0.21180330216884613], [0.047156497836112976, -0.08833808451890945, -0.06572786718606949, -0.04220208153128624, -0.04092486575245857, -0.10805084556341171, -0.09858670830726624, 0.053837474435567856, -0.1075761616230011, -0.10612847656011581, -0.08363978564739227, -0.04474258795380592, -0.06395033746957779, -0.0266102384775877, -0.11564261466264725, 0.03690999001264572, -0.11095554381608963, -0.074417844414711, -0.07255160063505173, -0.03744536638259888, 0.013706980273127556, -0.014690674841403961, -0.11728320270776749, -0.06529240310192108, -0.05976065248250961, -0.08304298669099808, -0.002877570455893874, -0.12045988440513611, 0.019836442545056343, -0.11598775535821915, -0.09197220206260681, -0.05719323456287384, -0.06450403481721878, 0.029509780928492546, -0.0034509538672864437, -0.06115060672163963, -0.017080994322896004, -0.09539777785539627, 0.027201741933822632, 0.0051205214112997055, -0.08642719686031342, -0.11015460640192032, 0.011176464147865772, 0.03786808252334595, 0.006263849325478077, -0.04137761890888214, -0.12915919721126556, -0.07442949712276459, -0.0715649202466011, -0.03601614013314247, -0.021468400955200195, 0.03557777777314186, -0.10421324521303177, -0.07925354689359665, -0.14609724283218384, -0.03704552352428436, -0.04713096097111702, 0.020416218787431717, 0.011723087169229984, -0.15859399735927582, 0.08146148920059204, -0.0263591967523098, 0.0054283952340483665, -0.04685382917523384, -0.0514034703373909, -0.05824337527155876, -0.02330629713833332, -0.006144283339381218, -0.07646891474723816, 0.01590491645038128, -0.011227963492274284, -0.01534541230648756, 0.06153837591409683, -0.08099814504384995, 0.010656330734491348, -0.005571288987994194, 0.003636750625446439, -0.02263791114091873, -0.0915658250451088, -0.11787099391222, -0.04745740070939064, -0.11916299909353256, 0.01650998555123806, 0.0005121984286233783, -0.007321407087147236, 0.01940586231648922, -0.09956946969032288, 0.022457296028733253, -0.12809507548809052, 0.010949092917144299, 0.027531782165169716, -0.05242786929011345, -0.016120290383696556, -0.031219448894262314, -0.007990656420588493, -0.010951090604066849, -0.03488835319876671, 0.04107555001974106, -0.07013903558254242, -0.07475004345178604, 0.08189371228218079, 0.00870051234960556, -0.054858140647411346, -0.045352399349212646, -0.025951258838176727, 0.015971345826983452, -0.10096120089292526, -0.03299449384212494, -0.12848125398159027, -0.06683028489351273, -0.11979596316814423, -0.08550728857517242, -0.010118447244167328, 0.02095857821404934, 0.010619362816214561, -0.10884900391101837, -0.002627708250656724, -0.007215025369077921, -0.06420470774173737, -0.03981475159525871, -0.014662892557680607, -0.1116873100399971, -0.02368258126080036, -0.09556841850280762, -0.07848083227872849, -0.0960492342710495, 0.028496358543634415, -0.046595245599746704], [-0.0800129771232605, -0.0029538266826421022, 0.025987617671489716, -0.006763950455933809, -0.07530291378498077, -0.005205998197197914, -0.0591711588203907, -0.06686089932918549, -0.0580449141561985, -0.07513225823640823, -0.057468678802251816, 0.014430779032409191, -0.09741286933422089, -0.12797243893146515, -0.13355378806591034, -0.04390161484479904, 0.009952657856047153, -0.09012439101934433, 0.02621474489569664, -0.026139920577406883, -0.05366303026676178, -0.048774875700473785, -0.03548647090792656, -0.02929156832396984, -0.10000508278608322, -0.03516995906829834, -0.013191494159400463, -0.005733019206672907, 0.008476356975734234, -0.09317202121019363, -0.10543780028820038, -0.007656193803995848, 0.018815437331795692, -0.07166395336389542, 0.016773708164691925, -0.048756033182144165, -0.0054600113071501255, -0.09277712553739548, -0.016735319048166275, -0.01735636591911316, -0.08753591030836105, 0.025612561032176018, 0.014676550403237343, -0.11585476994514465, -0.035001177340745926, -0.08322346955537796, -0.008902874775230885, -0.06824038922786713, -0.06280030310153961, -0.00699209701269865, -0.11042942106723785, -0.03817037492990494, 0.010546294040977955, -0.10022221505641937, 0.013561838306486607, -0.004899060353636742, -0.06202101334929466, -0.13616399466991425, -0.0787966400384903, 0.026726718991994858, 0.01616550423204899, -0.05935622379183769, -0.014310945756733418, -0.03570254519581795, -0.044989731162786484, 0.0030884479638189077, -0.004302776884287596, -0.11271294951438904, -0.04337627813220024, -0.02980649098753929, -0.029189223423600197, -0.09195560961961746, -0.12387338280677795, -0.09215986728668213, -0.10755112022161484, -0.07342255860567093, 0.0284724161028862, 0.008100349456071854, -0.0722198486328125, 0.00888972356915474, -0.1380525827407837, -0.011428561061620712, -0.08631211519241333, -0.11641498655080795, -0.05985132232308388, -0.11210532486438751, -0.13060100376605988, -0.12938730418682098, -0.05417587608098984, -0.0564727820456028, -0.06910066306591034, -0.0770273432135582, -0.04367297142744064, -0.12841929495334625, -0.052476316690444946, -0.05529893562197685, -0.010647237300872803, -0.07804396748542786, -0.015030946582555771, -0.04349591210484505, -0.07356966286897659, -0.12077765166759491, -0.07150661200284958, 0.0036009191535413265, 0.00030954109388403594, -0.031157687306404114, -0.0545017346739769, -0.02196021005511284, -0.12144128978252411, -0.12123184651136398, 0.006760840769857168, -0.0536811463534832, -0.05237427353858948, -0.10934563726186752, -0.07188210636377335, -0.11348199099302292, -0.053829092532396317, 0.03443226218223572, -0.04217563569545746, 0.0012411638163030148, -0.10018256306648254, 0.007335544563829899, -0.030289167538285255, 0.024195967242121696, -0.138597309589386, -0.03591594099998474, -0.06575966626405716, -0.13796959817409515], [-0.11450855433940887, -0.028133520856499672, -0.08883386105298996, -0.12701775133609772, -0.07462578266859055, 0.01759146898984909, 0.0026523659471422434, -0.00046155229210853577, -0.07209937274456024, -0.09652156382799149, -0.07171899825334549, -0.13503065705299377, 0.0019195829518139362, -0.055710308253765106, -0.010614007711410522, -0.15948624908924103, -0.11835597455501556, -0.0676293596625328, -0.11288847774267197, -0.06514737755060196, -0.024328339844942093, -0.1048613116145134, -0.11291729658842087, -0.08708080649375916, -0.04178428649902344, -0.11296425759792328, 0.028400667011737823, 0.012616556137800217, -0.13389383256435394, -0.09767426550388336, -0.014114503748714924, -0.0011179165448993444, 0.009828832000494003, -0.058651477098464966, -0.11460600048303604, -0.07907789200544357, -0.011547066271305084, -0.08427064120769501, -0.029542675241827965, -0.10193586349487305, 0.00794297643005848, -0.018146531656384468, -0.15055516362190247, -0.029367605224251747, 0.007171784993261099, -0.04595939815044403, -0.06733686476945877, -0.05583420395851135, -0.07347071170806885, -0.10550980269908905, 0.04395280033349991, -0.05340215563774109, -0.15998327732086182, -0.10981137305498123, 0.046974409371614456, -0.14975614845752716, -0.01771332323551178, -0.01727471873164177, -0.15956911444664001, -0.0919126644730568, -0.08948177844285965, -0.030147181823849678, -0.04577910900115967, 0.012229480780661106, -0.10210572183132172, -0.12722542881965637, -0.11638429015874863, -0.14255870878696442, 0.007418119348585606, 0.008038957603275776, -0.06076638773083687, -0.13135065138339996, -0.026699863374233246, -0.054237037897109985, -0.11553523689508438, -0.13218560814857483, 0.004232600796967745, -0.004737814888358116, -0.06458722800016403, -0.05328750237822533, -0.06081322580575943, -0.1653459072113037, -0.10204944014549255, -0.0603000707924366, -0.12918564677238464, 0.02058505080640316, -0.09538160264492035, -0.032849106937646866, -0.0658930316567421, -0.121291883289814, -0.022404827177524567, -0.11666930466890335, -0.0028753774240612984, 0.021700596436858177, -0.09511791169643402, -0.05578529089689255, -0.05291709303855896, -0.0790669322013855, -0.06226542219519615, -0.11035634577274323, -0.1343289166688919, -0.031118636950850487, -0.08413230627775192, -0.08074725419282913, -0.06561912596225739, -0.14007923007011414, -0.05181404948234558, -0.01374655682593584, 0.0013124473625794053, -0.030014753341674805, -0.0011683006305247545, -0.009644133038818836, -0.11904145032167435, 0.009378685615956783, -0.10315070301294327, -0.17166170477867126, -0.11148573458194733, -0.12909410893917084, 0.007892651483416557, -0.1428365856409073, -0.07964217662811279, -0.054495178163051605, -0.0749574527144432, -0.08210667967796326, -0.035890959203243256, 0.01272882241755724, 0.01048840582370758, -0.1317727267742157], [-0.13282588124275208, 0.049830127507448196, 0.04890001565217972, 0.06713461130857468, -0.07700745761394501, 0.06477422267198563, 0.05652671307325363, 0.013853704556822777, -0.011204192414879799, -0.11115814000368118, 0.04436079412698746, -0.10865195095539093, -0.023701362311840057, -0.06670448929071426, -0.02026103436946869, -0.21062283217906952, 0.025531979277729988, -0.018317369744181633, -0.02982952632009983, 0.04462460055947304, -0.10160630941390991, -0.13823561370372772, -0.1698848009109497, -0.031250521540641785, 0.028719132766127586, -0.02339269407093525, 0.039530009031295776, 0.02543949894607067, -0.1163315623998642, -0.16776582598686218, -0.1596682220697403, 0.08660268783569336, -0.019692571833729744, -0.10389585047960281, -0.033988941460847855, -0.12194394320249557, -0.030419178307056427, -0.15124017000198364, 0.00895518995821476, 0.0008984103915281594, -0.13067534565925598, -0.04160309582948685, 0.001184022519737482, 0.10569990426301956, 0.08912370353937149, -0.11043398827314377, -0.038188934326171875, -0.026350822299718857, -0.09204292297363281, -0.07528144866228104, 0.000724650570191443, 0.03932839259505272, -0.12257815897464752, -0.03580830246210098, 0.013313885778188705, 0.008692888543009758, -0.10822369903326035, -0.07359599322080612, -0.017724603414535522, 0.04035620391368866, 0.009650603868067265, -0.04223492741584778, -0.038808051496744156, -0.04703567177057266, 0.021618204191327095, 0.050273239612579346, 0.001839531003497541, 0.01686158962547779, -0.07310213893651962, -0.026164613664150238, 0.0805133730173111, -0.04115236923098564, -0.19829872250556946, -0.025604484602808952, -0.07195856422185898, -0.002654478419572115, -0.055947624146938324, -0.05871599540114403, -0.029195774346590042, -0.08637422323226929, -0.08133870363235474, 0.057950060814619064, 0.07189567387104034, 0.0812048688530922, 0.11333125084638596, 0.0878571942448616, 0.0038353006821125746, -0.06126530095934868, -0.1354420930147171, -0.06277395039796829, 0.056349966675043106, -0.07279029488563538, -0.09383434802293777, -0.1360943764448166, -0.00036071549402549863, 0.016574252396821976, 0.0035309316590428352, 0.02002314291894436, -0.016896918416023254, 0.0003042909665964544, -0.07486139237880707, -0.14654326438903809, -0.057603996247053146, -0.18091295659542084, 0.00046581713831983507, -0.08431851863861084, -0.17063084244728088, 0.053329870104789734, -0.03780089691281319, -0.007834946736693382, -0.028197642415761948, -0.09909036755561829, -0.20571282505989075, 0.061485856771469116, 0.10364210605621338, -0.09014903008937836, -0.0449153408408165, 0.030413510277867317, 0.11865240335464478, -0.01972002349793911, 0.0012299007503315806, -0.07416065037250519, 0.10281047970056534, 0.0033109402284026146, 0.018257200717926025, 0.041063036769628525, -0.00505939032882452, 0.010576676577329636], [-0.00895706471055746, -0.01260415744036436, -0.08381406962871552, -0.06127123534679413, -0.07833373546600342, 0.01984664611518383, -0.1081133484840393, -0.018108518794178963, 0.07687359303236008, -0.09096352010965347, -0.10445208102464676, 0.0017248044023290277, -0.05774754285812378, -0.0798504427075386, 0.04946466162800789, -0.06882771104574203, -0.09007829427719116, -0.03605804964900017, -0.026437662541866302, -0.10115338861942291, -0.012439780868589878, -0.06298206746578217, -0.03659086301922798, -0.042250506579875946, -0.04919079691171646, -0.08122365921735764, 0.0394606739282608, -0.10236937552690506, -0.06097208335995674, -0.06157289817929268, -0.014979375526309013, 0.004136099945753813, 0.02769126184284687, 0.05824727937579155, 0.017748599871993065, -0.07742653787136078, -0.04322352632880211, 0.03795207664370537, 0.031015707179903984, -0.11425513029098511, -0.07886061072349548, -0.15589691698551178, -0.10315047949552536, 0.06330988556146622, -0.0671212449669838, -0.1329164206981659, 0.03375222906470299, -0.1553371399641037, -0.062464389950037, 0.08157137036323547, -0.01690579764544964, -0.0703154057264328, 0.022811155766248703, -0.016552576795220375, 0.01357013639062643, 0.0558924674987793, -0.06329558044672012, -0.11961935460567474, -0.04007898271083832, -0.05777895823121071, 0.003044768236577511, 0.08549443632364273, -0.06421541422605515, -0.0885830745100975, 0.07245797663927078, -0.05529211089015007, -0.07627210766077042, 0.03879675269126892, -0.03981493040919304, 0.03605999797582626, 0.06295829266309738, -0.027684535831212997, 0.02123638428747654, 0.011971242725849152, -0.06683026999235153, -0.00013648848107550293, -0.09423099458217621, -0.11710388958454132, -0.030730359256267548, -0.09010419994592667, -0.018227705731987953, 0.028086308389902115, -0.10823241621255875, -0.04330894351005554, -0.10902439802885056, -0.04227571561932564, -0.017114566639065742, 0.048790186643600464, -0.08124026656150818, -0.06319697201251984, -0.09399815648794174, -0.0833679810166359, -0.09106076508760452, -0.0556914322078228, 0.07472345232963562, -0.0013268055627122521, -0.1010722741484642, 0.021500710397958755, -0.046846404671669006, -0.001733536133542657, -0.05094599723815918, -0.1444590985774994, -0.03578309342265129, -0.011576691642403603, 0.04482642933726311, 0.05207030102610588, -0.009506494738161564, -0.12174344807863235, -0.14266535639762878, 0.0478774718940258, 0.018278049305081367, -0.12240102887153625, -0.10764637589454651, 0.023071901872754097, -0.08416173607110977, 0.015522783622145653, -0.08544047176837921, -0.08175618946552277, -0.03305616229772568, 0.009397823363542557, -0.13959835469722748, -0.0729907676577568, -0.07549364864826202, -0.07161568105220795, -0.08658760786056519, -0.11829238384962082, 0.033367205411195755, -0.05959499254822731], [0.20791633427143097, 0.09486261755228043, 0.14965029060840607, -0.1355440318584442, -0.29441002011299133, -0.1368359625339508, -0.13756202161312103, 0.2519465684890747, -0.018283789977431297, -0.9115250110626221, -0.47429147362709045, 0.19816383719444275, 0.19652336835861206, -0.17453180253505707, 0.008963487111032009, 0.19386674463748932, 0.05380667746067047, -0.5131722688674927, -0.3318917155265808, 0.019306406378746033, -0.19618363678455353, 0.250162273645401, 0.1221417561173439, 0.054975684732198715, -0.11145736277103424, 0.15702134370803833, 0.01301708072423935, -0.0510232076048851, 0.2093098908662796, -0.10443710535764694, 0.17083069682121277, -0.25892117619514465, -0.14064615964889526, 0.24812287092208862, 0.11040734499692917, 0.22441916167736053, 0.10142753273248672, 0.273078590631485, 0.14710687100887299, -0.1728166788816452, -0.7902640700340271, -0.40878012776374817, -0.1992505043745041, -0.045772112905979156, -0.04134516045451164, 0.08862754702568054, 0.03463662415742874, -0.6384977102279663, 0.0278910044580698, 0.033508073538541794, 0.023561812937259674, 0.14132218062877655, 0.1297442615032196, -0.1322387307882309, -0.12496209144592285, 0.014837234281003475, -0.3742324709892273, 0.05287806689739227, -0.03652948513627052, -0.4053895175457001, 0.15250101685523987, -0.017058303579688072, -0.10372588783502579, 0.21868227422237396, 0.2906554341316223, -0.06636539101600647, -0.31563717126846313, 0.010397450067102909, -0.6235747337341309, 0.20254220068454742, -0.007434489671140909, -0.15577557682991028, 0.29282936453819275, 0.13206006586551666, 0.27413880825042725, 0.06055671349167824, 0.05302991718053818, 0.1678633838891983, -1.0082001686096191, 0.06721530109643936, 0.19581882655620575, 0.07994315773248672, 0.07762646675109863, -0.028804266825318336, -0.14385509490966797, -0.1777583658695221, 0.04523284733295441, 0.16643613576889038, 0.2676292657852173, 0.05856749042868614, -0.0544317401945591, 0.08137058466672897, -0.16703154146671295, -0.306789368391037, 0.1408410221338272, -0.5707314014434814, 0.11565103381872177, -0.07416887581348419, -0.1285725086927414, -0.01781885139644146, 0.038110073655843735, 0.09647107124328613, 0.15655812621116638, -0.03962346166372299, -0.1967502385377884, 0.19036765396595, 0.25460299849510193, -0.2731035053730011, -0.4072324335575104, 0.17732563614845276, -0.4701821804046631, -0.13325993716716766, 0.09701455384492874, 0.006221413146704435, 0.023918040096759796, 0.14565488696098328, 0.2459602952003479, 0.1352313607931137, -0.06876081973314285, 0.10484036803245544, -0.17104214429855347, 0.12315148860216141, -0.027529839426279068, 0.15123127400875092, 0.010091680102050304, -0.10520265996456146, -0.27238908410072327, -0.06596866250038147], [-0.006781897973269224, 0.04812116548418999, 0.09271272271871567, 0.02792046219110489, -0.019600465893745422, 0.002951849950477481, -0.012881681323051453, 0.07276059687137604, -0.04249473288655281, -0.3435657024383545, -0.07309872657060623, -0.33136165142059326, 0.017931370064616203, -0.21129189431667328, -0.02274622768163681, -0.4324233829975128, -0.17412561178207397, -0.420136034488678, -0.09727239608764648, 0.0483647920191288, -0.2685670554637909, -0.10336028039455414, -0.5644397139549255, 0.05668080225586891, 0.0839354619383812, 0.046018436551094055, 0.05498199537396431, -0.07134430855512619, -0.30228158831596375, -0.2788851261138916, -0.2982419431209564, -0.01874660700559616, 0.01171616930514574, 0.16206307709217072, -0.026757676154375076, 0.09977458417415619, 0.014688360504806042, -0.10668293386697769, 0.028887951746582985, 0.03957584127783775, -0.3767804503440857, -0.42571786046028137, -0.15306881070137024, 0.11595658957958221, 0.11064205318689346, -0.30063027143478394, -0.12500004470348358, -0.17991459369659424, -0.27157455682754517, 0.05593927577137947, -0.05298740789294243, 0.0796150490641594, -0.4235844612121582, -0.10356031358242035, -0.05013125017285347, -0.14523088932037354, -0.3012058734893799, -0.005286681465804577, -0.08787944167852402, -0.10107643157243729, 0.07083500921726227, 0.19351732730865479, 0.10667195171117783, -0.6366626024246216, 0.020269405096769333, -0.10770340263843536, -0.292310506105423, -0.091757632791996, -0.40633633732795715, 0.18225008249282837, -0.0799344927072525, 0.05774248391389847, -0.49024268984794617, -0.006295821629464626, -0.13039614260196686, -0.013408631086349487, 0.009624426253139973, -0.29624268412590027, -0.18896746635437012, 0.09043295681476593, -0.35027068853378296, 0.06654594838619232, 0.038693275302648544, 0.022385315969586372, 0.025662919506430626, -0.09078767895698547, -0.06392407417297363, 0.05089569091796875, -0.6959431767463684, 0.10938626527786255, -0.019772298634052277, -0.19608505070209503, -0.4254593551158905, -0.2909700572490692, 0.13174693286418915, -0.19215482473373413, 0.09466587752103806, -0.09721467643976212, 0.036140695214271545, -0.23930364847183228, 0.09562065452337265, -0.31467103958129883, 0.007497251965105534, -0.27887967228889465, 0.028073176741600037, 0.12342535704374313, -0.32298335433006287, -0.07786387205123901, -0.19813862442970276, 0.15214033424854279, -0.45709162950515747, -0.31394991278648376, -0.1528598815202713, 0.12143830209970474, 0.03768852725625038, 0.20363298058509827, -0.01349261961877346, 0.1739400178194046, 0.00274543440900743, 0.006047640927135944, -0.1856573224067688, -0.09945319592952728, 0.026513399556279182, 0.12095509469509125, -0.164723739027977, -0.14756475389003754, -0.04745746776461601, 0.16898496448993683], [-0.13106265664100647, -0.03368707746267319, -0.0818253606557846, -0.09254881739616394, -0.02849758230149746, -0.035314034670591354, -0.08346656709909439, -0.058590926229953766, 0.05658372491598129, 0.02617042139172554, 0.009178005158901215, -0.036910947412252426, -0.10214811563491821, 0.04797012731432915, -0.0602225661277771, 0.011568176560103893, -0.06413014978170395, 0.0196236465126276, -0.06384128332138062, -0.11219539493322372, -0.0499025397002697, -0.1312001496553421, -0.0009237093618139625, -0.005976361688226461, -0.01075331587344408, 0.016015391796827316, -0.03248570114374161, -0.03857859596610069, -0.07391418516635895, -0.07852047681808472, 0.014481790363788605, -0.08067106455564499, -0.12415540218353271, -0.017790205776691437, -0.03771696612238884, -0.08740358054637909, -0.07717397063970566, -0.05338076874613762, -0.10057583451271057, 0.023152953013777733, -0.014398356899619102, -0.06129487603902817, 0.04863850027322769, -0.0573992021381855, -0.023512179031968117, 0.005890625063329935, 0.03796863183379173, -0.025094052776694298, -0.060761116445064545, -0.09326586872339249, -0.013227144256234169, -0.08426616340875626, -0.11434651911258698, -0.07734651118516922, 0.003422974608838558, 0.0017867530696094036, -0.08899947255849838, -0.0062810154631733894, 0.06003424897789955, 0.030540132895112038, -0.06108661741018295, 0.013321864418685436, 0.019890112802386284, -0.06352940946817398, -0.05859007313847542, -0.0021268499549478292, -0.11473493278026581, -0.08684414625167847, 0.007058595307171345, -0.0355418436229229, 0.04395215958356857, -0.10179033130407333, -0.11364858597517014, 0.01573031023144722, 0.02819816581904888, -0.11850779503583908, -0.12853354215621948, -0.1142701655626297, -0.04669640213251114, -0.039230089634656906, -0.015615440905094147, -0.08286050707101822, -0.05342328920960426, 0.04029243066906929, -0.053668275475502014, 0.04676521569490433, 0.02066643536090851, -0.10876617580652237, -0.12573066353797913, -0.051426712423563004, -0.07532165199518204, -0.040046337991952896, -0.042365800589323044, 0.013182676397264004, 0.012508610263466835, -0.10065936297178268, 0.03519219905138016, -0.032190952450037, -0.026610059663653374, -0.039959974586963654, 0.00985577329993248, -0.05363980308175087, 0.009286298416554928, -0.11724410206079483, 0.04044739902019501, -0.09776001423597336, -0.023202234879136086, 0.018415406346321106, -0.04085130617022514, -0.06799925863742828, -0.07135793566703796, -0.07159304618835449, 0.05336698889732361, -0.019577745348215103, -0.009638144634664059, -0.11412403732538223, -0.09532550722360611, 0.004737678449600935, -0.0948914960026741, -0.08698729425668716, 0.03021053783595562, -0.048218391835689545, -0.027048546820878983, -0.017441729083657265, -0.026995811611413956, -0.06323955208063126, -0.09620533883571625, -0.05766990780830383], [0.05219073221087456, 0.01864813081920147, -0.06494371592998505, -0.10522525012493134, -0.13405372202396393, -0.04334888234734535, -0.03716473653912544, -0.07695262879133224, -0.08328361809253693, -0.01928040012717247, -0.045447658747434616, 0.19628915190696716, -0.0691714659333229, 0.045127030462026596, -0.08078498393297195, 0.18115144968032837, 0.04829321801662445, -0.045302584767341614, -0.05440478026866913, -0.054808974266052246, 0.0804978758096695, 0.07184413075447083, 0.1116955578327179, -0.04731491580605507, -0.06799563020467758, -0.03354216739535332, -0.014058368280529976, -0.047997791320085526, 0.11971630156040192, 0.0604734867811203, 0.041693639010190964, -0.13384085893630981, -0.12485865503549576, -0.03735051304101944, -0.0711047500371933, -0.056991398334503174, -0.033107608556747437, 0.015843909233808517, -0.0824928730726242, -0.028123416006565094, 0.007354116067290306, 0.07191421091556549, -0.09482388943433762, -0.03419726714491844, -0.09333687275648117, 0.09054350852966309, 0.05787128955125809, 0.008024412207305431, -0.048288654536008835, -0.1273612529039383, 0.013937335461378098, 0.027072438970208168, 0.1446378082036972, 0.004856618121266365, 0.013042972423136234, 0.05113959684967995, -0.09948870539665222, 0.002548494841903448, 0.03440560773015022, -0.023802191019058228, 0.056288089603185654, -0.04014331474900246, -0.02586890570819378, 0.17309030890464783, -0.023593230172991753, 0.08421318233013153, 0.032749276608228683, 0.08304810523986816, -0.030269572511315346, -0.07851613312959671, -0.11328626424074173, -0.012877384200692177, 0.1239016205072403, -0.10394345968961716, 0.009602540172636509, 0.044609349220991135, -0.09153162688016891, 0.055454954504966736, -0.01833857223391533, -0.10688241571187973, 0.14218688011169434, 0.031188160181045532, -0.0826788991689682, -0.11531036347150803, -0.09054978936910629, -0.06762658804655075, -0.10905415564775467, -0.09745209664106369, -0.012656754814088345, -0.01828911155462265, -0.05069172382354736, 0.1057470291852951, 0.00169938534963876, 0.02677437849342823, -0.1446356177330017, -0.024907425045967102, 0.016103973612189293, -0.0612674355506897, -0.11141695827245712, 0.006427077576518059, -0.09791365265846252, -0.021066753193736076, -0.07634562999010086, 0.06397344917058945, -0.11294056475162506, -0.07668416202068329, 0.08194446563720703, -0.1384287178516388, -0.07856088876724243, -0.10145904868841171, 0.07881956547498703, 0.029315253719687462, 0.07283464819192886, -0.09518569707870483, -0.15341168642044067, -0.09815108776092529, 0.08124969899654388, 0.016282476484775543, 0.0169360414147377, 0.04309746250510216, -0.09457835555076599, 0.029951786622405052, -0.18860386312007904, -0.03153490647673607, -0.06975648552179337, -0.10913752764463425, -0.03449273481965065, 