[{"weight": [[-1.0800632238388062, 0.02877945452928543], [-1.8134007453918457, 1.1725313663482666], [0.7896849513053894, -1.0737334489822388], [0.8510908484458923, -0.22431354224681854], [1.256242275238037, 1.0846710205078125], [0.9195783138275146, -0.7139469981193542], [0.8041707277297974, 0.3473687171936035], [0.5357060432434082, -0.5202076435089111], [0.6995090842247009, 1.4092940092086792], [0.3140169382095337, 0.7387890219688416], [1.1066654920578003, 1.2458230257034302], [-1.058443307876587, 0.4706985056400299], [0.6755290627479553, -1.0688419342041016], [1.4922304153442383, 1.1766480207443237], [-0.15673169493675232, 1.4058929681777954], [-1.7635973691940308, 1.0304501056671143], [0.8129997849464417, -1.1738684177398682], [0.10174919664859772, -0.4807440936565399], [-0.3032650351524353, -0.9133685827255249], [0.834565281867981, 0.5558945536613464], [0.6025965809822083, -0.8724756240844727], [1.3670116662979126, 1.0791518688201904], [0.6002762317657471, -1.1323802471160889], [0.8897151947021484, -1.3907289505004883], [-0.5838438868522644, 0.6205313205718994], [0.4883589446544647, 1.4777843952178955], [0.6715614795684814, -1.0670545101165771], [1.3772962093353271, 1.489389181137085], [-1.701631784439087, 0.12366925925016403], [0.9734748601913452, -1.064281702041626], [0.9431605935096741, 0.5420508980751038], [0.2250562310218811, -0.30304500460624695], [0.7735869288444519, -0.9460630416870117], [-1.299014925956726, -0.3808411955833435], [0.8715202212333679, 0.36345475912094116], [0.38233256340026855, -0.6050830483436584], [0.8037488460540771, -1.068112850189209], [1.3124932050704956, 0.6625300645828247], [0.835267961025238, -1.1334925889968872], [1.0898631811141968, 1.1129165887832642], [-0.45361366868019104, 1.6988959312438965], [-1.4980225563049316, 0.8148316144943237], [-1.55314302444458, 0.9083154201507568], [0.5063654184341431, -0.719236433506012], [-1.9997904300689697, 0.7894593477249146], [-1.823179006576538, 1.317365050315857], [-1.7839128971099854, 0.6169264316558838], [-1.2900238037109375, -1.0134665966033936], [1.0572385787963867, 0.2606191337108612], [0.5822571516036987, -0.7994781732559204], [-1.9132381677627563, 0.8877241611480713], [-0.9254130125045776, 0.8390147089958191], [0.6872647404670715, -1.2066150903701782], [0.4373668432235718, -0.6758787631988525], [0.6334848999977112, -0.8472939133644104], [-1.0027309656143188, 1.385206699371338], [0.5519142150878906, -0.8682703971862793], [-1.3584904670715332, 1.2863470315933228], [0.6368059515953064, -1.0835978984832764], [-1.7377334833145142, 0.5715137720108032], [0.41486552357673645, -0.9343197345733643], [0.3645852208137512, 1.4836095571517944], [0.86952143907547, -1.2875078916549683], [-1.1318413019180298, 1.8926002979278564], [0.10447204858064651, -0.8752103447914124], [0.7230244278907776, -0.9165104627609253], [0.9839427471160889, -1.4054783582687378], [-1.197020173072815, 0.5001267790794373], [0.6132096648216248, -0.7009391188621521], [-0.10544045269489288, 1.3856122493743896], [0.8103308081626892, -1.0863020420074463], [-2.004804849624634, 1.1058598756790161], [-1.6253504753112793, 1.0712950229644775], [0.6678966283798218, -0.5538743734359741], [-1.7552398443222046, 1.2473299503326416], [0.28661084175109863, -0.1387505978345871], [0.7739402055740356, -0.03803517296910286], [-0.6507729291915894, 0.535792887210846], [-1.5507572889328003, 0.2376256287097931], [-1.4023710489273071, -0.67082679271698], [-0.19123460352420807, -0.4060903787612915], [0.3771488070487976, -0.6241106986999512], [-0.4261443614959717, -0.7287248373031616], [-1.4704594612121582, 0.42741191387176514], [-1.289760947227478, 0.4672190546989441], [0.7922759652137756, 0.3729172348976135], [-1.5931124687194824, 0.11175031960010529], [-1.8755475282669067, 1.0017250776290894], [-1.6838304996490479, 0.890052855014801], [0.40436315536499023, -0.7008623480796814], [-0.28955376148223877, -0.3618069291114807], [-1.4226144552230835, 0.949375331401825], [-0.5712790489196777, 1.7491004467010498], [0.8117802143096924, -1.2296369075775146], [0.780224084854126, 0.15562400221824646], [-0.8991405963897705, 0.37004297971725464], [0.30899477005004883, -0.5758398175239563], [-0.04326191544532776, -0.4655756950378418], [0.8308923244476318, -0.870600700378418], [-0.1341370791196823, -0.3945464491844177], [0.734215259552002, -0.945506751537323], [-1.0898112058639526, -1.1230542659759521], [0.6549103856086731, -0.8675987124443054], [1.3824548721313477, 1.0362110137939453], [-1.794434905052185, 0.35623177886009216], [0.8717015385627747, -1.103283405303955], [-0.9285535216331482, 0.7679215669631958], [-1.8105485439300537, 0.5792573094367981], [0.32413411140441895, -0.6775715351104736], [-0.2092915177345276, 1.180207371711731], [0.7349891662597656, -1.1085478067398071], [0.6923906803131104, -0.9359402060508728], [-1.6061807870864868, -0.04687795415520668], [0.6993461847305298, -0.9786972999572754], [1.2354295253753662, 1.1779078245162964], [-0.3817199766635895, 0.08254050463438034], [1.2629433870315552, 0.626852810382843], [0.9944367408752441, 0.3604608178138733], [-1.1642310619354248, 0.10690560191869736], [-1.1580435037612915, -1.282038688659668], [0.6217625141143799, -1.0012800693511963], [-1.2847462892532349, 2.013690948486328], [0.39819422364234924, -0.9116652607917786], [0.8169460296630859, -0.9438937306404114], [-0.0013837360311299562, 1.6035701036453247], [0.6369124054908752, -0.5251156091690063], [-0.9643257856369019, 0.07960997521877289], [0.543022632598877, -0.7993044257164001]], "bias": [0.3587186932563782, 0.6848174929618835, 0.7972727417945862, 1.0608683824539185, 0.16965080797672272, 0.36949241161346436, -0.27440476417541504, 1.1436941623687744, 0.10494106262922287, 1.1077321767807007, 0.2617723047733307, 0.8729662895202637, 0.28886929154396057, -0.21948547661304474, 0.4418290853500366, 0.2451288402080536, 1.2490513324737549, -0.19725541770458221, 0.21261587738990784, 0.9772315621376038, 0.565902829170227, -0.5602346062660217, 0.13021793961524963, 0.5272080302238464, 0.9202412962913513, -0.3389008343219757, 0.7201747298240662, -0.61965012550354, -0.247409388422966, 1.1315677165985107, -0.1602996587753296, 0.20072947442531586, 0.7049712538719177, 0.29923224449157715, 0.2091086357831955, 1.076390266418457, 1.034283995628357, 0.7413985133171082, 0.9321904182434082, -0.28282758593559265, 1.8149856328964233, 0.5586914420127869, 0.3983686566352844, 0.5287153720855713, 0.043467726558446884, 0.31598061323165894, 0.1895061731338501, -0.07302217930555344, 1.1620185375213623, 0.5028740763664246, 0.2491624802350998, 0.2080126851797104, 0.11418907344341278, 0.29433032870292664, 0.2299644947052002, 1.0169459581375122, 0.23466947674751282, 0.8131722807884216, 1.1757276058197021, 0.2230130285024643, 0.7912835478782654, 0.25678035616874695, 0.497860312461853, 1.1300989389419556, 0.6431425213813782, 0.2753005921840668, 0.33523157238960266, 0.7801980972290039, 0.3944181501865387, 0.36189597845077515, 1.3951537609100342, 0.3116275370121002, 0.4623783528804779, 0.47945255041122437, 0.8557129502296448, 0.6017664670944214, 0.9195975661277771, 0.5064012408256531, -0.07987944036722183, -0.4671744704246521, 0.8833507299423218, 0.6929126977920532, 0.5097663402557373, 0.13668109476566315, -0.057798564434051514, 1.1365282535552979, -0.06438864767551422, 0.9199437499046326, 0.5858017802238464, -0.04561488330364227, 1.2821404933929443, 0.6845962405204773, 0.3933073580265045, 0.5443407893180847, 1.031950831413269, 0.7838225364685059, 1.023453950881958, 0.21672245860099792, 0.7738667130470276, 0.46461740136146545, 0.11012189835309982, -0.3840411901473999, 1.2223196029663086, 0.011003823019564152, -0.03393740952014923, 0.7560169100761414, 0.7202117443084717, 0.37247905135154724, 0.19055573642253876, 1.768626093864441, 0.4019681215286255, 0.23154670000076294, -0.019558090716600418, 1.081002116203308, -0.4627302289009094, 1.0026443004608154, 0.7357591390609741, 0.4220574200153351, 0.24769625067710876, -0.050981443375349045, 0.8273948431015015, 1.2417957782745361, 1.1417781114578247, 0.043313946574926376, -0.12037994712591171, 0.9411320686340332, 0.939489483833313, 0.1302749067544937]}, {"weight": [[-0.9088168144226074, -1.4571832418441772, 0.715813934803009, 0.5286118984222412, 0.2109726220369339, 0.8733982443809509, 0.38701319694519043, 0.43820691108703613, 0.0531628280878067, 0.118784099817276, 0.03479326516389847, -0.7148867845535278, 0.572479248046875, 0.07488617300987244, -0.2183125764131546, -1.4529163837432861, 0.7224416136741638, 0.22167380154132843, -0.12224198877811432, 0.18224351108074188, 0.5919893383979797, 0.11804316192865372, 0.5841272473335266, 0.7398505806922913, -0.305513471364975, -0.20789821445941925, 0.6167058944702148, 0.0031018417794257402, -1.8330479860305786, 0.7078575491905212, 0.31850847601890564, 0.37429559230804443, 0.7499768733978271, -1.2222483158111572, 0.29238152503967285, 0.3303945064544678, 0.7912837862968445, 0.3354281187057495, 0.6952413320541382, 0.049554359167814255, -0.18795877695083618, -1.243774175643921, -1.2477020025253296, 0.45427456498146057, -1.912735104560852, -1.5329463481903076, -1.7381937503814697, -1.3056784868240356, 0.3245674669742584, 0.5482259392738342, -1.6592686176300049, -0.8148942589759827, 0.5549821257591248, 0.46134740114212036, 0.6995317339897156, -0.6214278936386108, 0.5644177198410034, -1.0449048280715942, 0.5732663869857788, -1.5980027914047241, 0.442312091588974, -0.08756834268569946, 0.8646394610404968, -0.4990180730819702, 0.0863780677318573, 0.7175855040550232, 0.946081817150116, -0.8075922131538391, 0.5869134068489075, -0.3016136884689331, 0.6423726081848145, -1.7764891386032104, -1.4085173606872559, 0.7087328433990479, -1.3882087469100952, 0.2823599874973297, 0.39777785539627075, -0.45995089411735535, -1.608276605606079, -1.6595789194107056, -0.019939128309488297, 0.47732076048851013, -0.3038139343261719, -1.3586609363555908, -1.104051947593689, 0.3226507008075714, -1.5895090103149414, -1.3565521240234375, -1.3074618577957153, 0.4169672429561615, -0.0563674233853817, -1.1279821395874023, -0.5040923953056335, 0.8066723942756653, 0.41496577858924866, -0.5424432158470154, 0.3413553237915039, 0.1289025992155075, 0.7931249141693115, -0.004683603998273611, 0.7622780203819275, -1.336295485496521, 0.486197292804718, 0.23787102103233337, -1.9636085033416748, 0.8279052972793579, -0.5643075108528137, -1.6844853162765503, 0.34980031847953796, -0.09890183061361313, 0.7150449752807617, 0.7539156675338745, -1.6487126350402832, 0.6531926989555359, 0.1735597848892212, -0.20350980758666992, 0.27361392974853516, 0.3307836353778839, -1.0052087306976318, -1.2167495489120483, 0.6244126558303833, -0.5861018896102905, 0.32699722051620483, 0.88539057970047, -0.30287885665893555, 0.6365830302238464, -0.5602140426635742, 0.5848135948181152], [0.355136513710022, 0.12531855702400208, -0.28301188349723816, -0.5233819484710693, -1.4240459203720093, -0.47435590624809265, -0.9062776565551758, -0.29359376430511475, -1.2968870401382446, -0.8981338143348694, -1.4516079425811768, 0.026843439787626266, -0.1404261738061905, -1.4360517263412476, -1.0233806371688843, 0.03789817541837692, -0.14406323432922363, -0.005079129710793495, 0.35178589820861816, -1.1009210348129272, -0.13310401141643524, -1.4909409284591675, 0.10151173919439316, -0.12954740226268768, -0.13194525241851807, -1.4189358949661255, -0.11510446667671204, -1.6330899000167847, 0.40658825635910034, -0.40703845024108887, -1.1285446882247925, -0.2004663348197937, -0.23431871831417084, 0.5108135938644409, -0.9797067046165466, -0.09461010247468948, -0.17537441849708557, -1.4261748790740967, -0.11421985924243927, -1.4112703800201416, -1.1698628664016724, 0.0044441199861466885, 0.10845877230167389, -0.19149871170520782, 0.2904758155345917, 0.014875350520014763, 0.24870485067367554, 0.564050018787384, -1.1770597696304321, -0.1702578365802765, 0.13437651097774506, -0.17395234107971191, 0.013037719763815403, -0.08914531022310257, -0.2543170154094696, -0.35331642627716064, -0.14092347025871277, -0.24302950501441956, -0.09666486829519272, 0.18678723275661469, 0.1041087657213211, -1.3020272254943848, -0.2020445019006729, -0.8141980767250061, 0.2891892194747925, -0.21679455041885376, -0.2598055601119995, 0.17200753092765808, -0.23986126482486725, -0.9873970150947571, -0.1074770838022232, 0.1573338359594345, -0.05103949457406998, -0.3343697488307953, -0.07764299213886261, -0.33533671498298645, -0.6759637594223022, -0.02631409466266632, 0.30898040533065796, 0.6209204196929932, 0.14571145176887512, -0.10854090750217438, 0.2890710234642029, 0.21025393903255463, 0.17949993908405304, -1.0117394924163818, 0.5093499422073364, 0.08285143971443176, 0.145981103181839, -0.070725217461586, 0.077751524746418, 0.05477802827954292, -0.8899707794189453, -0.1305273473262787, -0.7860516309738159, 0.04317636042833328, -0.10119439661502838, 0.13661788403987885, -0.40263864398002625, 0.12182309478521347, -0.34698471426963806, 0.5851578116416931, -0.2490619570016861, -1.4973629713058472, 0.37519145011901855, -0.3435242176055908, -0.1253630667924881, 0.2725370228290558, 0.024576015770435333, -0.6719441413879395, -0.1591852903366089, -0.2575254440307617, 0.48800939321517944, -0.17180673778057098, -1.4221489429473877, -0.10453981161117554, -1.4004658460617065, -1.1391680240631104, 0.2948872148990631, 0.5982650518417358, -0.06442009657621384, -0.6154225468635559, 0.09530523419380188, -0.3568914830684662, -1.1130731105804443, -0.41028887033462524, 0.18856585025787354, -0.09492763131856918], [0.029743364080786705, -0.2856135964393616, 0.11998392641544342, -0.4423893690109253, -1.6984930038452148, -0.11679133772850037, -1.0417112112045288, -0.08361051976680756, -1.5390348434448242, -0.9847660660743713, -1.6804267168045044, -0.13213622570037842, 0.15012961626052856, -1.6521776914596558, -1.2964030504226685, -0.340128093957901, 0.11191020905971527, 0.025573961436748505, 0.22114276885986328, -1.297292709350586, 0.060610052198171616, -1.798046350479126, 0.23449137806892395, 0.2250993847846985, -0.3370298445224762, -1.579228162765503, 0.2215622067451477, -1.5837914943695068, 0.19653668999671936, 0.11246136575937271, -1.3659722805023193, -0.07144724577665329, 0.14768847823143005, 0.09790105372667313, -1.2305747270584106, 0.00669946800917387, 0.07027766853570938, -1.7819483280181885, 0.23262320458889008, -1.6770684719085693, -1.452038049697876, -0.10824570804834366, -0.16072028875350952, 0.14574824273586273, -0.033931560814380646, -0.4832208454608917, -0.09814499318599701, 0.34189194440841675, -1.1793575286865234, 0.06459731608629227, -0.23437555134296417, -0.35390982031822205, 0.3480788767337799, 0.12505818903446198, 0.05723235756158829, -0.7583665251731873, 0.20614120364189148, -0.602893590927124, 0.08889033645391464, -0.053822219371795654, 0.21339675784111023, -1.513454556465149, 0.34875431656837463, -1.212296724319458, 0.2542705833911896, 0.07866806536912918, 0.372623473405838, -0.1273791640996933, 0.0423177070915699, -1.2921099662780762, 0.06666131317615509, -0.29691454768180847, -0.36045029759407043, -0.014193696901202202, -0.35795918107032776, -0.22206725180149078, -0.5628547668457031, -0.3115662932395935, 0.12855462729930878, 0.3633963167667389, 0.1196528971195221, 0.005906961392611265, 0.1711721122264862, -0.009614720940589905, -0.019624099135398865, -1.0767412185668945, 0.13716688752174377, -0.267863392829895, -0.25001952052116394, 0.09054180979728699, 0.089451365172863, -0.2021157294511795, -1.279783010482788, 0.24583999812602997, -0.8196849822998047, -0.18116798996925354, -0.036672282963991165, 0.0661819651722908, 0.019581224769353867, 0.11890118569135666, 0.1266002506017685, 0.33695200085639954, 0.12343819439411163, -1.7781957387924194, 0.12012779712677002, 0.24065043032169342, -0.36904990673065186, 0.03276883065700531, 0.09023500233888626, -1.0011345148086548, 0.13621869683265686, 0.1711568683385849, 0.1618422269821167, 0.04185442999005318, -1.73274827003479, -0.04269316419959068, -1.7232075929641724, -1.266556978225708, -0.01962730474770069, 0.23673591017723083, 0.08495226502418518, -1.1274845600128174, 0.15339145064353943, 0.2155200093984604, -1.416428565979004, -0.05013309791684151, 0.05296166241168976, 0.14764830470085144], [0.022360162809491158, -0.13712939620018005, -0.1257392317056656, -0.017205385491251945, -0.013682780787348747, -0.11073941737413406, 0.002627184148877859, -0.12071754038333893, 0.010379056446254253, -0.09275420755147934, -0.04814456030726433, -0.11577362567186356, 0.01244092546403408, -0.008709472604095936, -0.13598400354385376, -0.04198030009865761, 0.02527102455496788, -0.040049776434898376, 0.015533036552369595, 0.027140798047184944, -0.044948939234018326, -0.07651529461145401, -0.13659441471099854, 0.004319396801292896, -0.06830913573503494, -0.10326039791107178, -0.0551837794482708, -0.04204558581113815, -0.10968174785375595, -0.08646819740533829, -0.11488575488328934, -0.0426979660987854, -0.03104347549378872, -0.13604699075222015, -0.14206665754318237, -0.12512804567813873, 0.03261961042881012, -0.016361061483621597, -0.12908709049224854, -0.10139185190200806, -0.00999454315751791, -0.027266696095466614, -0.09473469108343124, -0.0807599350810051, -0.09184018522500992, -0.06683332473039627, -0.0062416414730250835, -0.15537229180335999, -0.0835215225815773, -0.08849812299013138, -0.0002520945854485035, -0.10004448890686035, -0.11295197159051895, -0.03898511826992035, -0.03822113946080208, -0.03978753089904785, -0.0793432742357254, 0.024258984252810478, -0.057605501264333725, 0.0151334498077631, 0.033270832151174545, -0.02598837949335575, 0.006849408615380526, -0.05372948944568634, -0.09431057423353195, -0.12465264648199081, -0.0330439917743206, 0.03333277627825737, -0.09340780973434448, -0.14141914248466492, -0.06997925788164139, -0.07675090432167053, 0.003356649074703455, -0.07115678489208221, -0.07921972870826721, -0.03650490567088127, -0.02029171772301197, -0.07690063863992691, -0.05058833211660385, -0.08131299167871475, -0.12871037423610687, 0.030354855582118034, -0.02339072898030281, -0.08383654057979584, 0.007924564182758331, -0.09742604941129684, -0.10057900846004486, -0.035199347883462906, -0.013796153478324413, -0.13005517423152924, -0.06077742949128151, -0.06420411169528961, -0.07570144534111023, -0.12915901839733124, -0.05655457824468613, -0.00420991238206625, -0.05400192365050316, -0.015617488883435726, -0.09399379789829254, -0.06313372403383255, -0.007558240555226803, -0.14328914880752563, 0.03146551549434662, -0.10128183662891388, -0.0851953774690628, -0.09656868875026703, -0.09287513792514801, -0.0920276865363121, 0.030805857852101326, 0.018157459795475006, -0.12448923289775848, -0.07695236802101135, -0.12782743573188782, -0.06814809888601303, -0.02592433989048004, -0.015826750546693802, -0.08989657461643219, -0.0076442379504442215, -0.12415260076522827, -0.0774804875254631, -0.0462544746696949, 0.023132208734750748, 0.008297113701701164, -0.10466894507408142, -0.14298808574676514, -0.01228972990065813, 0.03871253877878189, -0.1069260686635971], [-0.06804011762142181, -0.011257480829954147, 0.006307374220341444, 0.06655535846948624, -0.10935031622648239, 0.017066193744540215, -0.09338602423667908, -0.0668712928891182, 0.008008165284991264, 0.013458237051963806, -0.027436314150691032, -0.077360138297081, -0.10847434401512146, -0.035660434514284134, -0.030239367857575417, -0.013952908106148243, 0.029535943642258644, 0.013287561014294624, 0.00917123444378376, 0.06803452968597412, -0.05548885464668274, -0.07638721913099289, -0.13473322987556458, -0.027418876066803932, -0.09190062433481216, -0.1440146416425705, -0.11346261948347092, -0.13925254344940186, -0.16740337014198303, -0.06704303622245789, 0.015893857926130295, -0.011270938441157341, -0.025302352383732796, -0.07956791669130325, -0.03462550416588783, 0.00550342071801424, -0.04915568232536316, -0.041173096746206284, -0.07033836096525192, -0.12607917189598083, -0.09451734274625778, -0.13293808698654175, -0.026862623170018196, -0.10193850100040436, -0.06846826523542404, 0.009157119318842888, -0.13969911634922028, -0.08374390006065369, -0.018246950581669807, -0.10095621645450592, -0.04924239218235016, -0.09858197718858719, -0.039220474660396576, -0.056310635060071945, -0.09146473556756973, -0.0556168369948864, -0.02221934124827385, -0.02039371430873871, -0.034527018666267395, -0.11435844749212265, -0.08880703151226044, -0.00721637113019824, 0.059207092970609665, -0.10652047395706177, -0.09717656672000885, -0.06619888544082642, 0.046227388083934784, -0.03453953191637993, -0.07326902449131012, 0.017902571707963943, -0.03841092437505722, -0.05483165755867958, -0.09735320508480072, -0.06895171850919724, -0.1418217271566391, -0.10952761769294739, -0.02713482454419136, -0.06794423609972, -0.14375285804271698, -0.13013112545013428, -0.03507380932569504, -0.03262554854154587, -0.03909578174352646, -0.06882048398256302, -0.14433985948562622, -0.02486191876232624, -0.10793115198612213, 0.01196302194148302, -0.10729754716157913, 0.007951097562909126, -0.06853849440813065, -0.011528476141393185, 0.005059899762272835, -0.09215838462114334, -0.057042211294174194, -0.011052216403186321, -0.08471960574388504, -0.07848937809467316, -0.0564461313188076, 0.02749178558588028, -0.08385735005140305, -0.08499643951654434, -0.11791174858808517, 0.02531331777572632, -0.15398724377155304, -0.04979090392589569, -0.04956311360001564, -0.09368441253900528, -0.034193214029073715, -0.09050435572862625, 0.04736477881669998, -0.001728755421936512, -0.17605513334274292, -0.09916834533214569, -0.07697128504514694, -0.05975445359945297, 0.022243551909923553, 0.02022487111389637, -0.07720929384231567, -0.13302652537822723, 0.0070282090455293655, 0.04051433131098747, -0.10356981307268143, 0.005503816530108452, -0.00806410238146782, -0.0013700219569727778, -0.02058727853000164, -0.005187454167753458], [-0.020580360665917397, 0.06689704954624176, 0.03296239301562309, -0.06725640594959259, -0.25334545969963074, 0.005139817483723164, -0.15298545360565186, 0.05842315033078194, -0.07658224552869797, 0.0022127151023596525, -0.17443501949310303, 0.10038293898105621, -0.0056595406495034695, -0.2435559332370758, -0.02790399268269539, -0.023792611435055733, -0.011472722515463829, -0.011094138957560062, 0.07441674917936325, 0.037534408271312714, -0.02172073908150196, -0.19014541804790497, -0.08445309847593307, -0.03129737079143524, -0.009534076787531376, -0.13235147297382355, 0.04618637263774872, -0.21573065221309662, -0.14838595688343048, -0.049455735832452774, -0.047239262610673904, -0.01118443626910448, -0.09601249545812607, -0.05324625223875046, -0.14005811512470245, 0.049586109817028046, -0.033594001084566116, -0.1711968183517456, -0.0992465540766716, -0.19938617944717407, 0.058324262499809265, -0.05389723181724548, 0.07492710649967194, -0.03540235385298729, -0.15307959914207458, 0.017049700021743774, -0.08286997675895691, -0.1650237739086151, -0.12237697839736938, -0.06620314717292786, -0.12940990924835205, 0.00904246885329485, -0.1042001023888588, -0.06574694067239761, -0.022855374962091446, 0.04254276677966118, 0.006581776309758425, -0.008103178814053535, 0.06485690176486969, 0.012553404085338116, -0.049541324377059937, -0.025741225108504295, -0.08481762558221817, -0.009359927847981453, 0.044692885130643845, 0.035679012537002563, -0.10913970321416855, 0.0031905844807624817, -0.06405890733003616, -0.1246933788061142, 0.07580539584159851, -0.04801830276846886, 0.0008619373547844589, -0.022360695526003838, -0.043299511075019836, 0.04315464198589325, -0.048723477870225906, -0.03071105293929577, -0.031784772872924805, -0.1974785476922989, 0.013583006337285042, -0.033781565725803375, 0.08711406588554382, -0.09445001929998398, -0.041708361357450485, -0.019300656393170357, -0.055294468998909, 0.05998571962118149, -0.08196961134672165, 0.07969757169485092, 0.08158498257398605, 0.06601642072200775, -0.07496906071901321, -0.015305985696613789, -0.05596056953072548, 0.10744284093379974, -0.009641972370445728, 0.06981115788221359, -0.013100879266858101, 0.0872807577252388, -0.08245933055877686, -0.1273069679737091, 0.09438545256853104, -0.22593645751476288, -0.16214877367019653, 0.032567285001277924, 0.021314488723874092, 0.002859411295503378, 0.10671767592430115, 0.09424229711294174, -0.07346490025520325, -0.12429742515087128, -0.1115964874625206, -0.05085988715291023, -0.2190539687871933, -0.019160740077495575, -0.06764719635248184, -0.1743711233139038, -0.07528773695230484, -0.1719493269920349, 0.0011374724563211203, 0.02547580748796463, 0.05196414515376091, -0.04801642522215843, -0.11698704212903976, 0.03728004917502403, -0.006202019285410643, -0.04307474568486214], [-0.02932584099471569, -0.025029370561242104, -0.03420323505997658, -0.10823860764503479, -0.10274983197450638, -0.16037361323833466, -0.07393644005060196, -0.007631016429513693, -0.15927526354789734, 0.033867545425891876, -0.1306856870651245, -0.08581860363483429, -0.10386814177036285, -0.2819281220436096, -0.1646805852651596, -0.16213157773017883, -0.11451742798089981, -0.13072824478149414, -0.24967394769191742, -0.14038071036338806, -0.06585255265235901, -0.27440622448921204, -0.0819183960556984, -0.19606798887252808, 0.009581238031387329, -0.21453304588794708, -0.20492930710315704, -0.2119668424129486, -0.308302104473114, -0.15160706639289856, -0.2342948019504547, -0.09745649248361588, -0.08456480503082275, -0.1706056296825409, -0.12457388639450073, -0.08557076007127762, -0.18680298328399658, -0.19908814132213593, -0.04488871619105339, -0.19443541765213013, -0.07998795062303543, -0.10790789872407913, -0.018370812758803368, -0.10491066426038742, -0.05499030277132988, -0.12586186826229095, -0.21750123798847198, -0.3403254747390747, -0.1315341591835022, -0.09061931818723679, -0.18274791538715363, -0.05966230109333992, -0.16829396784305573, -0.10318126529455185, -0.04835617169737816, -0.00012359705579001456, -0.12172403186559677, -0.0428972989320755, -0.12097509205341339, -0.1506800502538681, -0.1579025685787201, -0.17350798845291138, -0.17717652022838593, 0.026858076453208923, -0.11296230554580688, -0.07263091951608658, -0.22854945063591003, -0.003929156344383955, -0.12520278990268707, -0.17818127572536469, -0.03753303363919258, -0.08185315132141113, -0.02799208089709282, -0.059174779802560806, -0.008779044263064861, 0.038813747465610504, -0.013401917181909084, -0.027065977454185486, -0.09249499440193176, -0.3105647563934326, -0.05617315322160721, -0.056028153747320175, -0.21145550906658173, -0.07796310633420944, -0.12230758368968964, -0.05835606902837753, -0.21124549210071564, -0.13208380341529846, -0.08041493594646454, -0.08807250112295151, -0.11490655690431595, -0.07254020869731903, -0.09845295548439026, -0.15868507325649261, -0.010137412697076797, 0.030412470921874046, -0.05073072761297226, -0.09580177813768387, -0.11810712516307831, -0.13682855665683746, -0.18146948516368866, -0.3011763095855713, -0.12434684485197067, -0.1503422111272812, -0.1107926219701767, -0.13770538568496704, -0.002876098733395338, -0.20480382442474365, -0.06971794366836548, -0.08020450919866562, -0.10854677855968475, -0.12602755427360535, -0.14875516295433044, -0.1476372480392456, -0.27085718512535095, -0.09808595478534698, -0.20436698198318481, -0.056137535721063614, -0.09966188669204712, -0.21845076978206635, -0.09498608112335205, 0.027642762288451195, -0.15238340198993683, -0.054983269423246384, -0.10737761855125427, -0.11613274365663528, -0.09326056391000748, -0.17697569727897644], [0.0723981186747551, 0.04517634958028793, 0.17526952922344208, 0.20944608747959137, -0.09777276962995529, 0.2087971419095993, -0.0867067351937294, 0.3560546934604645, -0.1879783272743225, 0.1918783187866211, -0.08786535263061523, 0.15538287162780762, 0.23092609643936157, -0.16151723265647888, 0.03779321536421776, -0.04229728505015373, 0.25214895606040955, 0.22383125126361847, 0.04401835799217224, 0.060970645397901535, 0.20876047015190125, -0.14799430966377258, 0.03542237728834152, 0.15307357907295227, 0.2704482972621918, -0.14312243461608887, 0.13564202189445496, -0.23084977269172668, -0.23533780872821808, 0.2542596757411957, -0.08406828343868256, 0.2999797463417053, 0.1944546103477478, -0.18052828311920166, 0.11091766506433487, 0.24030381441116333, 0.24218018352985382, 0.039332251995801926, 0.27258262038230896, -0.18642260134220123, -0.0348953902721405, 0.000939321587793529, -0.05278262868523598, 0.16781944036483765, -0.20742152631282806, -0.12664426863193512, -0.10512888431549072, -0.22533001005649567, 0.14371468126773834, 0.2869126498699188, -0.034878239035606384, 0.07418166100978851, 0.13943414390087128, 0.2849191129207611, 0.19293250143527985, 0.23812974989414215, 0.1972421258687973, 0.1871262937784195, 0.2840043902397156, -0.13459162414073944, 0.0887121930718422, -0.1707855612039566, 0.0863618329167366, 0.08466590195894241, 0.03258387744426727, 0.21002231538295746, 0.17521008849143982, 0.056945521384477615, 0.28121134638786316, -0.010521556250751019, 0.24441008269786835, -0.01665753871202469, -0.07280652970075607, 0.20568406581878662, 0.022884752601385117, 0.29523006081581116, 0.17638768255710602, 0.20949603617191315, -0.2039107084274292, -0.2952432632446289, 0.09094131737947464, 0.2863559126853943, -0.03862414509057999, 0.00822731014341116, -0.10484474897384644, 0.060776613652706146, -0.09196983277797699, -0.07334065437316895, -0.01881795935332775, 0.17249669134616852, 0.23673424124717712, 0.10160629451274872, 0.018284544348716736, 0.21627779304981232, 0.22315655648708344, 0.19400601089000702, 0.22645698487758636, 0.17429910600185394, 0.19588269293308258, 0.11952226608991623, 0.14961527287960052, -0.16314083337783813, 0.19039630889892578, -0.08005373179912567, -0.22872976958751678, 0.15502017736434937, 0.1491486132144928, -0.01450724620372057, 0.19189846515655518, 0.1659792810678482, 0.1000635176897049, 0.18199774622917175, -0.1526494175195694, 0.2764510214328766, -0.26191839575767517, 0.21180658042430878, -0.045298852026462555, 0.07605802267789841, 0.06731026619672775, -0.11681392043828964, 0.2039353996515274, 0.04493757709860802, 0.2468309998512268, 0.24721983075141907, -0.12241236865520477, 0.2352052479982376, 0.11308347433805466, 0.12254229933023453], [-0.0969700738787651, -0.06295228749513626, 0.230886310338974, 0.6290639042854309, 0.2531898319721222, 0.6080240607261658, 0.35641908645629883, 0.3604084849357605, 0.21471261978149414, 0.4031030237674713, 0.21936064958572388, 0.08642584085464478, 0.19997259974479675, 0.32194966077804565, 0.3147183060646057, -0.15950100123882294, 0.3249478042125702, 0.07700099050998688, -0.0925133153796196, 0.5189728736877441, 0.24372228980064392, 0.18001648783683777, 0.15074321627616882, 0.24998484551906586, 0.23438072204589844, 0.2546650767326355, 0.13622932136058807, 0.27392634749412537, -0.4540739059448242, 0.4436175525188446, 0.38927727937698364, 0.2601920962333679, 0.3912189304828644, -0.3254564106464386, 0.5237035155296326, 0.2558133006095886, 0.39741355180740356, 0.3114619255065918, 0.25724583864212036, 0.2382018119096756, 0.30202245712280273, 0.010937657207250595, -0.07749571651220322, 0.3193935453891754, -0.34819352626800537, 0.04921931028366089, -0.3294006288051605, -0.5574284195899963, 0.5716760158538818, 0.2554498016834259, -0.29846200346946716, 0.29277700185775757, 0.1244797334074974, 0.27945032715797424, 0.2555750608444214, 0.2930350601673126, 0.2542063593864441, 0.24156291782855988, 0.19358906149864197, -0.3289474844932556, 0.20438890159130096, 0.2861848771572113, 0.19309474527835846, 0.34061184525489807, 0.03603363409638405, 0.4176744520664215, 0.27482089400291443, -0.04665409401059151, 0.40700221061706543, 0.3317493200302124, 0.30646613240242004, -0.1291007697582245, -0.034933727234601974, 0.567623496055603, -0.00282833119854331, 0.5328972339630127, 0.6547907590866089, 0.2743642032146454, -0.42449283599853516, -0.5795933604240417, 0.12472269684076309, 0.28311240673065186, -0.12275803834199905, -0.2696770131587982, -0.07596386224031448, 0.6006907224655151, -0.39706358313560486, -0.04404310882091522, -0.1715320646762848, 0.2659103274345398, 0.18526491522789001, 0.032407958060503006, 0.2820339798927307, 0.16321507096290588, 0.659264087677002, 0.06732301414012909, 0.2841404676437378, 0.03540549427270889, 0.42682138085365295, 0.19289721548557281, 0.329880952835083, -0.5054857730865479, 0.28379589319229126, 0.28962650895118713, -0.4273505210876465, 0.4130426347255707, 0.14307564496994019, -0.3139500319957733, 0.10367866605520248, 0.4752107858657837, 0.19474633038043976, 0.2724091410636902, -0.5355896353721619, 0.2501356303691864, 0.23802967369556427, 0.1966211199760437, 0.3506973087787628, 0.5102145075798035, -0.19581051170825958, -0.4865444004535675, 0.19305367767810822, 0.361442506313324, 0.24768713116645813, 0.46321651339530945, 0.14714142680168152, 0.5038588643074036, -0.014983181841671467, 0.18270520865917206], [0.3979630470275879, 0.25030627846717834, 0.04869736358523369, -0.0534902885556221, -0.3989753723144531, -0.049799371510744095, -0.10762646794319153, 0.1473497897386551, -0.2688976526260376, -0.051290541887283325, -0.34456905722618103, 0.2659547030925751, 0.17134565114974976, -0.7046048641204834, -0.008100943639874458, 0.25027036666870117, 0.1241660863161087, 0.275456041097641, 0.3524555265903473, -0.25525468587875366, 0.05383908748626709, -0.6881259083747864, 0.2020222693681717, -0.02035430632531643, 0.28324753046035767, -0.22158220410346985, 0.1674901396036148, -0.6753842234611511, 0.24992427229881287, -0.0600825697183609, -0.2350887805223465, 0.1826997548341751, -0.033029910176992416, 0.40227648615837097, -0.22708940505981445, 0.1414748877286911, 0.004294629208743572, -0.48240968585014343, 0.11250024288892746, -0.37760505080223083, 0.10579612851142883, 0.275300532579422, 0.2926517128944397, 0.1308606117963791, 0.34105056524276733, 0.12656188011169434, 0.24345389008522034, 0.3318052291870117, -0.2752450406551361, 0.20220482349395752, 0.19343747198581696, 0.23197637498378754, 0.14911025762557983, 0.16272816061973572, 0.10508452355861664, 0.2469637244939804, 0.13546201586723328, 0.26952797174453735, 0.2777571678161621, 0.28273269534111023, 0.31164664030075073, -0.09218523651361465, 0.10047857463359833, 0.05388089269399643, 0.2782156765460968, 0.015463307499885559, -0.04793565347790718, 0.29097339510917664, 0.04298708960413933, -0.020597727969288826, 0.11933814734220505, 0.2680666744709015, 0.12696602940559387, 0.028763210400938988, 0.21227887272834778, 0.0785808190703392, -0.046404436230659485, 0.22409428656101227, 0.22253383696079254, 0.3138561248779297, 0.2091776728630066, 0.29340556263923645, 0.37716612219810486, 0.383017361164093, 0.287540465593338, -0.0954633578658104, 0.3865374028682709, 0.33407387137413025, 0.23351480066776276, 0.2771003544330597, 0.33130818605422974, 0.20771194994449615, 0.14197298884391785, 0.11753640323877335, -0.09397213160991669, 0.3565835654735565, 0.2780674695968628, 0.2041536569595337, 0.06568941473960876, 0.3266949951648712, 0.01382654719054699, 0.1862507313489914, 0.11778505891561508, -0.5340322256088257, 0.3342920243740082, 0.021318066865205765, 0.2775084376335144, 0.3062649965286255, 0.2709290087223053, 0.0665898397564888, 0.09202224761247635, 0.09483137726783752, 0.2525978088378906, 0.18638768792152405, -0.5286684632301331, 0.24680384993553162, -0.45664137601852417, -0.21360234916210175, 0.3892028331756592, 0.3048582077026367, 0.09821618348360062, 0.19181852042675018, 0.29067572951316833, -0.038101762533187866, -0.05590953677892685, 0.06462420523166656, 0.33084386587142944, 0.17930474877357483], [-0.09419066458940506, 0.006551842670887709, 0.04237627238035202, 0.054796867072582245, -0.23333388566970825, -0.00786882359534502, -0.07739448547363281, 0.061122097074985504, -0.17364321649074554, -0.039362311363220215, -0.14623789489269257, 0.09749448299407959, -0.07956171035766602, -0.1994088888168335, -0.08771119266748428, -0.02015766315162182, 0.04584827274084091, 0.016182582825422287, -0.04743843525648117, -0.07801516354084015, -0.06845763325691223, -0.3161067068576813, -0.018161391839385033, -0.0208885595202446, 0.045525964349508286, -0.12068726122379303, 0.0932634025812149, -0.3123602271080017, -0.193102166056633, 0.09903734922409058, -0.14560243487358093, 0.06812677532434464, -0.05057457834482193, -0.08698973059654236, -0.1496327966451645, 0.10360730439424515, 0.046158693730831146, -0.17288662493228912, -0.019146308302879333, -0.15369153022766113, 0.07317627966403961, -0.05978776142001152, 0.03502586483955383, 0.09575030207633972, -0.142230823636055, 0.005811280570924282, -0.09909357875585556, -0.16743062436580658, -0.09699291735887527, -0.03148166462779045, -0.04596059396862984, 0.11550215631723404, -0.08120455592870712, 0.11234360933303833, -0.061338502913713455, -0.021469540894031525, 0.09564588963985443, 0.08200328052043915, 0.09102561324834824, -0.03160163015127182, 0.01622924953699112, -0.14307157695293427, 0.010100752115249634, -0.048334673047065735, 0.06381531059741974, 0.0023510297760367393, 0.0033771630842238665, -0.07021570950746536, 0.010263551026582718, -0.10426763445138931, 0.00017718994058668613, -0.03831351920962334, 0.008887852542102337, -0.00973829347640276, 0.015810592100024223, 0.0756673812866211, 0.12559252977371216, 0.04657550901174545, -0.18648749589920044, -0.2141566127538681, 0.1297646015882492, 0.114357590675354, -0.07123042643070221, -0.0465591698884964, -0.09433271735906601, -0.010892734862864017, -0.08039307594299316, -0.11583932489156723, -0.12333372980356216, -0.006792096421122551, 0.10497720539569855, 0.06060415133833885, -0.05880242586135864, -0.08837638795375824, 0.06933078169822693, 0.0034905411303043365, -0.02481788396835327, -0.038834549486637115, -0.0014756321907043457, -0.00026245194021612406, -0.07585702836513519, -0.1925995945930481, -0.0017886931309476495, -0.25257742404937744, -0.0689118355512619, -0.05859629064798355, 0.0736083984375, -0.046923186630010605, 0.08483151346445084, 0.11832820624113083, -0.05769411846995354, -0.03445834666490555, -0.11051709949970245, -0.0019101104699075222, -0.19487443566322327, 0.05328952521085739, -0.13085117936134338, -0.004833003040403128, -0.07325871288776398, -0.16261230409145355, -0.00870613381266594, -0.06902023404836655, 0.08291805535554886, -0.06716921180486679, -0.18306799232959747, 0.1192789375782013, -0.001993707614019513, -0.02595861442387104], [-0.06550862640142441, 0.014377089217305183, 0.2137235701084137, 0.3436850309371948, 0.05012354254722595, 0.2818561792373657, 0.13346339762210846, 0.34360986948013306, -0.08750198036432266, 0.12576334178447723, -0.10557115077972412, 0.05212678387761116, 0.20552721619606018, -0.08680284023284912, -0.07369647175073624, -0.06962078809738159, 0.316089391708374, 0.1457398682832718, 0.15291418135166168, 0.12189222872257233, 0.32040807604789734, -0.007674608379602432, 0.19443291425704956, 0.29819390177726746, 0.1170823872089386, -0.20050248503684998, 0.2464509755373001, -0.09789817780256271, -0.07135479152202606, 0.3912949860095978, 0.07926853001117706, 0.2928594648838043, 0.34096261858940125, -0.05625757947564125, 0.13007856905460358, 0.27601656317710876, 0.30004021525382996, 0.025334717705845833, 0.20672379434108734, -0.06628715246915817, -0.004642713349312544, 0.022499550133943558, 0.012390500865876675, 0.2699573338031769, -0.20105105638504028, -0.11990620195865631, -0.1344550997018814, -0.16108614206314087, 0.25144699215888977, 0.2930092513561249, -0.08845749497413635, 0.16965144872665405, 0.29693204164505005, 0.2903994619846344, 0.29123637080192566, 0.13397753238677979, 0.23984123766422272, 0.06015528738498688, 0.2673529088497162, -0.005665816832333803, 0.1735939085483551, -0.09549113363027573, 0.17781485617160797, 0.02260523848235607, 0.2010899931192398, 0.20283904671669006, 0.3273884356021881, 0.059315066784620285, 0.2665759027004242, -0.11773291975259781, 0.2041030377149582, -0.00987913180142641, -0.07773657888174057, 0.35833054780960083, 0.012281779199838638, 0.2857005000114441, 0.270087331533432, 0.15118898451328278, -0.1051197201013565, -0.21338777244091034, 0.08565974235534668, 0.26767757534980774, 0.11950529366731644, 0.008865125477313995, -0.09883373975753784, 0.16233403980731964, -0.1466606706380844, -0.005709436722099781, -0.09102976322174072, 0.14250189065933228, 0.2409924417734146, 0.07836315780878067, -0.1278865933418274, 0.2173088937997818, 0.18902063369750977, 0.0711013674736023, 0.2717965841293335, 0.20710231363773346, 0.35868510603904724, 0.0814068466424942, 0.2905298173427582, -0.09884480386972427, 0.3319874703884125, -0.05303964391350746, -0.145473450422287, 0.24490369856357574, 0.0611061230301857, -0.17085720598697662, 0.2594728171825409, 0.06787139177322388, 0.33185505867004395, 0.24011176824569702, -0.06456904113292694, 0.29597580432891846, -0.042143564671278, 0.22731751203536987, 0.026549817994236946, 0.012884126976132393, 0.07445594668388367, -0.036894384771585464, 0.2532489597797394, -0.03825078159570694, 0.21474529802799225, 0.32723158597946167, -0.2099568396806717, 0.25580960512161255, 0.05783947929739952, 0.17027443647384644], [-0.11984530836343765, 0.050046827644109726, 0.05482218414545059, -0.05908584222197533, -0.10025808960199356, 0.03674350306391716, -0.0640694871544838, 0.044913388788700104, -0.05369966849684715, 0.017170388251543045, -0.11752856522798538, 0.010473884642124176, 0.02645886316895485, -0.15985719859600067, -0.08771606534719467, -0.09391951560974121, -0.07057242840528488, 0.03707360848784447, 0.0328972153365612, -0.08432874828577042, -0.01718260906636715, -0.12424344569444656, -0.07109957188367844, -0.007607943378388882, 0.005545349791646004, -0.11665862053632736, 0.0065119266510009766, -0.1853722482919693, -0.11160816252231598, -0.030101802200078964, -0.08823157846927643, -0.0005399951478466392, -0.08496376872062683, -0.042561281472444534, -0.014569034799933434, 0.06670449674129486, -0.06052269786596298, -0.07565939426422119, 0.04556240886449814, -0.14935769140720367, -0.03037196397781372, 0.017891032621264458, 0.013994242064654827, -0.017446622252464294, -0.06643366813659668, -0.01614701747894287, -0.08446015417575836, -0.06951320171356201, -0.08387533575296402, -0.10425734519958496, -0.03306297957897186, -0.06804978102445602, 0.03994548320770264, -0.07914288341999054, -0.018966330215334892, 0.06272132694721222, -0.06722839921712875, 0.04971478134393692, -0.08904749900102615, -0.1174783930182457, -0.00396609865128994, -0.014440932311117649, 0.00019250367768108845, -0.008053388446569443, -0.032626282423734665, -0.08399960398674011, -0.07305692881345749, 0.05504836514592171, 0.04082881659269333, 0.0018169722752645612, 0.0427662655711174, -0.02840820513665676, -0.043791741132736206, -0.029030775651335716, 0.003975716419517994, -0.048433151096105576, 0.007679859176278114, 0.022051015868782997, -0.011424564756453037, -0.10874975472688675, 0.029522640630602837, -0.028858426958322525, 0.045562464743852615, -0.038464996963739395, -0.06782907247543335, -0.09299048781394958, -0.08759276568889618, 0.03412611782550812, -0.04536397010087967, -0.10924143344163895, -0.07281836867332458, -0.010809770785272121, -0.03156616911292076, -0.0018021011492237449, -0.007584558799862862, -0.06953177601099014, 0.05821816995739937, -0.08367666602134705, -0.06467950344085693, -0.003578562755137682, 0.03390926867723465, -0.15838392078876495, -0.03053351305425167, -0.22395244240760803, -0.025629617273807526, 0.0453127883374691, 0.060538314282894135, 0.013521740213036537, -0.029995743185281754, -0.03378749266266823, -0.03521345555782318, -0.07651204615831375, 0.0012103887274861336, 0.042027220129966736, -0.07962073385715485, -0.014045469462871552, -0.19348619878292084, -0.11301189661026001, -0.013974961824715137, -0.16780667006969452, -0.09327603131532669, -0.04001418128609657, -0.07621340453624725, 0.042501065880060196, -0.06900397688150406, -0.09156831353902817, 0.012801705859601498, 0.0034223287366330624], [0.26062294840812683, -0.2662798762321472, 0.22258150577545166, -0.4383856952190399, -1.941992998123169, -0.0798460990190506, -1.0656368732452393, -0.021951433271169662, -1.629431128501892, -1.0387980937957764, -1.8727123737335205, 0.023150943219661713, 0.35194131731987, -2.025543451309204, -1.2546635866165161, -0.12085043638944626, 0.29917341470718384, 0.23549924790859222, 0.48793503642082214, -1.373806357383728, 0.22575080394744873, -1.9993282556533813, 0.45724594593048096, 0.44996923208236694, -0.2676241397857666, -1.4855232238769531, 0.27287477254867554, -2.156602382659912, 0.2948022186756134, 0.15635143220424652, -1.3882030248641968, 0.050767410546541214, 0.11543191224336624, 0.4449577033519745, -1.1289900541305542, 0.08410871028900146, 0.2607708275318146, -1.6308135986328125, 0.17484620213508606, -1.7366535663604736, -1.5382062196731567, -0.09054804593324661, -0.10585176944732666, 0.12206574529409409, -0.0842265784740448, -0.29058873653411865, -0.0070879156701266766, 0.5145517587661743, -1.167325735092163, 0.128297358751297, -0.1490517556667328, -0.38347938656806946, 0.4663129150867462, 0.16382643580436707, 0.22737650573253632, -0.7421627044677734, 0.23551996052265167, -0.5532194972038269, 0.33245849609375, 0.11927159130573273, 0.23660095036029816, -1.5168098211288452, 0.43716832995414734, -1.3111900091171265, 0.39146700501441956, 0.1607174426317215, 0.41705793142318726, 0.03297720104455948, 0.11362525820732117, -1.2575777769088745, 0.2113150954246521, -0.13465946912765503, -0.29236653447151184, 0.029038410633802414, -0.3236214220523834, -0.20017465949058533, -0.5681575536727905, -0.26045945286750793, 0.1883624792098999, 0.5815134048461914, 0.168982595205307, 0.09053470939397812, 0.43686163425445557, 0.062188174575567245, -0.0347493551671505, -1.1296474933624268, 0.17218004167079926, -0.02184503898024559, -0.13426615297794342, 0.31221815943717957, 0.23146432638168335, -0.17197130620479584, -1.3939815759658813, 0.40712153911590576, -0.7458425760269165, -0.023866767063736916, 0.11415309458971024, 0.15024766325950623, 0.0013658159878104925, 0.1823483556509018, 0.20908920466899872, 0.5473909378051758, 0.0903576910495758, -1.9340064525604248, 0.14581817388534546, 0.1455402672290802, -0.2631058096885681, 0.05696158856153488, 0.2556995451450348, -0.9100812077522278, 0.3390684425830841, 0.13384290039539337, 0.38794946670532227, 0.27150681614875793, -1.8954746723175049, -0.04005352780222893, -1.5791484117507935, -1.1884536743164062, 0.259207546710968, 0.5253203511238098, 0.33612388372421265, -1.2762980461120605, 0.2780993580818176, 0.08969629555940628, -1.3431018590927124, -0.0639515295624733, 0.048578888177871704, 0.15071383118629456], [-0.17572325468063354, -0.4102477729320526, 0.3065633177757263, 0.2915773391723633, -0.08080140501260757, 0.48747438192367554, 0.04369232803583145, 0.18163661658763885, -0.2436172366142273, -0.10221691429615021, -0.13412299752235413, -0.20254504680633545, 0.38600629568099976, -0.24123919010162354, -0.2459932565689087, -0.40605494379997253, 0.37096431851387024, 0.06939297914505005, 0.017335182055830956, 0.036378610879182816, 0.3443128168582916, -0.3136861324310303, 0.3133537173271179, 0.45381373167037964, -0.07703420519828796, -0.45854026079177856, 0.2648429870605469, -0.3412412106990814, -0.29282692074775696, 0.4641678035259247, -0.0075574577786028385, 0.09003894031047821, 0.38158056139945984, -0.03159649670124054, 0.09055463969707489, 0.15135586261749268, 0.35567018389701843, -0.030547043308615685, 0.3916134834289551, -0.15815764665603638, -0.22934474050998688, -0.3130548894405365, -0.3660441040992737, 0.270456463098526, -0.33798345923423767, -0.41638654470443726, -0.3310379981994629, 0.04626300930976868, 0.08483389019966125, 0.26445019245147705, -0.3397793173789978, -0.23076578974723816, 0.4862607717514038, 0.21155542135238647, 0.35540664196014404, -0.14844483137130737, 0.35416460037231445, -0.29455167055130005, 0.2717432677745819, -0.3109275996685028, 0.18227460980415344, -0.31870806217193604, 0.4448896646499634, -0.3080676198005676, 0.16900597512722015, 0.38323453068733215, 0.6218981146812439, -0.14475500583648682, 0.33997514843940735, -0.27403929829597473, 0.3068961501121521, -0.5315592288970947, -0.4411987364292145, 0.20476338267326355, -0.3879237174987793, 0.05944250151515007, 0.16633260250091553, -0.11097028851509094, -0.2649221122264862, -0.06279262155294418, 0.09978757053613663, 0.2429370880126953, 0.08218351006507874, -0.32406750321388245, -0.3397068381309509, 0.1558699607849121, -0.18823347985744476, -0.3884928226470947, -0.4186621606349945, 0.28139665722846985, 0.040485017001628876, -0.2768489420413971, -0.3338528275489807, 0.42341411113739014, 0.17354752123355865, -0.14272259175777435, 0.11934465914964676, 0.10262416303157806, 0.32546383142471313, 0.09920414537191391, 0.3879564702510834, 0.06013790890574455, 0.24528288841247559, -0.0832430049777031, -0.37088072299957275, 0.4524593651294708, -0.2654287815093994, -0.3141544759273529, 0.19493381679058075, -0.09206780046224594, 0.49706539511680603, 0.3668993413448334, -0.15178760886192322, 0.24723386764526367, -0.22937890887260437, -0.08995608985424042, -0.019115833565592766, 0.10650955140590668, -0.21239988505840302, -0.003040031064301729, 0.31865814328193665, -0.3455010950565338, 0.13756699860095978, 0.3681800067424774, -0.41164958477020264, 0.2978665232658386, -0.1901019811630249, 0.19354787468910217], [-0.06689699739217758, -0.2868473529815674, 0.19677519798278809, 0.14170461893081665, -0.048595886677503586, 0.1969286948442459, -0.009300122037529945, 0.12359768897294998, -0.1769498586654663, -0.11372027546167374, -0.14657790958881378, -0.07136319577693939, 0.26261958479881287, -0.016174884513020515, -0.21853700280189514, -0.3450261056423187, 0.29044291377067566, 0.1312047243118286, 0.10754323750734329, 0.11017434298992157, 0.28364408016204834, -0.08241114020347595, 0.19501850008964539, 0.3538759648799896, -0.13593992590904236, -0.24897392094135284, 0.27393579483032227, -0.12840425968170166, -0.08895616978406906, 0.253143310546875, 0.1063997745513916, 0.050119493156671524, 0.19629505276679993, -0.0024533432442694902, -0.007604155223816633, 0.08430834859609604, 0.30219408869743347, -0.053510766476392746, 0.29714441299438477, -0.13999514281749725, -0.3399551808834076, -0.21575485169887543, -0.20815493166446686, 0.0834975317120552, -0.3451214134693146, -0.3226841390132904, -0.1811763346195221, -0.011408183723688126, 0.20472261309623718, 0.2204771786928177, -0.3035951256752014, -0.16300949454307556, 0.3442828953266144, 0.24627363681793213, 0.2177099883556366, -0.27350980043411255, 0.13988573849201202, -0.20013871788978577, 0.23826910555362701, -0.26524344086647034, 0.12078466266393661, -0.29626092314720154, 0.36966782808303833, -0.25818541646003723, 0.09705954045057297, 0.19594642519950867, 0.27751976251602173, -0.19651548564434052, 0.09535115212202072, -0.17255809903144836, 0.16323937475681305, -0.26175540685653687, -0.23432530462741852, 0.12830428779125214, -0.3648868799209595, -0.00791750755161047, 0.15924568474292755, -0.09243649244308472, -0.16268114745616913, -0.0869387611746788, 0.04543829709291458, 0.09612976014614105, 0.04478080943226814, -0.1717889904975891, -0.20758356153964996, -0.009392676874995232, -0.1854000836610794, -0.16500145196914673, -0.20690388977527618, 0.12482491880655289, -0.0038568549789488316, -0.21715597808361053, -0.32461512088775635, 0.34330716729164124, 0.17251741886138916, -0.12047047913074493, 0.019177308306097984, 0.15859918296337128, 0.2429930567741394, 0.07064704596996307, 0.26245632767677307, 0.042087946087121964, 0.18841639161109924, -0.07611745595932007, -0.22460153698921204, 0.27808234095573425, -0.20643110573291779, -0.1290578991174698, 0.23002268373966217, -0.13118350505828857, 0.32910671830177307, 0.285864919424057, -0.0774010494351387, 0.12398941814899445, -0.06424517929553986, -0.10995128005743027, -0.0012841456336900592, 0.10443221032619476, -0.07677033543586731, 0.12877748906612396, 0.23130863904953003, -0.3020841181278229, 0.21765100955963135, 0.30931130051612854, -0.42379769682884216, 0.18659187853336334, -0.029015474021434784, 0.15994621813297272], [-0.34945961833000183, -0.19999687373638153, -0.21262651681900024, 0.09218541532754898, 0.282631516456604, 0.007321776822209358, 0.1658259928226471, -0.08294596523046494, 0.2806127369403839, 0.12637032568454742, 0.26863038539886475, -0.2846531271934509, -0.29065027832984924, 0.252519428730011, 0.01982860639691353, -0.13592588901519775, -0.2883617579936981, -0.18327811360359192, -0.3736093044281006, 0.09702635556459427, -0.10912076383829117, 0.2258862406015396, -0.193125382065773, -0.16231119632720947, -0.11580599099397659, 0.2983960509300232, -0.19950193166732788, 0.2268470674753189, -0.4075576066970825, -0.11878794431686401, 0.21378633379936218, -0.18255381286144257, -0.14956896007061005, -0.5313999652862549, 0.1648208200931549, -0.21181808412075043, -0.08559836447238922, 0.14266446232795715, -0.2631455957889557, 0.26626360416412354, 0.1412273645401001, -0.1464453786611557, -0.20541514456272125, -0.21241284906864166, -0.28198498487472534, -0.013808678835630417, -0.38090914487838745, -0.63132244348526, 0.08962284028530121, -0.211386039853096, -0.22022035717964172, -0.06038345396518707, -0.20757882297039032, -0.12209369987249374, -0.1586669534444809, 0.06678512692451477, -0.2203303426504135, -0.1215420812368393, -0.28399887681007385, -0.31622299551963806, -0.1754499077796936, 0.18267999589443207, -0.2620921730995178, 0.11339673399925232, -0.32902806997299194, -0.13027715682983398, -0.0847887471318245, -0.26981544494628906, -0.11496764421463013, 0.13032789528369904, -0.16934245824813843, -0.17142802476882935, -0.2084992229938507, 0.04047766327857971, -0.06210658699274063, -0.1065429225564003, 0.134818434715271, -0.11960813403129578, -0.38327983021736145, -0.5697030425071716, -0.2777191400527954, -0.18095508217811584, -0.3395020067691803, -0.32634368538856506, -0.19085395336151123, 0.19178181886672974, -0.3984034061431885, -0.22426959872245789, -0.2891206443309784, -0.22431696951389313, -0.24375174939632416, -0.07061335444450378, 0.050250280648469925, -0.2693171501159668, 0.09446476399898529, -0.2907360792160034, -0.2702904939651489, -0.17220617830753326, 0.006890145130455494, -0.3035576343536377, -0.14601092040538788, -0.6445261836051941, -0.13223427534103394, 0.18584495782852173, -0.4357483386993408, -0.16089610755443573, -0.13175006210803986, -0.25610607862472534, -0.1729101985692978, -0.016115128993988037, -0.27303799986839294, -0.2070760875940323, -0.5546146035194397, -0.2618982791900635, 0.2507668137550354, -0.08259409666061401, 0.1980472207069397, 0.2328854352235794, -0.359601229429245, -0.5203854441642761, -0.1829890012741089, -0.007161642890423536, -0.20482328534126282, 0.0015283206012099981, 0.15241247415542603, -0.11028023064136505, -0.36493709683418274, -0.25539594888687134], [-0.05683058127760887, -0.23237572610378265, 0.1562056839466095, 0.26843026280403137, -0.23543642461299896, 0.2913564443588257, 0.013108096085488796, 0.18216845393180847, -0.5515761375427246, 0.06167974695563316, -0.2804270386695862, -0.07193339616060257, 0.20972782373428345, -0.2614259421825409, -0.3217715620994568, -0.22154949605464935, 0.33092689514160156, 0.09323137998580933, 0.08345680683851242, 0.08044441044330597, 0.13683836162090302, -0.17580994963645935, 0.24967986345291138, 0.3425537347793579, -0.12281689047813416, -0.6306541562080383, 0.2900640070438385, -0.3365814983844757, -0.14691027998924255, 0.23547691106796265, -0.10643580555915833, 0.16894152760505676, 0.23368418216705322, -0.04762968048453331, 0.02033173479139805, 0.1526927351951599, 0.21777397394180298, -0.0499902106821537, 0.2122860550880432, -0.2943034768104553, -0.3604777455329895, -0.1683991700410843, -0.18053659796714783, 0.1114170253276825, -0.27932795882225037, -0.30496400594711304, -0.3001331388950348, -0.09596845507621765, 0.21014969050884247, 0.252683162689209, -0.27455419301986694, -0.21832142770290375, 0.28884515166282654, 0.24220380187034607, 0.2111518234014511, -0.2067534327507019, 0.25952479243278503, -0.16323386132717133, 0.2682073414325714, -0.21045781672000885, 0.186842679977417, -0.46024540066719055, 0.37535086274147034, -0.37397557497024536, 0.13025306165218353, 0.14486634731292725, 0.3958686888217926, -0.15652519464492798, 0.17125576734542847, -0.3159363269805908, 0.22385776042938232, -0.3184763491153717, -0.24896512925624847, 0.27074599266052246, -0.32747718691825867, 0.09209999442100525, 0.20829299092292786, -0.05408104136586189, -0.12338782846927643, -0.12944388389587402, 0.01548039074987173, 0.11629483848810196, 0.04390363395214081, -0.17435480654239655, -0.25950944423675537, 0.15216922760009766, -0.21697218716144562, -0.22874675691127777, -0.16379335522651672, 0.2505717873573303, 0.028510717675089836, -0.262727290391922, -0.47171124815940857, 0.3336866796016693, 0.22931164503097534, -0.14980193972587585, 0.14710494875907898, -0.007727880030870438, 0.18808972835540771, 0.035896722227334976, 0.1783975064754486, -0.011108245700597763, 0.19072604179382324, -0.19765926897525787, -0.1919061243534088, 0.19708633422851562, -0.06485684216022491, -0.18712782859802246, 0.1361650675535202, -0.055455852299928665, 0.2739766836166382, 0.23863983154296875, -0.20717306435108185, 0.26965272426605225, -0.2313825935125351, 0.008293806575238705, -0.06268297135829926, -0.01733451895415783, -0.10694711655378342, 0.021616142243146896, 0.21583527326583862, -0.30106011033058167, 0.223368838429451, 0.2663255035877228, -0.5174733400344849, 0.19617168605327606, 0.014360285364091396, 0.18347203731536865], [-0.07229068875312805, -0.020670272409915924, -0.1717836856842041, -0.007945952005684376, -0.08328346908092499, -0.11377321183681488, -0.07840657234191895, -0.07895716279745102, -0.09897688776254654, -0.10454212129116058, -0.048338521271944046, -0.13202154636383057, -0.17092689871788025, -0.1526501178741455, -0.1464659869670868, -0.08630222827196121, -0.02789519540965557, -0.012687909416854382, -0.06768450886011124, -0.07865610718727112, -0.08374875783920288, -0.17983616888523102, -0.13251850008964539, -0.05600443854928017, 0.01750236190855503, -0.14968711137771606, -0.1633564680814743, -0.12089570611715317, -0.18441404402256012, -0.02808341383934021, -0.030481085181236267, -0.07531505078077316, -0.03021734394133091, -0.12900777161121368, 0.0003904613258782774, -0.035759393125772476, -0.02942596562206745, -0.18097767233848572, -0.05441370606422424, -0.12151727080345154, -0.12153961509466171, -0.005737737286835909, -0.09663814306259155, 0.025591636076569557, -0.07286351919174194, -0.012483661994338036, -0.12137534469366074, -0.13267795741558075, -0.053373172879219055, -0.14759483933448792, -0.06976622343063354, -0.04264669492840767, -0.0357540100812912, -0.07136114686727524, -0.03478927165269852, -0.02504492551088333, -0.03368071839213371, -0.08918468654155731, -0.14040438830852509, -0.0009192810393869877, -0.01930079609155655, -0.0683249831199646, -0.16067157685756683, -0.131032794713974, -0.11324857920408249, -0.013876497745513916, -0.10857905447483063, -0.11009693890810013, -0.15989594161510468, -0.064224012196064, -0.00743337394669652, -0.11808843910694122, -0.04615132510662079, -0.10811375826597214, -0.08424826711416245, -0.06987673044204712, 0.007109043654054403, -0.02949441969394684, -0.040989454835653305, -0.06540931016206741, -0.0018996562575921416, -0.06312082707881927, -0.07549070566892624, -0.1249731183052063, -0.13181644678115845, -0.060505323112010956, -0.12398383021354675, -0.10728739202022552, -0.08556584268808365, 0.004851960577070713, 0.023767398670315742, -0.12030890583992004, -0.12005481123924255, -0.06932025402784348, -0.09885834902524948, 0.0028957033064216375, -0.11265355348587036, -0.06241556629538536, -0.04603691026568413, -0.02528810314834118, -0.17910772562026978, -0.19717952609062195, -0.13802878558635712, -0.08989818394184113, -0.14405296742916107, -0.06757587194442749, -0.12373503297567368, -0.08972731977701187, 0.013780657202005386, -0.06063960865139961, -0.13128861784934998, -0.15512046217918396, -0.11684668809175491, -0.016157614067196846, -0.18547505140304565, -0.12210152298212051, -0.08194286376237869, -0.1574821174144745, -0.004686044529080391, -0.08330665528774261, -0.05563914775848389, -0.042223863303661346, -0.09949662536382675, -0.188638374209404, -0.09535925835371017, -0.003095280611887574, -0.017422327771782875, -0.15621258318424225], [-0.0022557189222425222, -0.34844714403152466, 0.2693476378917694, 0.09715113788843155, -0.1474243551492691, 0.3295234739780426, -0.06102351099252701, 0.2257261872291565, -0.13983914256095886, 0.0075368923135101795, -0.09434982389211655, -0.09645669907331467, 0.2666361331939697, -0.17978791892528534, -0.14673097431659698, -0.35481515526771545, 0.29557523131370544, 0.15392369031906128, 0.14246971905231476, -0.04187190905213356, 0.19878247380256653, -0.1608264148235321, 0.2480611950159073, 0.326890766620636, -0.05667462572455406, -0.1742817908525467, 0.16148796677589417, -0.2484961301088333, -0.18224526941776276, 0.26985466480255127, 0.028873125091195107, 0.18554279208183289, 0.17953355610370636, -0.1176026463508606, -0.01887415535748005, 0.2247885912656784, 0.28861114382743835, -0.05725821107625961, 0.34248483180999756, -0.13469094038009644, -0.26846960186958313, -0.2683528661727905, -0.1663489043712616, 0.21928314864635468, -0.38332289457321167, -0.34031370282173157, -0.3011188805103302, -0.06748414784669876, 0.15119631588459015, 0.13444676995277405, -0.359305202960968, -0.08163636177778244, 0.3034527003765106, 0.13607561588287354, 0.1597195863723755, -0.10408514738082886, 0.1461019665002823, -0.29228290915489197, 0.23413699865341187, -0.22749964892864227, 0.16378583014011383, -0.13299189507961273, 0.2649344801902771, -0.2554262578487396, 0.057541374117136, 0.32431191205978394, 0.43143966794013977, -0.18904231488704681, 0.21705995500087738, -0.171677827835083, 0.26283150911331177, -0.30074259638786316, -0.3350599408149719, 0.23196536302566528, -0.247325599193573, 0.03587593138217926, 0.09187805652618408, -0.029304567724466324, -0.26395776867866516, -0.020696060732007027, 0.03944891318678856, 0.11014671623706818, -0.004692274145781994, -0.184444859623909, -0.24457012116909027, 0.02086702361702919, -0.16942431032657623, -0.24524462223052979, -0.21138843894004822, 0.2183259278535843, 0.0382368229329586, -0.18495899438858032, -0.307842493057251, 0.317393034696579, 0.13686135411262512, -0.14595989882946014, 0.19609969854354858, 0.02770698443055153, 0.3255627155303955, 0.06806571781635284, 0.24550244212150574, 0.003208003006875515, 0.2359931915998459, -0.14027564227581024, -0.19383038580417633, 0.2154565304517746, -0.09608152508735657, -0.14430147409439087, 0.2223614603281021, 0.006469527259469032, 0.23704089224338531, 0.2255910187959671, -0.20562922954559326, 0.25667276978492737, -0.10711246728897095, -0.06430654972791672, -0.01613335870206356, 0.058158811181783676, -0.09825599193572998, -0.030839305371046066, 0.27965518832206726, -0.24739490449428558, 0.08515693247318268, 0.35848182439804077, -0.2403659224510193, 0.2555559277534485, 0.022040139883756638, 0.25332319736480713], [-0.05036472901701927, -0.24282975494861603, 0.2678366005420685, 0.2930386960506439, -0.17558695375919342, 0.34464031457901, 0.06606779992580414, 0.16900640726089478, -0.2912639379501343, 0.12996363639831543, -0.16099393367767334, -0.050226371735334396, 0.2204200029373169, -0.19430378079414368, -0.1607898473739624, -0.20863117277622223, 0.2943606972694397, 0.08247033506631851, 0.045603733509778976, 0.08232148736715317, 0.2074294090270996, -0.12078972160816193, 0.19666476547718048, 0.3680087625980377, -0.04664678871631622, -0.20663058757781982, 0.24935615062713623, -0.2443026900291443, -0.13482069969177246, 0.3164815306663513, -0.10738924145698547, 0.03433679789304733, 0.26517927646636963, -0.06990867108106613, -0.008124647662043571, 0.058932624757289886, 0.33097192645072937, -0.0795726552605629, 0.24287663400173187, -0.18097683787345886, -0.09734330326318741, -0.14096634089946747, -0.1126178503036499, 0.20231500267982483, -0.30512475967407227, -0.2887619435787201, -0.22474521398544312, 0.0013276142999529839, 0.11766397207975388, 0.20623372495174408, -0.24913769960403442, -0.06428465992212296, 0.2788533568382263, 0.13938845694065094, 0.21032103896141052, -0.14480873942375183, 0.20127177238464355, -0.12130632251501083, 0.27315616607666016, -0.28660279512405396, 0.11216212064027786, -0.28365063667297363, 0.26757344603538513, -0.19392149150371552, 0.03640170395374298, 0.33367103338241577, 0.390436589717865, -0.1715329885482788, 0.2140011042356491, -0.25532659888267517, 0.21661429107189178, -0.21644386649131775, -0.16733238101005554, 0.15153391659259796, -0.21073907613754272, 0.04991508647799492, 0.2898515462875366, -0.05225108563899994, -0.23102451860904694, -0.1853882372379303, 0.0466022714972496, 0.1881193071603775, -0.04170422628521919, -0.1610303670167923, -0.10435320436954498, 0.1372639685869217, -0.17215248942375183, -0.258550763130188, -0.24186980724334717, 0.17704546451568604, 0.01025961060076952, -0.10947748273611069, -0.16026650369167328, 0.2773982584476471, 0.27709025144577026, -0.053895238786935806, 0.04926863685250282, 0.14159266650676727, 0.18979910016059875, 0.06807037442922592, 0.24041922390460968, -0.07449763268232346, 0.12453146278858185, -0.2554810643196106, -0.28451210260391235, 0.34632745385169983, -0.0026492984034121037, -0.1866142600774765, 0.1027313768863678, 0.05916520208120346, 0.26625585556030273, 0.2443472146987915, -0.2429395169019699, 0.21779707074165344, -0.18241514265537262, 0.09817161411046982, -0.13022808730602264, 0.09624190628528595, -0.19072894752025604, -0.08466140180826187, 0.2749806046485901, -0.24702924489974976, 0.0774727612733841, 0.4123116433620453, -0.27466535568237305, 0.25961142778396606, 0.00021148263476788998, 0.24316789209842682], [0.27445489168167114, 0.23586760461330414, -0.04052108898758888, -0.3224138617515564, -0.21867385506629944, -0.3758612275123596, -0.23345790803432465, -0.16232256591320038, -0.25789910554885864, -0.285953164100647, -0.37090590596199036, 0.22274313867092133, -0.016656162217259407, -0.2814493179321289, -0.18040364980697632, 0.14150817692279816, -0.06708221137523651, 0.22608958184719086, 0.21430982649326324, -0.2419106662273407, -0.13825726509094238, -0.3267431855201721, -0.03415556624531746, 0.0048356372863054276, 0.06041255593299866, -0.34322986006736755, -0.01464365515857935, -0.4610541760921478, 0.4447861611843109, -0.2368081510066986, -0.23764142394065857, -0.021380478516221046, -0.08899720013141632, 0.3303747773170471, -0.24478666484355927, 0.05707300826907158, -0.14891822636127472, -0.31271910667419434, -0.1285565346479416, -0.4065660238265991, -0.1558009386062622, 0.22871598601341248, 0.23849743604660034, -0.09746053814888, 0.2673873007297516, 0.14081883430480957, 0.28003209829330444, 0.5001775622367859, -0.33203446865081787, -0.04027030989527702, 0.3136686384677887, 0.01102340780198574, 0.06333968788385391, 0.05004465952515602, -0.12150660157203674, -0.05153180658817291, 0.054646506905555725, 0.06516557186841965, 0.09622104465961456, 0.25529953837394714, 0.16307635605335236, -0.2287890464067459, -0.1619199961423874, -0.06354080140590668, 0.14635983109474182, -0.25693973898887634, -0.2393331229686737, 0.18408805131912231, -0.15765595436096191, -0.25454095005989075, -0.042963769286870956, 0.1649181842803955, 0.0855112373828888, -0.12656961381435394, 0.11716557294130325, -0.13437864184379578, -0.23596890270709991, 0.14604656398296356, 0.44444653391838074, 0.4806973338127136, 0.12899082899093628, 0.04020535945892334, 0.2776806056499481, 0.2195228785276413, 0.16834650933742523, -0.3038559556007385, 0.4872574806213379, 0.1644739955663681, 0.1755066215991974, 0.08423344045877457, 0.20602627098560333, 0.21864819526672363, -0.17771540582180023, -0.13772594928741455, -0.20419752597808838, 0.2292264699935913, 0.050820596516132355, 0.22081968188285828, -0.27226972579956055, 0.19214320182800293, -0.2829611599445343, 0.3746148347854614, -0.06820625066757202, -0.37357714772224426, 0.3511255383491516, -0.11402731388807297, 0.05430398881435394, 0.3949964642524719, 0.06377921998500824, -0.08610653877258301, -0.07837870717048645, -0.221075177192688, 0.46324071288108826, -0.14520326256752014, -0.3558206558227539, 0.12732823193073273, -0.275682270526886, -0.37432053685188293, 0.38246724009513855, 0.4713658094406128, -0.028164813295006752, -0.14501771330833435, 0.0385279655456543, -0.1753225326538086, -0.19452300667762756, -0.1105957180261612, 0.3085413873195648, -0.14522172510623932], [-0.011586073786020279, 0.047781478613615036, -0.00350138358771801, 0.17316429316997528, -0.27999842166900635, 0.12333536893129349, 0.019728517159819603, 0.15085434913635254, -0.10704940557479858, 0.18635958433151245, -0.18305394053459167, 0.011937344446778297, -0.033015817403793335, -0.3123086094856262, -0.041066136211156845, 0.022854063659906387, -0.015496031381189823, 0.128270223736763, -0.00484076514840126, 0.00877802912145853, 0.11622407287359238, -0.20376551151275635, 0.03367383033037186, 0.02978484518826008, 0.2045431137084961, -0.062055252492427826, 0.05887841060757637, -0.26195377111434937, -0.236842080950737, 0.1290532797574997, -0.051799893379211426, 0.22075539827346802, 0.013140405528247356, -0.12231208384037018, -0.018373943865299225, 0.1417788863182068, 0.01711852289736271, -0.21318602561950684, 0.07744164764881134, -0.14883431792259216, 0.015084080398082733, 0.056747615337371826, -0.03949037939310074, 0.1681245118379593, -0.13383600115776062, -0.024707814678549767, -0.01005425676703453, -0.09426397830247879, 0.10931631922721863, 0.004893389530479908, -0.0923750028014183, 0.18412534892559052, -0.09983039647340775, 0.06263407319784164, 0.003956839442253113, 0.2335078865289688, 0.028663553297519684, 0.1282569020986557, 0.00947689451277256, -0.06320106238126755, 0.0633816123008728, -0.14686384797096252, -0.040293920785188675, 0.031787727028131485, -0.010450243949890137, 0.09446912258863449, -0.08259403705596924, 0.11425209045410156, 0.09256932884454727, -0.0006930630188435316, 0.03345801681280136, -0.12410224974155426, -0.004757682792842388, 0.13761644065380096, 0.016123633831739426, 0.26844602823257446, 0.2495010793209076, 0.16428200900554657, -0.1122993603348732, -0.229603573679924, 0.1555345207452774, 0.10026346892118454, -0.06941104680299759, -0.0955091044306755, -0.10130443423986435, 0.20129141211509705, -0.05815330520272255, -0.050462186336517334, 0.07939264923334122, 0.12788723409175873, 0.12424585968255997, 0.12037506699562073, -0.04049084335565567, -0.04776677489280701, 0.1243654116988182, 0.10315204411745071, 0.16264556348323822, 0.07027662545442581, 0.16733863949775696, 0.10808779299259186, -0.05100353807210922, -0.23579595983028412, 0.11975634098052979, -0.22690270841121674, -0.15176597237586975, 0.11046575009822845, 0.16222068667411804, -0.1372794657945633, 0.04870462045073509, 0.1735178381204605, -0.03810521587729454, 0.04968765377998352, -0.1527392417192459, 0.1609676480293274, -0.31621381640434265, 0.11737560480833054, -0.09473538398742676, -0.07482121884822845, 0.0417015478014946, -0.1799585521221161, 0.1223512813448906, 0.12404118478298187, 0.11197136342525482, -0.04298429936170578, -0.08967503905296326, 0.15872512757778168, 0.056685786694288254, 0.07088637351989746], [-0.08176565915346146, 0.003008835483342409, -0.11015909165143967, -0.02482370100915432, 0.021459689363837242, -0.12098981440067291, -0.13479292392730713, -0.07205653935670853, 0.002184848999604583, -0.11210359632968903, -0.10534055531024933, -0.1077549085021019, -0.10236971825361252, -0.04457820951938629, -0.1454486846923828, 0.01700637675821781, -0.10830192267894745, -0.1260954737663269, -0.02480907179415226, 0.02395448088645935, -0.07869509607553482, -0.07300278544425964, -0.07825087755918503, -0.14867164194583893, -0.033655233681201935, -0.07612805813550949, -0.11781943589448929, -0.07217474281787872, -0.08023480325937271, -0.023960452526807785, -0.024955760687589645, -0.03632183372974396, -0.03234618529677391, 0.006002751644700766, -0.0549943745136261, -0.023695554584264755, -0.06203407421708107, -0.1403259038925171, -0.02979136072099209, -0.044168367981910706, -0.07094361633062363, -0.1416209489107132, -0.07669717818498611, -0.1095673218369484, -0.1509266197681427, -0.0073438226245343685, -0.12319683283567429, -0.10835952311754227, -0.04680473729968071, -0.03645943105220795, -0.13329704105854034, -0.08626170456409454, -0.038454364985227585, -0.07075253874063492, -0.03871925547719002, -0.09184184670448303, -0.10999938100576401, -0.10703340172767639, -0.03513633832335472, -0.14233624935150146, 0.0003562076308298856, -0.1317387819290161, -0.139334037899971, -0.025262784212827682, -0.07428764551877975, -0.057877067476511, -0.08782947063446045, -0.057796236127614975, 0.012072468176484108, -0.08915001153945923, -0.11834311485290527, 0.005217201542109251, -0.1205076277256012, -0.09306424856185913, -0.1413266658782959, -0.003907801117748022, -0.008405900560319424, -0.08798512816429138, -0.11986389011144638, -0.16915486752986908, -0.13234886527061462, -0.07159414142370224, -0.07211900502443314, 0.0038486826233565807, -0.001141599379479885, -0.0036342020612210035, -0.09808548539876938, 0.0207431111484766, 0.01550207007676363, -0.1269514113664627, -0.1544577181339264, -0.10778005421161652, -0.04194273054599762, -0.12975162267684937, -0.02225976251065731, -0.09730682522058487, 0.020161772146821022, -0.13905677199363708, -0.10198613256216049, -0.1149512305855751, -0.11980634182691574, -0.07715523988008499, -0.007469195406883955, -0.12818871438503265, -0.10860871523618698, -0.11500797420740128, -0.06738130003213882, -0.07229428738355637, -0.0087271211668849, -0.018161209300160408, -0.11382987350225449, -0.12383410334587097, -0.07516821473836899, 0.02140042744576931, -0.09306485950946808, -0.1266661137342453, -0.13824033737182617, -0.1402738243341446, -0.03700532391667366, -0.13093852996826172, -0.14136818051338196, -0.07116837054491043, -0.09334435313940048, -0.08397109061479568, -0.07158011198043823, -0.07633837312459946, 0.006132614333182573, -0.037214942276477814], [-0.07129983603954315, -0.36989909410476685, 0.35957983136177063, 0.2507861852645874, 0.018811320886015892, 0.3914209008216858, 0.09631412476301193, 0.2790491580963135, -0.14572151005268097, 0.0955536738038063, 0.03216199949383736, -0.17198620736598969, 0.3608222007751465, 0.021900540217757225, -0.15558980405330658, -0.298120379447937, 0.33010026812553406, 0.030482251197099686, 0.037038713693618774, -0.0048849983140826225, 0.29166921973228455, -0.04413945972919464, 0.2963829040527344, 0.4867105185985565, -0.11993219703435898, -0.12228349596261978, 0.3653189241886139, -0.03962796926498413, -0.22583447396755219, 0.3162727952003479, -0.04987712949514389, 0.19410264492034912, 0.27139779925346375, -0.11283555626869202, 0.06916584819555283, 0.2064618468284607, 0.29602327942848206, 0.07102648168802261, 0.3660484552383423, -0.06538993120193481, -0.2391015589237213, -0.27825838327407837, -0.351026713848114, 0.2714439034461975, -0.46333810687065125, -0.47628873586654663, -0.3264303207397461, -0.07657530158758163, 0.11856929957866669, 0.20880891382694244, -0.3965582847595215, -0.12255190312862396, 0.31678134202957153, 0.18768608570098877, 0.3526679277420044, -0.23511338233947754, 0.35997694730758667, -0.26614806056022644, 0.19719044864177704, -0.3127059042453766, 0.18934482336044312, -0.22061915695667267, 0.4011722505092621, -0.2861149311065674, 0.19104699790477753, 0.34093353152275085, 0.40470805764198303, -0.21861165761947632, 0.2864845097064972, -0.09041032195091248, 0.3536948263645172, -0.4690784215927124, -0.2505286633968353, 0.2281806319952011, -0.3077097535133362, 0.0714455097913742, 0.22460536658763885, -0.09484811127185822, -0.2967527508735657, -0.08814431726932526, 0.11495591700077057, 0.19944120943546295, 0.06895705312490463, -0.19760067760944366, -0.16836200654506683, 0.08078275620937347, -0.2846307158470154, -0.3785018026828766, -0.35247182846069336, 0.18179434537887573, -0.034771669656038284, -0.18987764418125153, -0.2179529219865799, 0.3097389340400696, 0.19126935303211212, -0.08436451852321625, 0.1335570365190506, 0.14375774562358856, 0.29633060097694397, -0.02332250028848648, 0.33914121985435486, 0.020837029442191124, 0.2204318642616272, -0.06322208791971207, -0.1946236491203308, 0.3460640609264374, -0.20424732565879822, -0.20906898379325867, 0.17000240087509155, -0.15380044281482697, 0.34193867444992065, 0.3666946291923523, -0.14410127699375153, 0.22690518200397491, -0.021972162649035454, -0.03365059942007065, 0.0686672180891037, 0.1430947333574295, -0.16303002834320068, 0.04491153731942177, 0.2556390166282654, -0.23572558164596558, 0.16799847781658173, 0.3384026288986206, -0.20602336525917053, 0.16457729041576385, -0.15633529424667358, 0.2937852144241333], [-0.08157975226640701, -0.3351173996925354, 0.30247095227241516, 0.2408255785703659, 0.08478034287691116, 0.37644779682159424, 0.08035275340080261, 0.20355577766895294, 0.06050874665379524, 0.01912498101592064, 0.09742692857980728, -0.21529358625411987, 0.3735760450363159, 0.12122908234596252, 0.042315732687711716, -0.46960970759391785, 0.33946412801742554, 0.09766218811273575, 0.08875378221273422, 0.15298421680927277, 0.30668899416923523, 0.1311926543712616, 0.43542543053627014, 0.4369383156299591, -0.04181443899869919, 0.006325174123048782, 0.25353682041168213, 0.06194702535867691, -0.3682495951652527, 0.44292935729026794, 0.22447814047336578, 0.03299025818705559, 0.38006460666656494, -0.2016122192144394, 0.17661787569522858, 0.2070511430501938, 0.442512184381485, 0.2830318510532379, 0.42677175998687744, 0.15267275273799896, -0.0017698945011943579, -0.3721632957458496, -0.3457615077495575, 0.2948211133480072, -0.5693691968917847, -0.5201044082641602, -0.3728233277797699, 0.05955991521477699, 0.14890633523464203, 0.19176042079925537, -0.4064134955406189, -0.2257799655199051, 0.3391694128513336, 0.2999004125595093, 0.2977784276008606, -0.148380845785141, 0.23480434715747833, -0.3181702196598053, 0.2553897798061371, -0.28926563262939453, 0.2054855078458786, -0.06980138272047043, 0.4864789843559265, -0.16802524030208588, 0.10495272278785706, 0.37470507621765137, 0.4709037244319916, -0.24894259870052338, 0.19398798048496246, -0.1136753037571907, 0.25925111770629883, -0.3881416618824005, -0.410380095243454, 0.12181033939123154, -0.36063751578330994, 0.17566929757595062, 0.1667264848947525, -0.0501520037651062, -0.32487115263938904, -0.08592881262302399, 0.09896744042634964, 0.2654341757297516, 0.11121591925621033, -0.32214638590812683, -0.1842961460351944, 0.14584855735301971, -0.30461356043815613, -0.3569817841053009, -0.35871025919914246, 0.23776759207248688, -0.01183333620429039, -0.32385313510894775, -0.16652852296829224, 0.366751492023468, 0.12891235947608948, -0.137581467628479, 0.14630290865898132, 0.014184883795678616, 0.38982445001602173, 0.15356671810150146, 0.2982501685619354, 0.0912165641784668, 0.29703062772750854, 0.2242772877216339, -0.37131041288375854, 0.41237112879753113, -0.17173679172992706, -0.4558844566345215, 0.2213623970746994, -0.022849638015031815, 0.43574193120002747, 0.24383246898651123, -0.23929783701896667, 0.28331562876701355, 0.07624611258506775, 0.02639424242079258, 0.2051602452993393, 0.2056809812784195, -0.21810100972652435, 0.0995980054140091, 0.3798220455646515, -0.28035518527030945, 0.30156370997428894, 0.2761887311935425, 0.010195556096732616, 0.218720480799675, -0.14984554052352905, 0.2513238191604614], [0.013243074528872967, -0.035926103591918945, -0.08466580510139465, -0.03675816208124161, -0.12913700938224792, 0.0007851890404708683, 0.0018957355059683323, 0.0361657440662384, -0.09007467329502106, -0.10831082612276077, -0.24142837524414062, -0.07838118821382523, 0.009123018011450768, -0.20249533653259277, -0.07297621667385101, -0.062370654195547104, -0.06187405809760094, -0.08711092174053192, -0.06815247982740402, -0.1315021514892578, -0.026288969442248344, -0.12410321831703186, -0.08176419883966446, 0.013594609685242176, -0.07213830947875977, -0.13008134067058563, -0.017761675640940666, -0.12332184612751007, -0.06131235882639885, -0.009302194230258465, -0.15913908183574677, -0.07461150735616684, -0.008227439597249031, 0.023602401837706566, -0.01844112202525139, -0.002018212340772152, -0.10029180347919464, -0.19489894807338715, -0.03383892774581909, -0.14371195435523987, -0.22312666475772858, 0.00717725558206439, -0.15288318693637848, 0.0002968836633954197, -0.003201390616595745, -0.04523232579231262, -0.13707539439201355, -0.08813658356666565, -0.1571347415447235, 0.011503198184072971, -0.07745296508073807, -0.057037755846977234, -0.05474567785859108, -0.07238063216209412, 0.01138059888035059, -0.13343237340450287, 0.02352847345173359, -0.12218359112739563, 0.055472973734140396, -0.15181006491184235, -0.040481436997652054, -0.10645302385091782, 0.04069738835096359, -0.12035909295082092, -0.021269001066684723, -0.031071366742253304, 0.007483266294002533, -0.10000888258218765, -0.03832395374774933, -0.21955814957618713, 0.04888712987303734, -0.14319811761379242, -0.11915823817253113, -0.001000262564048171, -0.11508240550756454, -0.05658218264579773, -0.01481776125729084, 0.03565826267004013, -0.05828922986984253, -0.12175241857767105, 0.06660715490579605, -0.04779006540775299, 0.005651475861668587, -0.07115337997674942, -0.001588089275173843, -0.10145828127861023, 0.01902979053556919, -0.09504944831132889, -0.07093796879053116, 0.056952208280563354, 0.051881421357393265, -0.0714433565735817, -0.16105443239212036, -0.003410025266930461, 0.0005705952644348145, -0.10210724920034409, 0.016226621344685555, -0.037333209067583084, -0.07895256578922272, -0.07537747174501419, 0.0487646646797657, 0.02192571386694908, -0.0698244646191597, -0.1905011683702469, 0.0018748410511761904, 0.0434727668762207, -0.02655368484556675, -0.06079253926873207, -0.013383554294705391, -0.03472389653325081, 0.020983539521694183, 0.05119844526052475, 0.0377938337624073, 0.012072144076228142, -0.1104063093662262, -0.053913265466690063, -0.2127232700586319, -0.028635716065764427, 0.034357622265815735, -0.01545711886137724, -0.019668180495500565, -0.1516723930835724, 0.02039923332631588, -0.06833864748477936, -0.12682771682739258, -0.09814628213644028, -0.03585774078965187, -0.042219243943691254], [-0.06999616324901581, -0.11684984713792801, -0.1787945032119751, 0.04336041584610939, -0.1632329821586609, -0.14417067170143127, -0.046271130442619324, 0.03475191071629524, -0.07490061968564987, -0.002435073023661971, -0.14679577946662903, -0.014764603227376938, -0.1221659705042839, -0.18124639987945557, -0.004531398415565491, -0.027802174910902977, -0.1579202264547348, -0.11868710070848465, -0.07180403918027878, -0.0973229706287384, -0.11193016171455383, -0.2552219033241272, -0.2157830446958542, -0.21501238644123077, 0.035740628838539124, -0.06282307952642441, -0.13058792054653168, -0.23533734679222107, -0.13830411434173584, -0.03442484885454178, -0.1443903148174286, 0.048389412462711334, -0.024235885590314865, -0.0955779105424881, -0.018278485164046288, -0.11249740421772003, -0.08336326479911804, -0.04691172018647194, -0.08885326981544495, -0.18858598172664642, 0.0012932891258969903, -0.08931106328964233, -0.06706026941537857, -0.09561464190483093, -0.07558374106884003, -0.12936340272426605, -0.15153418481349945, -0.2894991636276245, -0.04864214360713959, -0.07404889911413193, -0.19293901324272156, -0.130219504237175, -0.2360343039035797, -0.018215594813227654, -0.07700707763433456, 0.03875362128019333, -0.05233820527791977, -0.11259222775697708, -0.14566472172737122, -0.07337003201246262, -0.12566757202148438, -0.13421721756458282, -0.19849227368831635, -0.007715277373790741, -0.13975246250629425, -0.15767434239387512, -0.21788358688354492, -0.045694928616285324, -0.018740780651569366, -0.07139179110527039, -0.11650119721889496, -0.1486111879348755, -0.12695838510990143, 0.015498672612011433, -0.049441199749708176, -0.07799194008111954, -0.03313116356730461, 0.014678801409900188, -0.09038878232240677, -0.21782469749450684, -0.0898338183760643, 0.007050934713333845, -0.10667106509208679, -0.1079661101102829, -0.15736024081707, -0.11394597589969635, -0.13295690715312958, -0.1533937305212021, -0.030245959758758545, -0.04685434699058533, -0.008540318347513676, -0.022276166826486588, -0.09406746178865433, -0.234456866979599, -0.08950170874595642, -0.08005545288324356, -0.07594151794910431, 0.001032323227263987, -0.018342629075050354, -0.06995222717523575, -0.05405035242438316, -0.3054523169994354, -0.04844129458069801, -0.08801469951868057, -0.21920491755008698, -0.057085949927568436, -0.09978242963552475, -0.08064153045415878, -0.15231658518314362, -0.09769922494888306, -0.17848558723926544, -0.05787479132413864, -0.2556866705417633, -0.0076906392350792885, -0.2552949786186218, 0.038680627942085266, -0.05902256444096565, -0.1183701604604721, -0.035415876656770706, -0.2226528525352478, -0.1425887495279312, 0.01717379130423069, -0.006729810498654842, -0.14155834913253784, -0.16365595161914825, -0.07505866140127182, -0.05518234893679619, -0.1472865790128708], [-0.25212088227272034, -0.024722926318645477, -0.2504875957965851, 0.36469635367393494, 0.595517635345459, 0.13055111467838287, 0.373318076133728, 0.1435103565454483, 0.5040944814682007, 0.47546863555908203, 0.6407246589660645, 0.035850610584020615, -0.35921961069107056, 0.6072224378585815, 0.38043856620788574, 0.037947654724121094, -0.31882554292678833, -0.1755421906709671, -0.30608874559402466, 0.3979291617870331, -0.08869552612304688, 0.528792142868042, -0.4926070272922516, -0.5104533433914185, 0.10624830424785614, 0.6810861229896545, -0.3800068199634552, 0.6519472599029541, -0.48604822158813477, -0.03540124371647835, 0.45323818922042847, 0.0525919571518898, -0.08254038542509079, -0.6107476949691772, 0.42054468393325806, 0.020746668800711632, -0.11887016892433167, 0.46328842639923096, -0.31243714690208435, 0.5736609101295471, 0.45365768671035767, 0.06007472053170204, -0.04847574979066849, -0.17776645720005035, -0.3795837163925171, 0.10559619963169098, -0.3286037743091583, -0.9773575067520142, 0.5129731297492981, -0.10717088729143143, -0.15133985877037048, 0.18680411577224731, -0.3622725307941437, -0.1126168891787529, -0.13328692317008972, 0.267486035823822, -0.163584902882576, 0.22904399037361145, -0.3420726954936981, -0.3070617616176605, -0.31907740235328674, 0.6165136694908142, -0.4664994180202484, 0.43656036257743835, -0.3500005304813385, -0.08938680589199066, -0.42302247881889343, -0.0316067598760128, 0.06500735878944397, 0.42313846945762634, -0.18024978041648865, 0.0370534285902977, 0.08186858892440796, 0.06766282021999359, 0.04523823410272598, 0.11808914691209793, 0.30054596066474915, 0.17240135371685028, -0.44048887491226196, -0.8037158250808716, -0.16742542386054993, -0.1534980833530426, -0.4252142608165741, -0.21865014731884003, -0.22564217448234558, 0.5116706490516663, -0.45480644702911377, -0.036701709032058716, -0.08606480807065964, -0.26175057888031006, -0.12633195519447327, 0.009351969696581364, 0.5068676471710205, -0.29175445437431335, 0.4429128170013428, 0.033973854035139084, 0.009045838378369808, -0.037487756460905075, -0.06665638089179993, -0.11541930586099625, -0.16338172554969788, -0.9264652132987976, -0.025408953428268433, 0.6168867945671082, -0.4658301770687103, -0.23729661107063293, 0.10348200052976608, -0.26639464497566223, -0.19818958640098572, 0.4176633954048157, -0.37320587038993835, -0.18505771458148956, -0.5658693909645081, -0.16690503060817719, 0.5801630616188049, 0.013609991408884525, 0.5015096068382263, 0.4136683940887451, -0.37323933839797974, -0.9393317699432373, -0.15407270193099976, 0.28507524728775024, -0.20524823665618896, -0.10249267518520355, 0.5851139426231384, 0.1744510680437088, -0.15756112337112427, -0.0883183553814888], [-0.0908106192946434, -0.46202564239501953, 0.279311865568161, 0.27712705731391907, 0.10317589342594147, 0.24470151960849762, 0.09208407253026962, 0.2189464271068573, 0.01664404384791851, 0.10896771401166916, 0.15511244535446167, -0.16983596980571747, 0.3721199333667755, 0.2073010802268982, -0.031458087265491486, -0.45490655303001404, 0.34997761249542236, 0.07891006022691727, 0.11000014841556549, 0.05336761847138405, 0.2571481466293335, 0.09991925954818726, 0.4347340762615204, 0.39680108428001404, 0.009336859919130802, -0.030633918941020966, 0.36275267601013184, 0.11862315982580185, -0.32236504554748535, 0.31969398260116577, 0.10764531791210175, 0.1861434429883957, 0.39786070585250854, -0.11752631515264511, 0.14835573732852936, 0.15179403126239777, 0.32277873158454895, 0.19362863898277283, 0.2999005913734436, 0.17274414002895355, -0.0641612857580185, -0.33677080273628235, -0.3601342439651489, 0.1943201869726181, -0.5462636947631836, -0.46728140115737915, -0.3145614564418793, -0.011114448308944702, 0.2440236657857895, 0.22403305768966675, -0.5061655044555664, -0.11141619086265564, 0.4736824631690979, 0.29814931750297546, 0.34366756677627563, -0.01322028785943985, 0.2803088426589966, -0.3100915551185608, 0.277935266494751, -0.4333590567111969, 0.17897038161754608, -0.06226455047726631, 0.4407581388950348, -0.18305931985378265, 0.08003952354192734, 0.24832366406917572, 0.5172550082206726, -0.2487839013338089, 0.3335607349872589, -0.05004525184631348, 0.26365581154823303, -0.42239415645599365, -0.2625223994255066, 0.12464534491300583, -0.4380124807357788, 0.10977483540773392, 0.13205477595329285, -0.04786805436015129, -0.25280460715293884, -0.09594418853521347, 0.09125109016895294, 0.1337634027004242, 0.1075582504272461, -0.26348400115966797, -0.29562610387802124, 0.12665894627571106, -0.19870099425315857, -0.45950478315353394, -0.3712303936481476, 0.22455884516239166, 0.05953795462846756, -0.20134800672531128, -0.10677140951156616, 0.4506147503852844, 0.13514868915081024, -0.11867223680019379, 0.1351384073495865, 0.12371061742305756, 0.3626675605773926, 0.12223199009895325, 0.2775748074054718, 0.008138608187437057, 0.34634682536125183, 0.21525362133979797, -0.3900495171546936, 0.4661821722984314, -0.12708702683448792, -0.44126275181770325, 0.2841569483280182, 0.024309067055583, 0.3896190822124481, 0.3744651973247528, -0.3200274705886841, 0.3718874454498291, 0.1577407717704773, -0.04033416137099266, 0.13975204527378082, 0.16736924648284912, -0.1555044949054718, 0.033126696944236755, 0.3531405031681061, -0.26752999424934387, 0.12787692248821259, 0.33460289239883423, -0.14152385294437408, 0.13650807738304138, -0.02235523797571659, 0.19918601214885712], [0.018763840198516846, -0.11512243002653122, -0.08635775744915009, -0.0605534128844738, -0.13789790868759155, -0.06216265261173248, -0.06578069180250168, 0.06011274456977844, -0.030839694663882256, -0.0951080173254013, -0.10052022337913513, 0.04965897276997566, 0.04160851612687111, -0.2218274474143982, 0.0011084224097430706, -0.015637749806046486, -0.01678592339158058, -0.010441949591040611, -0.10618200898170471, -0.029368970543146133, -0.088006891310215, -0.13525940477848053, 0.04419791325926781, -0.060135625302791595, -0.0736071914434433, -0.15798789262771606, 0.03737892210483551, -0.11726903170347214, -0.032920628786087036, -0.10165319591760635, -0.1397595852613449, 0.04323556646704674, -0.09077250957489014, -0.13311155140399933, -0.030594460666179657, -0.012093710713088512, -0.08434275537729263, -0.16647839546203613, -0.06344123184680939, -0.18745407462120056, -0.08843780308961868, -0.0013218498788774014, -0.014270062558352947, 0.04519019275903702, -0.043391358107328415, 0.023171504959464073, -0.1453530639410019, -0.05847432091832161, -0.12239070236682892, -0.02755129523575306, -0.08708032965660095, 0.06492159515619278, -0.10804326087236404, -0.08190146833658218, 0.05789477005600929, 0.08308831602334976, 0.02835119143128395, -0.03494773805141449, 0.020585399121046066, -0.01681332103908062, -0.03172155097126961, 0.005101652815937996, 0.02858925238251686, -0.004506775178015232, 0.04885047301650047, 0.05397369712591171, -0.1390054076910019, -0.08157601207494736, -0.024052470922470093, 0.013974742032587528, 0.0394694022834301, -0.014171890914440155, 0.042799919843673706, -0.04619228467345238, 0.046658776700496674, 0.03535082936286926, -0.0035585188306868076, 0.04514557868242264, -0.044683266431093216, -0.16767625510692596, -0.05240704491734505, -0.06958886981010437, 0.014058895409107208, 0.025189075618982315, -0.08273659646511078, -0.038151681423187256, -0.008558107540011406, 0.01886354573071003, -0.12348739802837372, -0.05212423577904701, -0.07558915764093399, -0.09978050738573074, -0.09236221760511398, -0.03287910670042038, -0.057660724967718124, 0.056916143745183945, -0.04616750776767731, 0.020942656323313713, -0.030418377369642258, 0.051009565591812134, -0.013915830291807652, -0.003813250921666622, 0.0329228900372982, -0.1535089761018753, -0.1398049294948578, -0.056305333971977234, 0.05230378359556198, -0.007408221252262592, 0.00489138625562191, -0.024378251284360886, -0.11754535883665085, 0.04472014307975769, -0.14207592606544495, 0.011700681410729885, -0.14706557989120483, 0.04259628430008888, -0.17622233927249908, -0.08265755325555801, -0.00211933976970613, -0.1552799791097641, -0.11383282393217087, -0.03186652064323425, 0.03430609777569771, -0.07471141964197159, -0.04608417674899101, 0.05780581384897232, 0.03399338945746422, -0.0060475049540400505], [-0.004329358693212271, -0.05246077477931976, -0.1378224939107895, -0.12603142857551575, -0.04401315376162529, -0.11128602176904678, -0.06616860628128052, 0.00858925748616457, -0.028069667518138885, -0.027420707046985626, -0.028027411550283432, 0.024374602362513542, -0.11824307590723038, -0.03513287752866745, -0.03083696961402893, -0.0927743911743164, -0.029195299372076988, -0.002791909035295248, -0.11693891137838364, 0.02116280421614647, -0.06178149953484535, -0.15063388645648956, -0.002985734259709716, -0.13349692523479462, -0.09692683815956116, 0.015936680138111115, -0.08057934790849686, -0.07477067410945892, -0.08845634758472443, -0.09956333786249161, -0.09926454722881317, -0.028497474268078804, -0.03949936479330063, -0.12182898819446564, 0.006549625191837549, -0.08310280740261078, -0.02943509817123413, -0.09868238121271133, -0.04531635716557503, -0.03335341811180115, -0.09113626927137375, -0.015184174291789532, -0.09523114562034607, -0.12228963524103165, -0.029625369235873222, -0.12104886770248413, -0.05582672357559204, 0.0012511411914601922, -0.1511937975883484, -0.12087306380271912, -0.04303468391299248, -0.06005260348320007, -0.06760527938604355, 0.009722508490085602, 0.016525862738490105, 0.013745732605457306, 0.010931854136288166, 0.019839143380522728, -0.09709162265062332, 0.005400205962359905, 0.011674022302031517, 0.03753286227583885, -0.13955730199813843, -0.06821472942829132, -0.0882251039147377, 0.02074670046567917, -0.12081865221261978, 0.0016836083959788084, -0.03439931944012642, -0.07050126791000366, 0.008796700276434422, -0.06283830851316452, -0.07348639518022537, -0.04275991767644882, -0.13676977157592773, 0.016295604407787323, -0.024069296196103096, -0.1278451383113861, -0.013989866711199284, -0.13873383402824402, -0.12474320083856583, -0.0017474135383963585, 0.039130814373493195, -0.06283280998468399, -0.09748518466949463, 0.02220490761101246, -0.03487962856888771, -0.12605951726436615, -0.14463846385478973, -0.058140747249126434, -0.04538518935441971, -0.11591899394989014, 0.021395500749349594, 0.032787222415208817, -0.058724645525217056, 0.025872617959976196, -0.029196079820394516, -0.12606628239154816, 0.016879724338650703, 0.008819708600640297, -0.005858055781573057, 0.02100474387407303, -0.054328154772520065, -0.007718028966337442, -0.04463988170027733, -0.14832764863967896, -0.045499932020902634, -0.04867551103234291, -0.08980295062065125, -0.1168905571103096, -0.1084974929690361, -0.03393976017832756, -0.1042366623878479, -0.036222122609615326, -0.06719458848237991, -0.08312202990055084, -0.0900634378194809, -0.04246973991394043, 0.023254668340086937, -0.0897752046585083, -0.037183839827775955, -0.006353980395942926, 0.005588136613368988, -0.1357564777135849, -0.030230391770601273, 0.005957053974270821, -0.0043036313727498055, -0.032468281686306], [-0.005270380061119795, 0.04356632009148598, -0.06712178140878677, -0.001610608072951436, -0.055887769907712936, 0.013687037862837315, -0.08153410255908966, 0.06493774801492691, -0.0060367765836417675, -0.03670509532094002, -0.04029858857393265, 0.00825214572250843, -0.15274029970169067, -0.11152998358011246, -0.023654403164982796, 0.0066316332668066025, -0.1088961660861969, -0.07279709726572037, 0.015099802054464817, -0.021418394520878792, -0.08391403406858444, -0.1747114509344101, -0.07285372167825699, -0.1546870470046997, 0.058508072048425674, 0.020081032067537308, -0.11726213246583939, -0.12885983288288116, -0.021490810438990593, -0.09887101501226425, -0.14469431340694427, -0.02809600718319416, -0.07274779677391052, -0.1063438132405281, -0.1065564900636673, -0.01402354147285223, -0.09985926002264023, -0.002671952359378338, -0.08497323095798492, -0.10835328698158264, 0.06281943619251251, -0.04479566961526871, -0.009981122799217701, -0.10722409188747406, -0.07165183126926422, 0.047583937644958496, -0.013679620809853077, -0.11698177456855774, -0.07697480916976929, -0.05204921215772629, 0.02085489220917225, 0.043596286326646805, -0.09162832051515579, -0.11433175951242447, 0.024004582315683365, -0.08733309060335159, -0.0954231396317482, 0.0048111071810126305, 0.028170254081487656, -0.08923070132732391, -0.02781900018453598, -0.027486279606819153, -0.030134929344058037, 0.013425048440694809, -0.10728887468576431, -0.06287333369255066, -0.054811667650938034, 0.012040548026561737, -0.06863554567098618, 0.056838590651750565, -0.08512307703495026, -0.09732399880886078, -0.038393959403038025, -0.026022491976618767, 0.026155570521950722, -0.011592227965593338, 0.01963884010910988, 0.07828612625598907, 0.01130867563188076, -0.08930537104606628, -0.002314657438546419, -0.10616496205329895, 0.03844268620014191, -0.11775847524404526, 0.03504019230604172, -0.11204636096954346, -0.15796616673469543, -0.07922601699829102, -0.026983410120010376, 0.01290271244943142, -0.08371209353208542, 0.05128071457147598, 0.023614274337887764, -0.028393875807523727, -0.06936675310134888, -0.0704169049859047, 0.06356298923492432, -0.02521941252052784, -0.02357940934598446, -0.0019239804241806269, 0.006545715034008026, 0.006594196427613497, 0.017543286085128784, -0.07704544067382812, -0.1296635866165161, -0.026841677725315094, 0.044462092220783234, 0.022811148315668106, -0.022670915350317955, -0.002098358701914549, 0.015790309756994247, -0.12452837824821472, -0.06952182948589325, -0.07789501547813416, -0.15117335319519043, -0.08577089756727219, -0.027764247730374336, -0.07169702649116516, 0.04139883071184158, 0.0017457406502217054, -0.009566660970449448, -0.06655829399824142, -0.030815841630101204, -0.14986561238765717, -0.07747796922922134, -0.05006135627627373, -0.06847900152206421, -0.030412765219807625], [0.40564265847206116, 0.49340829253196716, 0.15893186628818512, 0.35502633452415466, 0.2041950672864914, 0.23849855363368988, 0.16934676468372345, 0.2497420310974121, 0.1768009513616562, 0.4479427933692932, 0.1040312647819519, 0.3572092354297638, -0.004398670047521591, 0.12816524505615234, 0.2689710557460785, 0.49811747670173645, 0.03046305663883686, 0.18880325555801392, 0.17618557810783386, 0.30766427516937256, 0.18990394473075867, 0.06925129145383835, -0.026283878833055496, -0.11413843929767609, 0.40699177980422974, 0.22040091454982758, 0.09001599252223969, 0.016647733747959137, 0.3458043038845062, 0.05605402588844299, 0.13074004650115967, 0.2619284391403198, 0.19594216346740723, 0.21239516139030457, 0.28766918182373047, 0.3076420724391937, 0.15081742405891418, 0.22787624597549438, 0.11228219419717789, 0.2035539150238037, 0.45722496509552, 0.525555431842804, 0.5020759105682373, 0.236295685172081, 0.5132640600204468, 0.4484841525554657, 0.3771776556968689, 0.20388191938400269, 0.2291981279850006, 0.1961652636528015, 0.4657631814479828, 0.35917648673057556, -0.000591853866353631, 0.16209039092063904, 0.15876707434654236, 