[{"weight": [[0.24255812168121338, -0.22271862626075745], [-1.3374180793762207, 0.45016464591026306], [1.4233118295669556, -0.4017528295516968], [0.9253668785095215, 1.1201140880584717], [-0.968742311000824, 0.042019084095954895], [-0.44815874099731445, 0.49621981382369995], [0.6449043154716492, 0.9561983942985535], [0.9790765047073364, 0.6383653283119202], [0.009937153197824955, -1.8502051830291748], [0.7039885520935059, -0.7188496589660645], [-0.5427424907684326, 0.9502466320991516], [-0.28085091710090637, 0.3249233663082123], [-0.847305417060852, 0.783805787563324], [1.1103273630142212, 0.4181637167930603], [-0.8973435163497925, 0.9056901335716248], [-0.6986263990402222, 0.7725009322166443], [0.6488195657730103, -0.8310168981552124], [-0.23858270049095154, 0.2175205796957016], [-0.6123654842376709, 0.5233882069587708], [0.9020095467567444, -1.2538710832595825], [-0.9305926561355591, 0.82422935962677], [-1.0861916542053223, 0.6871346831321716], [-1.1638818979263306, -0.7016515135765076], [0.6226825714111328, -0.8687743544578552], [-0.4682730734348297, -1.611262559890747], [-0.9399609565734863, -1.8038151264190674], [-0.9320762753486633, 0.7134575247764587], [-0.7365046143531799, -1.3348747491836548], [0.704026460647583, -0.7547237873077393], [1.0335941314697266, -1.2131357192993164], [-0.7744104862213135, 0.26713111996650696], [-0.7628688812255859, 0.9179743528366089], [-0.2784920930862427, 0.23996393382549286], [0.9363535046577454, -1.3311247825622559], [0.27366209030151367, -1.6062963008880615], [-0.4446374475955963, 0.5166357159614563], [-0.2529333531856537, -1.5200307369232178], [-0.88539057970047, 0.8846700191497803], [0.3898753225803375, -0.41628497838974], [0.28071582317352295, 0.02213282696902752], [-1.3634504079818726, 0.5964081287384033], [-0.5670945644378662, 0.5664920806884766], [0.61250239610672, 1.3452236652374268], [-1.0075637102127075, 0.6345518827438354], [1.3269562721252441, -0.5902298092842102], [-1.0377681255340576, 0.8242712020874023], [-0.3302549421787262, -1.5161876678466797], [-0.23582440614700317, 0.33472996950149536], [0.2542940378189087, -0.3050523102283478], [-0.1003655269742012, 0.001979917986318469], [0.5148947238922119, 1.8447747230529785], [0.8541954755783081, -1.2073334455490112], [0.05061595141887665, 1.692087173461914], [-1.128112554550171, -0.9357359409332275], [-0.6102569103240967, -1.3452904224395752], [0.8010624647140503, -1.0790328979492188], [-0.9157084822654724, 0.5804573893547058], [1.1417279243469238, 0.7757270336151123], [-0.23130644857883453, 0.20491108298301697], [0.39189621806144714, -0.5210326910018921], [0.2963252663612366, -0.3941424489021301], [-0.08668792992830276, 0.14496493339538574], [-0.828011155128479, 0.7754907608032227], [0.8805124163627625, 0.016662539914250374], [-1.0520308017730713, 0.38334888219833374], [0.7218586802482605, 1.3859864473342896], [0.5878775119781494, -1.169926404953003], [0.7521560788154602, 0.8880082964897156], [1.098347783088684, 0.16323606669902802], [-1.1585619449615479, 0.9718107581138611], [0.6857458353042603, -0.5965826511383057], [-0.5229038596153259, 0.4730890393257141], [-0.8863526582717896, -1.69875168800354], [0.7183871865272522, 0.5910265445709229], [-1.1273541450500488, -0.8166136145591736], [-0.4630780518054962, 0.5548715591430664], [-1.0354671478271484, 0.9016442894935608], [-0.3645397424697876, 0.5178120732307434], [-0.32851195335388184, 1.4465303421020508], [0.4209226667881012, -0.45818260312080383], [0.9803115129470825, 1.0159189701080322], [-1.0954352617263794, 0.47863438725471497], [-0.21080715954303741, 1.1540873050689697], [0.42561396956443787, -0.5123209953308105], [0.972400963306427, -1.06699800491333], [0.8285890817642212, -1.4605814218521118], [-0.41234737634658813, 0.6098297834396362], [-0.9186010360717773, -0.12638698518276215], [-1.0705291032791138, 0.010122704319655895], [-0.29521656036376953, -1.469426155090332], [0.27569612860679626, -1.1557117700576782], [-0.7431987524032593, 0.5771335363388062], [0.9678686261177063, -1.318528175354004], [1.0561847686767578, 0.7200191617012024], [-0.7765713334083557, -1.6126147508621216], [-0.5569724440574646, 0.7838009595870972], [1.017117977142334, 0.2954205870628357], [-0.8412507176399231, 0.8109052181243896], [-1.1815773248672485, 1.0122578144073486], [-0.3883182406425476, 0.40967002511024475], [-1.0008326768875122, -1.2629506587982178], [0.13394401967525482, -0.1592053771018982], [0.7322427034378052, 0.5769321322441101], [0.0179638359695673, -1.5116076469421387], [0.8252159953117371, 1.269870638847351], [-0.7216028571128845, 0.8543685078620911], [-0.4589017629623413, 0.4856035113334656], [1.0526387691497803, 0.8813981413841248], [-1.4383625984191895, 0.9744922518730164], [-1.022170901298523, 0.9368895888328552], [0.5103678107261658, -0.7113543152809143], [-0.9766845107078552, -1.670767068862915], [-1.0236661434173584, -1.405276894569397], [0.5965579152107239, -0.6090354919433594], [-0.6640992164611816, 0.4909678101539612], [-0.6348168253898621, 0.9802520275115967], [0.6257246732711792, -0.8549091219902039], [-0.16381330788135529, 0.27123281359672546], [0.5712960362434387, -0.6503596901893616], [0.44740501046180725, -0.5025373101234436], [-0.7919228076934814, 0.6361150741577148], [0.9830898642539978, -1.0740267038345337], [0.6735007762908936, -0.8355380892753601], [0.7168188095092773, 1.5230222940444946], [-0.17380808293819427, 0.28250807523727417], [-0.9751136302947998, 0.9040437936782837], [0.21675191819667816, -0.12500381469726562], [0.6546614170074463, -1.120425820350647]], "bias": [0.7287632822990417, -0.2643575072288513, -0.10178573429584503, -0.8778218030929565, 0.2922057807445526, 0.18122754991054535, -0.7679980993270874, 0.03973875567317009, 0.9014663100242615, 0.18747985363006592, 0.05431507155299187, 0.505624532699585, 0.4339430034160614, -0.2966144382953644, 1.199026107788086, 0.8117727041244507, 0.23230333626270294, 0.61454838514328, 0.9722813963890076, 0.4971974492073059, 1.0255481004714966, 0.9034087657928467, 0.43577253818511963, 1.1081857681274414, 0.4636443257331848, 0.10217422991991043, 0.16915862262248993, -0.24052691459655762, 0.37334275245666504, 1.3849973678588867, 0.6165346503257751, 0.8743788003921509, 0.3897757828235626, 1.2156568765640259, 0.3877723813056946, 0.7195762991905212, 0.6541066765785217, 0.5262484550476074, 0.7970770597457886, 1.0491023063659668, -0.19246353209018707, -0.051205825060606, -0.6677157282829285, 0.7643545866012573, 0.13811330497264862, 0.36277270317077637, -0.13629229366779327, 0.3557939827442169, -0.11353577673435211, 0.7512853741645813, -0.5315695405006409, 1.2980128526687622, -0.031625714153051376, 0.08242949098348618, -0.12635616958141327, 0.7098478078842163, 0.5705052614212036, -0.924432635307312, 0.15167085826396942, 0.8331729173660278, 0.7941560745239258, 0.1271742433309555, 0.39552536606788635, 0.09514325112104416, -0.3177761137485504, -0.522266149520874, 0.7378712296485901, -0.5411405563354492, 0.07955360412597656, 0.3448568284511566, 0.6586735844612122, 0.6584848165512085, 0.5297390222549438, -0.6465610265731812, 0.043926794081926346, 1.0757354497909546, 1.1287264823913574, 0.3946489095687866, 0.323866605758667, 0.17008845508098602, -1.0375200510025024, -0.024565469473600388, 0.39099353551864624, 0.9338160753250122, 0.7996695041656494, 0.8646770715713501, 0.1958693116903305, 0.16128702461719513, -0.11677060276269913, 0.23438774049282074, 0.4928063154220581, 0.3003638684749603, 0.6498124599456787, -0.4865780770778656, 0.2381099909543991, 1.0074176788330078, -0.4210159182548523, 0.6947649717330933, 0.4212411940097809, -0.0009169640834443271, -0.314777672290802, 0.11325709521770477, 0.4370887875556946, 0.5740758180618286, -0.6655054092407227, 0.36301323771476746, 0.5698559880256653, -0.398496150970459, 0.019836952909827232, 0.31267791986465454, 0.39314156770706177, 0.01323019340634346, -0.33186620473861694, 0.6101962924003601, 0.8304198980331421, 1.0525054931640625, 0.9988306164741516, -0.0889962688088417, 0.6178839802742004, 0.8106794953346252, 0.4727291464805603, 0.7679283022880554, 0.4043980538845062, -1.0087885856628418, 0.0647754818201065, 1.0820696353912354, 0.6676962375640869, 0.9638319611549377]}, {"weight": [[0.12935395538806915, -0.21000231802463531, -0.08083576709032059, -0.32240137457847595, 0.024986224249005318, 0.10166089236736298, -0.11669769138097763, -0.19548505544662476, 0.0034749358892440796, 0.0802309438586235, -0.05077718198299408, 0.16535867750644684, 0.1528778225183487, -0.16118477284908295, 0.1784287542104721, 0.043948277831077576, 0.1720692217350006, 0.23431535065174103, 0.08051828294992447, 0.11019076406955719, 0.18998897075653076, 0.14787352085113525, -0.1152212917804718, 0.20328356325626373, -0.14878183603286743, -0.3986356556415558, 0.045296620577573776, -0.30823996663093567, 0.13203606009483337, 0.010058832354843616, 0.09384441375732422, 0.18424472212791443, 0.11476772278547287, -0.0039649480022490025, 0.06520230323076248, 0.14744527637958527, -0.04890577122569084, 0.06495849043130875, 0.12523458898067474, 0.14545953273773193, -0.1388731151819229, 0.1808382272720337, -0.20208996534347534, 0.08904199302196503, -0.03632918372750282, 0.09210196137428284, -0.299428254365921, 0.17442865669727325, 0.10510982573032379, 0.13671207427978516, -0.16132715344429016, 0.08392857015132904, -0.1581493318080902, -0.21489571034908295, -0.22630849480628967, 0.07541485130786896, 0.12862014770507812, -0.3125396966934204, 0.2569073736667633, 0.2503426671028137, 0.27429652214050293, 0.2128719687461853, -0.015423743054270744, -0.019684379920363426, -0.11111046373844147, -0.1623719036579132, 0.1960100680589676, -0.11165210604667664, 8.909159805625677e-05, -0.052491407841444016, 0.04867728427052498, 0.24620725214481354, -0.3575369417667389, -0.16521848738193512, -0.22334308922290802, 0.211882546544075, 0.057179972529411316, 0.04075000435113907, -0.037615422159433365, 0.07025163620710373, -0.21547095477581024, -0.07787852734327316, 0.050377339124679565, 0.24538560211658478, 0.029894204810261726, 0.11582749336957932, 0.1629645973443985, 0.023144766688346863, -0.10800614207983017, -0.06626823544502258, 0.11197637766599655, 0.07143238186836243, -0.01973830536007881, -0.24898166954517365, -0.21895092725753784, 0.059099145233631134, -0.2100013941526413, 0.14066554605960846, 0.027144121006131172, 0.07581224292516708, -0.31224575638771057, 0.14846384525299072, 1.0859919711947441e-05, -0.023182155564427376, -0.19144593179225922, 0.05830639973282814, 0.11163953691720963, -0.15534108877182007, -0.08309628814458847, 0.0878748819231987, 0.2059321105480194, -0.42038780450820923, -0.490147203207016, 0.07652638852596283, 0.09470193088054657, 0.10266472399234772, 0.13165266811847687, 0.21092765033245087, 0.18812181055545807, 0.16432732343673706, 0.16841572523117065, -0.00423527043312788, 0.09269387274980545, -0.31283554434776306, 0.1543567031621933, 0.027655063197016716, 0.17086292803287506, 0.026932597160339355], [0.12366756051778793, -0.2667853534221649, -0.0924442708492279, -0.09031108021736145, -0.12570862472057343, 0.2161698043346405, -0.041910067200660706, -0.09724489599466324, 0.03430682048201561, 0.13340824842453003, 0.0277128703892231, 0.1583959460258484, 0.1322561353445053, -0.11442511528730392, 0.0494634248316288, 0.20399633049964905, 0.18329553306102753, 0.14142867922782898, 0.23026682436466217, 0.1837587207555771, 0.030607175081968307, 0.037115611135959625, -0.18110120296478271, 0.1292022317647934, -0.05247526615858078, -0.2070840746164322, 0.09626871347427368, -0.1902930587530136, 0.2092611938714981, 0.10292399674654007, -0.013697909191250801, 0.03042672388255596, 0.12023329734802246, 0.1776973158121109, -0.03306920453906059, 0.1713532954454422, -0.04549485817551613, 0.0883660614490509, 0.17058297991752625, 0.08523182570934296, -0.21544800698757172, 0.17905664443969727, -0.17474040389060974, -0.0199032723903656, 0.04695504531264305, 0.0799044594168663, -0.08104033768177032, 0.181970477104187, 0.16445019841194153, 0.1617024689912796, -0.15850365161895752, 0.14724014699459076, -0.09432074427604675, -0.21566155552864075, -0.22578583657741547, 0.1684902012348175, 0.07409461587667465, -0.24754175543785095, 0.12771061062812805, 0.28876304626464844, 0.1646689921617508, 0.27339696884155273, 0.05797192454338074, -0.0005091479397378862, -0.1950133591890335, -0.1805722713470459, 0.13917706906795502, -0.025169888511300087, -0.13163015246391296, -0.05964786559343338, 0.18011441826820374, 0.21682173013687134, -0.04244205728173256, -0.12300810217857361, -0.23090766370296478, 0.23589685559272766, 0.07816213369369507, 0.14321260154247284, -0.11988654732704163, 0.17927077412605286, -0.24908116459846497, -0.08059539645910263, 0.07083844393491745, 0.2432238608598709, 0.19409668445587158, 0.07405055314302444, 0.19885757565498352, -0.08192367851734161, -0.10078547149896622, -0.14425776898860931, 0.04854920133948326, 0.11696432530879974, 0.1809198409318924, -0.19546377658843994, -0.17321817576885223, 0.1281498670578003, -0.09425800293684006, 0.10494358092546463, -0.0062332903034985065, 0.23493534326553345, -0.30382364988327026, 0.20107720792293549, 0.039899203926324844, 0.008517765440046787, -0.06861351430416107, 0.03613206371665001, 0.10233089327812195, -0.11373952776193619, -0.20461449027061462, -0.060259509831666946, 0.16409415006637573, -0.24590261280536652, -0.15026865899562836, 0.18108312785625458, 0.1752815693616867, 0.045873116701841354, 0.16228725016117096, 0.1295575052499771, 0.1356862634420395, 0.20059704780578613, 0.10727087408304214, 0.05591323599219322, 0.12240063399076462, -0.11505047976970673, 0.1468568593263626, 0.13468541204929352, 0.283431738615036, 0.26205673813819885], [0.20974014699459076, -0.07539737224578857, -0.12249027192592621, -0.13035376369953156, 0.03825566917657852, 0.11438781768083572, -0.07450684159994125, -0.06851591169834137, 0.036092933267354965, 0.03678915277123451, -0.009229393675923347, 0.19185198843479156, 0.07721873372793198, -0.15423592925071716, -0.0016028652898967266, 0.12417414039373398, 0.1675882339477539, 0.11012304574251175, 0.1080910712480545, -0.021163465455174446, 0.08640418946743011, 0.11937151849269867, -0.08596310019493103, 0.09398551285266876, -0.07541671395301819, -0.0065767900086939335, -0.11367875337600708, -0.07068201899528503, 0.16732552647590637, -0.012360070832073689, 0.1306026130914688, 0.02684273198246956, 0.22716760635375977, -0.015444652177393436, -0.021298928186297417, 0.07081907242536545, 0.0010511704022064805, 0.018873507156968117, 0.22441646456718445, 0.1978340744972229, -0.20575739443302155, 0.07521220296621323, -0.023798948153853416, 0.07558640837669373, -0.09401491284370422, -0.02835949696600437, -0.15957242250442505, 0.10699644684791565, 0.10981984436511993, 0.27375778555870056, -0.1641596406698227, 0.09738883376121521, -0.010946591384708881, -0.13767176866531372, -0.14012864232063293, 0.014230486005544662, 0.031288035213947296, -0.06882359832525253, 0.13995732367038727, 0.18575866520404816, 0.21673622727394104, 0.10981587320566177, -0.03193887695670128, -0.02673342451453209, -0.12009406089782715, -0.06971772760152817, 0.08877904713153839, -0.05782128870487213, -0.13119150698184967, -0.03839913010597229, 0.18383954465389252, 0.07256963849067688, 0.05784810706973076, -0.008313051424920559, -0.05203446000814438, 0.12378056347370148, 0.056674856692552567, 0.14055947959423065, -0.13641996681690216, 0.16927765309810638, -0.059669021517038345, 0.012411516159772873, -0.08328414708375931, 0.17947210371494293, -0.003562254598364234, 0.061866551637649536, 0.13201472163200378, 0.07077529281377792, -0.026568088680505753, -0.027610452845692635, 0.04169667884707451, -0.01723197102546692, -0.12218338996171951, -0.020057806745171547, -0.10961885750293732, 0.13601073622703552, 0.004583351314067841, 0.020537137985229492, -0.0841519758105278, 0.16442522406578064, -0.13241876661777496, 0.165578693151474, 0.04441763833165169, -0.02596089243888855, -0.11870599538087845, -0.06904131919145584, 0.19290800392627716, -0.0888715609908104, -0.2563174366950989, -0.13161027431488037, 0.19103528559207916, -0.1175580620765686, -0.19200101494789124, 0.2174677848815918, 0.11044175922870636, 0.15312246978282928, 0.18249060213565826, 0.16195642948150635, 0.06782330572605133, 0.1751992106437683, 0.049130044877529144, -0.04122534394264221, 0.051171477884054184, -0.07554160058498383, 0.2059803158044815, -0.012926955707371235, 0.12974196672439575, 0.11044935137033463], [0.4770321846008301, -0.036831095814704895, 0.2336873561143875, -0.9897070527076721, 0.020724577829241753, 0.26538679003715515, -0.4209185242652893, -0.35591772198677063, 0.2521689534187317, 0.595034658908844, 0.14917296171188354, 0.2795065641403198, 0.1479431539773941, -0.43894240260124207, 0.15950073301792145, 0.3028663694858551, 0.6442128419876099, 0.253337025642395, 0.3527268171310425, 0.6230518221855164, 0.23720534145832062, 0.04561294615268707, -0.01779988408088684, 0.47449052333831787, 0.0832708403468132, 0.0575680248439312, 0.07552134245634079, -0.05646898224949837, 0.5956296324729919, 0.6400437951087952, 0.09655062854290009, 0.22029931843280792, 0.28492647409439087, 0.5790790319442749, 0.28395554423332214, 0.38464558124542236, 0.06269121915102005, 0.07976385951042175, 0.5614461302757263, 0.4574938714504242, -0.06539537012577057, 0.20072363317012787, -0.6913974285125732, 0.10793410241603851, 0.39445310831069946, 0.018591519445180893, 0.05454002693295479, 0.3060307800769806, 0.4694080650806427, 0.3183695077896118, -0.8168867230415344, 0.5932028293609619, -0.5956863760948181, -0.00768642220646143, -0.01225891150534153, 0.5788004398345947, 0.07174891978502274, -0.6952639222145081, 0.3652763068675995, 0.523158073425293, 0.5000168085098267, 0.4409501254558563, 0.09155407547950745, 0.03145027905702591, -0.06157786399126053, -0.7487516403198242, 0.5201712250709534, -0.5376458764076233, -0.21434569358825684, -0.08438030630350113, 0.5790037512779236, 0.2017844319343567, 0.12495537102222443, -0.3081645667552948, -0.0008910683100111783, 0.405216783285141, 0.08069425821304321, 0.430044025182724, -0.4061928689479828, 0.5538252592086792, -0.9347398281097412, -0.0849551111459732, -0.24259772896766663, 0.5051807165145874, 0.6793394088745117, 0.5441105961799622, 0.32468104362487793, 0.13535887002944946, -0.05899595096707344, 0.16022080183029175, 0.36305323243141174, 0.12386469542980194, 0.6812557578086853, -0.6369433999061584, 0.09208278357982635, 0.26464349031448364, -0.19125933945178986, 0.1428573876619339, -0.1485089659690857, 0.2945532500743866, -0.12401314079761505, 0.36039572954177856, -0.11790606379508972, 0.24952246248722076, -0.9415138959884644, 0.21189327538013458, 0.3721485733985901, -0.8067449927330017, -0.1809854805469513, -0.0889858603477478, 0.43405959010124207, -0.04550299420952797, -0.1259673684835434, 0.6207297444343567, 0.21489876508712769, 0.12729524075984955, 0.5112717747688293, 0.43432456254959106, 0.5133079290390015, 0.5424617528915405, 0.23113323748111725, 0.6868401169776917, 0.5999538898468018, -0.9500383734703064, 0.3808157444000244, 0.08475985378026962, 0.4634741544723511, 0.43657609820365906], [0.21504713594913483, -0.15823595225811005, -0.11402609944343567, -0.2712358832359314, -0.04665941372513771, 0.18222051858901978, -0.06446284800767899, -0.02277277410030365, -0.045320212841033936, 0.2585728168487549, -0.011776641942560673, 0.3233085870742798, 0.1905491054058075, -0.0986911728978157, 0.27198153734207153, 0.2852642238140106, 0.24923337996006012, 0.2467653751373291, 0.17012327909469604, 0.23193325102329254, 0.18524350225925446, 0.11787208169698715, -0.14317110180854797, 0.2653631865978241, -0.09524252265691757, -0.270759642124176, 0.17424418032169342, -0.23876185715198517, 0.24213822185993195, 0.22493711113929749, 0.08127208054065704, 0.2397352159023285, 0.2625100612640381, 0.2161940485239029, 0.025206154212355614, 0.26890820264816284, -0.11059348285198212, 0.09967659413814545, 0.2658635377883911, 0.1955948919057846, -0.14576706290245056, 0.19190098345279694, -0.15290620923042297, 0.1372293382883072, -0.08653421700000763, 0.17742034792900085, -0.23036175966262817, 0.3057880401611328, 0.35774439573287964, 0.23932068049907684, -0.152791365981102, 0.30882421135902405, -0.16095209121704102, -0.1085316464304924, -0.24092338979244232, 0.2741867005825043, 0.10916125774383545, -0.17446373403072357, 0.3572383224964142, 0.25744351744651794, 0.35982489585876465, 0.24957922101020813, 0.1221378892660141, 0.04063965752720833, -0.029419122263789177, -0.0849321261048317, 0.2633592188358307, -0.07074344903230667, 0.007594873197376728, -0.009713716804981232, 0.12259488552808762, 0.307978093624115, -0.22678492963314056, -0.06462588161230087, -0.167805016040802, 0.183231383562088, 0.19600355625152588, 0.2728632092475891, -0.07438478618860245, 0.3454912602901459, -0.2274128496646881, -0.025561010465025902, -0.06477821618318558, 0.3681006133556366, 0.2729980945587158, 0.19102409482002258, 0.2285599261522293, -0.08155964314937592, -0.0440552681684494, -0.08974674344062805, 0.03693275526165962, 0.13445451855659485, 0.10106280446052551, -0.21293354034423828, -0.23443639278411865, 0.29735851287841797, -0.09520584344863892, 0.24252448976039886, 0.12802091240882874, 0.199166402220726, -0.24916693568229675, 0.31365081667900085, 0.06304972618818283, -0.08953158557415009, -0.17482340335845947, 0.08036761730909348, 0.2021830976009369, -0.056929174810647964, -0.12785997986793518, 0.10992308706045151, 0.23913900554180145, -0.2638355791568756, -0.22158369421958923, 0.23083296418190002, 0.17356255650520325, 0.25504612922668457, 0.3631415069103241, 0.3211696445941925, 0.34665194153785706, 0.28998762369155884, 0.25399649143218994, 0.1106877326965332, 0.2776402235031128, -0.2576431334018707, 0.3444945216178894, 0.11441753059625626, 0.31122344732284546, 0.21877646446228027], [0.21357586979866028, -0.1621372550725937, -0.10027500241994858, -0.21115742623806, -0.06135398894548416, 0.24182088673114777, -0.06095953658223152, -0.06075676903128624, -0.0553404800593853, 0.19555412232875824, 0.08255024999380112, 0.21821029484272003, 0.1255260407924652, -0.06819359958171844, 0.1643713116645813, 0.23279888927936554, 0.16352424025535583, 0.21299484372138977, 0.22300375998020172, -0.03589674085378647, 0.17833484709262848, 0.17294709384441376, -0.030608581379055977, 0.1783241629600525, -0.09344519674777985, -0.14984406530857086, 0.04255178943276405, -0.15661798417568207, 0.1734452098608017, 0.048740267753601074, 0.1188710629940033, 0.19020746648311615, 0.20725394785404205, 0.07313172519207001, -0.06051862612366676, 0.32181066274642944, -0.12670950591564178, 0.15269500017166138, 0.2322883903980255, 0.08191026002168655, -0.0987304300069809, 0.10008122026920319, -0.11446092277765274, 0.1665472835302353, -0.0695279985666275, 0.14105822145938873, -0.12794378399848938, 0.1440878063440323, 0.22196874022483826, 0.3042672872543335, -0.05132582038640976, 0.07855986803770065, -0.13685493171215057, -0.08365648239850998, -0.09462466090917587, 0.16313894093036652, 0.15764905512332916, -0.1582687646150589, 0.2748228907585144, 0.19991205632686615, 0.2293662279844284, 0.18455369770526886, 0.06703706830739975, 0.0549270324409008, -0.03018866665661335, -0.13589517772197723, 0.10753537714481354, -0.14127449691295624, -0.03816566988825798, -0.04844384267926216, 0.06113101914525032, 0.2801268398761749, -0.15572798252105713, 0.0009512385004200041, -0.029877208173274994, 0.28746193647384644, 0.1504250019788742, 0.15296891331672668, -0.04356237128376961, 0.20649324357509613, -0.09021224826574326, -0.009275547228753567, 0.048661794513463974, 0.27621614933013916, 0.03707481548190117, -0.008733204565942287, 0.11666887253522873, -0.028475670143961906, -0.013033255934715271, -0.19311675429344177, 0.07249274104833603, 0.12085483223199844, 0.038301531225442886, -0.1801934838294983, -0.15660035610198975, 0.21231572329998016, -0.0802936777472496, 0.13908225297927856, 0.10132618248462677, 0.1933208405971527, -0.22854304313659668, 0.21047495305538177, -0.06701697409152985, -0.11182954162359238, -0.18896612524986267, 0.07397636771202087, 0.2396339476108551, -0.1154860109090805, -0.043034862726926804, 0.11993635445833206, 0.24090120196342468, -0.18771490454673767, -0.2594758868217468, 0.17151807248592377, 0.28529486060142517, 0.13320650160312653, 0.13429346680641174, 0.26484090089797974, 0.15643560886383057, 0.3131366968154907, 0.24137844145298004, 0.0018879964482039213, 0.09586543589830399, -0.15725378692150116, 0.3087385594844818, 0.22351683676242828, 0.24584145843982697, 0.08937328308820724], [0.1806640326976776, -0.04041385278105736, -0.07721145451068878, -0.18639200925827026, 0.08577395975589752, 0.10663233697414398, -0.13334700465202332, -0.11920507997274399, -0.13531902432441711, 0.11301708966493607, 0.009607748128473759, 0.09975959360599518, 0.1254374384880066, -0.14769425988197327, 0.11630656570196152, 0.05897107347846031, 0.07120813429355621, 0.1832452118396759, 0.18019652366638184, -0.00408114492893219, 0.20283660292625427, -0.0006816004170104861, -0.16132307052612305, 0.18147818744182587, -0.19243039190769196, -0.3450523018836975, 0.009085534140467644, -0.3504628837108612, -0.010176106356084347, 0.11086428910493851, 0.21123231947422028, 0.0698237419128418, 0.1031574234366417, 0.09433411061763763, -0.08904305845499039, 0.18179383873939514, -0.062094464898109436, 0.11802256852388382, 0.17434759438037872, 0.11964818090200424, -0.06084193289279938, 0.11390996724367142, -0.2774040997028351, 0.03180788829922676, -0.04975428432226181, -0.03650961443781853, -0.17998473346233368, 0.2325655072927475, 0.22933289408683777, 0.21898871660232544, -0.17023877799510956, 0.06214570254087448, -0.2191842645406723, -0.16966687142848969, -0.1747303158044815, -0.02995818667113781, 0.07875783741474152, -0.3519781231880188, 0.20418484508991241, 0.10390809178352356, 0.12479086220264435, 0.16901281476020813, 0.05318271368741989, -0.10565576702356339, 0.03737800195813179, -0.18751148879528046, 0.022694170475006104, -0.15748269855976105, -0.1656884104013443, -0.056282054632902145, 0.023138275370001793, 0.22312013804912567, -0.19407136738300323, -0.1316683441400528, -0.0993833988904953, 0.13739868998527527, 0.16041961312294006, 0.196330726146698, -0.021660998463630676, 0.14713072776794434, -0.29056215286254883, -0.0637214332818985, -0.0602833516895771, 0.1906227469444275, -0.015100193209946156, 0.09246811270713806, 0.13984829187393188, 0.06628355383872986, -0.06638503074645996, -0.17892499268054962, -0.006606756709516048, 0.1609538495540619, -0.03468509390950203, -0.25818467140197754, -0.299697607755661, 0.1068863645195961, -0.15540291368961334, 0.15532706677913666, -0.027630388736724854, 0.08590096235275269, -0.3796680271625519, 0.24033598601818085, -0.0723036527633667, -0.10713421553373337, -0.2067899852991104, 0.009245170280337334, 0.22475986182689667, -0.2813049256801605, -0.11956049501895905, -0.05550554394721985, 0.2005966454744339, -0.27603796124458313, -0.3076299726963043, 0.07374855130910873, 0.19393613934516907, 0.06053073704242706, 0.18035972118377686, 0.21062485873699188, 0.03944703936576843, 0.10298175364732742, 0.1467968374490738, 0.05903375893831253, 0.09854242950677872, -0.25747066736221313, 0.22332118451595306, 0.08047647029161453, 0.16368943452835083, 0.1418316513299942], [0.11616464704275131, -0.10183838754892349, -0.14274586737155914, -0.13698339462280273, 0.05244949832558632, 0.13906067609786987, -0.15680693089962006, -0.10317253321409225, -0.12882086634635925, 0.08950451761484146, -0.016564063727855682, 0.1894858330488205, 0.03287912905216217, -0.06067432835698128, 0.15083420276641846, 0.08885908871889114, -0.019762562587857246, 0.08634026348590851, 0.20155952870845795, -0.1021638810634613, 0.16070520877838135, 0.06191070005297661, 0.007147477939724922, 0.18657876551151276, -0.12345058470964432, -0.19448241591453552, 0.03722653165459633, -0.16907382011413574, 0.05216638371348381, -0.024170534685254097, 0.04805700108408928, 0.0524270124733448, 0.08513310551643372, 0.02417091280221939, -0.1598958820104599, 0.1988118290901184, -0.02485569380223751, 0.021238528192043304, 0.11362628638744354, 0.18890462815761566, -0.07969871163368225, 0.04698983207345009, -0.25418269634246826, -0.009529588744044304, -0.1359184831380844, -0.013020114041864872, -0.11732681095600128, 0.17975448071956635, 0.10491550713777542, 0.1325858235359192, -0.15034134685993195, 0.054701048880815506, -0.20902703702449799, -0.19653113186359406, -0.11816529929637909, 0.010403058491647243, 0.005887586623430252, -0.195670023560524, 0.22729991376399994, 0.09227976202964783, 0.07504118978977203, 0.22096605598926544, 0.09516897052526474, -0.05264601483941078, -0.11470293998718262, -0.1973249763250351, 0.0994877815246582, -0.14574037492275238, 0.020811263471841812, -0.04747356101870537, 0.05075171962380409, 0.12688159942626953, -0.08887188881635666, -0.07514269649982452, -0.04401179030537605, 0.06597310304641724, 0.030963756144046783, 0.09107612073421478, -0.09856460243463516, 0.12383207678794861, -0.24409587681293488, -0.10797973722219467, -0.0031191599555313587, 0.22160576283931732, -0.05786948651075363, -0.0051098233088850975, 0.10006129741668701, 0.010657110251486301, -0.13256531953811646, -0.13368570804595947, 0.004296670667827129, 0.1155393049120903, 0.0445701964199543, -0.17183923721313477, -0.20817793905735016, 0.04468680918216705, -0.036938995122909546, 0.08383271098136902, -0.016126364469528198, 0.13552194833755493, -0.16061389446258545, 0.11034794896841049, -0.09085375815629959, -0.04199627414345741, -0.11209375411272049, 0.08832421153783798, 0.2010400891304016, -0.11153455823659897, -0.1622387319803238, -0.08362112939357758, 0.1196134015917778, -0.19617480039596558, -0.21892330050468445, 0.16384097933769226, 0.06647789478302002, 0.12795642018318176, 0.02362607792019844, 0.0918416753411293, 0.10794441401958466, 0.18649862706661224, 0.1370692402124405, -0.013573885895311832, 0.00892876647412777, -0.20117127895355225, 0.12124443799257278, 0.10313475131988525, 0.16245853900909424, 0.00606087502092123], [-0.06125564128160477, -0.17289188504219055, 0.253633588552475, 0.42625153064727783, -0.5432218909263611, -0.18067289888858795, 0.30144625902175903, 0.25968730449676514, -0.9107052087783813, -0.06949601322412491, 0.10603931546211243, -0.2518266439437866, 0.03183944150805473, 0.28354284167289734, -0.09018831700086594, -0.016376858577132225, -0.29536232352256775, -0.23468603193759918, -0.12929166853427887, -0.25640517473220825, -0.05237192288041115, -0.2374155968427658, -0.582348644733429, -0.256119042634964, -1.0503509044647217, -0.6999247670173645, -0.11885187029838562, -0.7436240911483765, -0.18256314098834991, -0.242383673787117, -0.459102064371109, -0.01984519511461258, -0.2471911460161209, -0.23071464896202087, -0.7137137651443481, -0.11460471153259277, -0.879839301109314, 0.040728580206632614, -0.280124694108963, 0.019032035022974014, -0.09717297554016113, -0.048109203577041626, 0.36846575140953064, -0.13965173065662384, 0.11077804863452911, -0.03269851580262184, -0.8471843600273132, -0.16097958385944366, -0.14668086171150208, -0.25030967593193054, 0.26806777715682983, -0.3749462962150574, 0.309498131275177, -0.7620989680290222, -0.8538219332695007, -0.36619648337364197, -0.1754525899887085, 0.3899727761745453, -0.3185276687145233, -0.21922557055950165, -0.36125388741493225, -0.05632519721984863, -0.03730233758687973, 0.15451526641845703, -0.21960943937301636, 0.2258143573999405, -0.4599109888076782, 0.3198375701904297, 0.175101637840271, -0.00619880435988307, -0.006196256726980209, -0.28501930832862854, -0.7308767437934875, 0.3015892505645752, -0.6511437892913818, -0.10320117324590683, -0.12035969644784927, 0.023710597306489944, 0.26254308223724365, -0.18689581751823425, 0.43317127227783203, -0.3232629597187042, 0.1716439425945282, -0.2842007279396057, -0.055229391902685165, -0.3881060481071472, 0.029070906341075897, -0.5512849688529968, -0.4321240186691284, -0.9600306153297424, -0.728462815284729, -0.15668217837810516, -0.31652137637138367, 0.22786498069763184, -0.8347635269165039, 0.0500517338514328, 0.1532740294933319, -0.05325023829936981, 0.10536196827888489, -0.241207554936409, -0.605303168296814, -0.2937420904636383, 0.18413183093070984, -0.9579407572746277, 0.3795671761035919, -0.03706609457731247, -0.14784756302833557, 0.3360118567943573, 0.17539174854755402, 0.12906880676746368, -0.2931567132472992, -0.6738954782485962, -0.6120749711990356, -0.1447717398405075, -0.21627438068389893, 0.012622653506696224, -0.39806854724884033, -0.023395204916596413, -0.2798239290714264, -0.18998761475086212, -0.17696748673915863, -0.08246250450611115, -0.1933399736881256, 0.43102800846099854, -0.1790422797203064, -0.14252358675003052, -0.08729542046785355, -0.35073843598365784], [0.0656202957034111, 0.00559253990650177, -0.04697374254465103, -0.030940204858779907, -0.08226277679204941, 0.11011187732219696, -0.0678413137793541, -0.042794544249773026, -0.025227580219507217, -0.03126300871372223, -0.010397864505648613, -0.03452542796730995, -0.026027539744973183, 0.005606201011687517, 0.04854540154337883, 0.05029378458857536, -0.045026350766420364, 0.13218368589878082, 0.0323278084397316, -0.11545073240995407, 0.07385583221912384, 0.03417191281914711, -0.024122824892401695, 0.031720735132694244, 0.01405172049999237, -0.021173715591430664, -0.016078097745776176, -0.1559416949748993, 0.01201546285301447, -0.03769150376319885, -0.015500985085964203, -0.00840479601174593, -0.024592310190200806, -0.00978358369320631, -0.10113587230443954, -0.028859421610832214, -0.08768811076879501, 0.032446108758449554, 0.1397240161895752, 0.05157198756933212, -0.057491935789585114, 0.03331460803747177, -0.1297319531440735, 0.046598710119724274, 0.02312724106013775, -0.059623561799526215, -0.19285212457180023, 0.033478379249572754, 0.001892701955512166, 0.003737438004463911, -0.12706582248210907, 0.0673002153635025, -0.0890946313738823, -0.1318044513463974, -0.1745270937681198, -0.002297899452969432, 0.07486565411090851, -0.15990231931209564, 0.09427518397569656, -0.0033730610739439726, 0.08416865020990372, 0.05409857630729675, 0.05239943042397499, 0.008631282486021519, -0.01502016931772232, -0.15212862193584442, 0.05789687857031822, -0.055127620697021484, -0.03496088832616806, 0.009112156927585602, 0.0926196426153183, 0.1192900538444519, 0.0022275391966104507, -0.1395047903060913, -0.14414116740226746, 0.0910336822271347, -0.06411290913820267, 0.09681529551744461, 0.012490903958678246, 0.05725052207708359, -0.12373701483011246, -0.0009930965024977922, -0.01931600086390972, 0.03627878427505493, -0.028587788343429565, -0.09015786647796631, 0.08816634118556976, -0.0243919026106596, -0.0805005431175232, -0.10074815154075623, -0.012412049807608128, 0.10018274188041687, 0.025255339220166206, -0.1617051512002945, -0.020749874413013458, 0.010549438185989857, -0.030410993844270706, 0.007081964053213596, -0.12560129165649414, 0.021592359989881516, -0.05374680459499359, 0.07197687029838562, -0.10620684176683426, -0.04605215787887573, -0.13879777491092682, -0.03719549998641014, -0.02071755938231945, -0.06417012959718704, 0.009637612849473953, -0.06443049758672714, -0.04634751379489899, -0.0747758075594902, -0.1596180647611618, 0.09130004048347473, 0.05493701621890068, 0.03164323419332504, -0.0353807732462883, -0.012293375097215176, -0.012364502996206284, -0.0004082702216692269, 0.08677221834659576, -0.07605329155921936, -0.05928664281964302, -0.08634443581104279, 0.046538446098566055, -0.06533974409103394, 0.11978033930063248, 0.01635461114346981], [-0.0854904055595398, 0.06259172409772873, -0.09815632551908493, -0.13651533424854279, -0.05089038610458374, -0.04242710396647453, -0.12071359157562256, -0.15351194143295288, -0.10342749208211899, -0.05262431502342224, -0.024950359016656876, -0.05450478568673134, -0.07948490232229233, -0.05510803312063217, 0.030265813693404198, 0.04205235093832016, -0.14942768216133118, -0.06792383641004562, -0.10487447679042816, -0.007501290645450354, -0.03577607125043869, -0.022772569209337234, -0.041914958506822586, 0.0025225323624908924, -0.11435173451900482, -0.08400719612836838, 0.04054907336831093, 0.02194421924650669, -0.12855714559555054, -0.02654961496591568, -0.06286632269620895, -0.06315245479345322, -0.09302709996700287, -0.01905621960759163, -0.03360887989401817, -0.04114679992198944, -0.07590621709823608, -0.06610607355833054, -0.01555282436311245, -0.12793663144111633, -0.016205690801143646, -0.0830431878566742, -0.11495550721883774, -0.014740114100277424, -0.05179440230131149, -0.036671362817287445, -0.0698569193482399, 0.01336107961833477, -0.13793769478797913, -0.019341984763741493, -0.009865012019872665, -0.13762430846691132, -0.02685707062482834, -0.10817863792181015, -0.02621026150882244, -0.006140632554888725, -0.07616306841373444, -0.10532429814338684, -0.0218417439609766, 0.005155544728040695, 0.01844058558344841, -0.10460041463375092, 0.04297030344605446, -0.11622989922761917, -0.07555118203163147, -0.052536241710186005, -0.009147102013230324, -0.07937686890363693, -0.14783519506454468, -0.042960140854120255, -0.1418369561433792, -0.07750611752271652, -0.04947600141167641, -0.11493422091007233, -0.03862100467085838, -0.0007729141507297754, 0.03038640320301056, 0.03055611066520214, -0.11357321590185165, -0.06463483721017838, -0.03617198020219803, 0.02631448209285736, -0.03863446041941643, -0.04714849591255188, -0.047642096877098083, -0.08634879440069199, -0.09491448104381561, -0.03159492462873459, 0.042545467615127563, -0.06053655594587326, -0.038517072796821594, 0.003857389558106661, -0.15189102292060852, -0.1307060420513153, -0.11494078487157822, 0.03458750247955322, -0.05928937718272209, 0.018237758427858353, 0.057458389550447464, -0.07222039997577667, 0.016225773841142654, -0.022311333566904068, -0.0840827226638794, -0.08424261212348938, -0.007393662352114916, 0.014970647171139717, -0.12956303358078003, -0.043645311146974564, 0.027060342952609062, 0.061640117317438126, -0.03523002937436104, -0.1371772438287735, 0.023038500919938087, -0.13423000276088715, -0.10732796043157578, -0.1138673946261406, 0.006194579880684614, -0.09466171264648438, 0.018837211653590202, -0.1253068745136261, -0.01722116954624653, -0.11585486680269241, -0.12181251496076584, 0.008689637295901775, -0.018183693289756775, 0.07575536519289017, -0.07016834616661072, 0.00527481222525239], [0.011230874806642532, -0.1207362487912178, -0.06019928306341171, 0.008560249581933022, -0.04429425671696663, -0.019642740488052368, -0.10168857127428055, -0.018662896007299423, -0.09909269213676453, -0.07243867963552475, 0.052787791937589645, -0.06972210109233856, -0.08893579244613647, -0.06120297685265541, 0.033470269292593, 0.07158064097166061, -0.06955666840076447, 0.04999658092856407, 0.05079571530222893, -0.14744143187999725, 0.019500480964779854, -0.01049785502254963, -0.0545790009200573, 0.015580774284899235, -0.08355610817670822, -0.09180492907762527, -0.02599046565592289, -0.00883913692086935, 0.02572842873632908, -0.07202383875846863, -0.03742094337940216, -0.09722406417131424, 0.02807583101093769, 0.010981326922774315, -0.002180996350944042, 0.07645317167043686, -0.11290906369686127, -0.07662717252969742, -0.06899647414684296, 0.04874350130558014, 0.03256334736943245, -0.045474059879779816, -0.1228979155421257, -0.08412354439496994, -0.015287477523088455, -0.07512445747852325, -0.0017307139933109283, -0.05616170912981033, -0.08232211321592331, 0.006096368655562401, -0.0960395336151123, 0.04927375540137291, -0.126173734664917, 0.044313039630651474, -0.11982448399066925, -0.10674136132001877, 0.044853758066892624, -0.010745315812528133, 0.0799405574798584, 0.07370536029338837, -0.011495200917124748, -0.036863211542367935, -0.011023348197340965, -0.04702577739953995, 0.058886151760816574, -0.02880377136170864, -0.06471075117588043, -0.014617623761296272, -0.041361212730407715, -0.04742080718278885, -0.05299502983689308, 0.015094941481947899, -0.1017908900976181, -0.08314240723848343, -0.123862124979496, -0.06910440325737, 0.0018287270795553923, 0.0024635535664856434, -0.061908889561891556, 0.033551208674907684, -0.02990342490375042, -0.03615821152925491, 0.05151209607720375, -0.06718140840530396, -0.014201655983924866, -0.12174730002880096, 0.048609912395477295, 0.044640813022851944, 0.03842689096927643, -0.045911796391010284, -0.10745633393526077, 0.06588093191385269, -0.044518183916807175, -0.058989524841308594, -0.0380781926214695, -0.012205435894429684, -0.07824256271123886, -0.0541173554956913, -0.05654825642704964, 0.0708957314491272, 0.007370143663138151, 0.047246143221855164, -0.11558355391025543, 0.004210218787193298, -0.09469812363386154, -0.09588100761175156, 0.022350605577230453, -0.10142996162176132, -0.10275290906429291, -0.10821832716464996, -0.056237246841192245, -0.08381857722997665, 0.007850837893784046, -0.06109107658267021, -0.02995370887219906, -0.08778134733438492, -0.03655463829636574, 0.05059153959155083, -0.04532250389456749, 0.06091820076107979, 0.04988083988428116, -0.13179515302181244, 0.05461268126964569, -0.04724569618701935, -0.057050157338380814, -0.039803314954042435, -0.044778745621442795, 0.013353404588997364], [-0.18703104555606842, -0.4224575161933899, 0.0035824596416205168, 0.3732702434062958, -0.46666043996810913, -0.004401221871376038, 0.3551448881626129, 0.15162517130374908, -1.070211410522461, -0.19435574114322662, 0.3459656238555908, -0.12669438123703003, 0.17863453924655914, 0.24745777249336243, 0.1317800134420395, 0.15131153166294098, -0.339787095785141, -0.24965953826904297, -0.10128719359636307, -0.5790439248085022, 0.05425500124692917, -0.21286076307296753, -0.6695318222045898, -0.4041762351989746, -0.8884279131889343, -0.8326338529586792, 0.07705314457416534, -0.8115712404251099, -0.3090064525604248, -0.4473935067653656, -0.43366339802742004, 0.20864060521125793, -0.1504203826189041, -0.563625156879425, -0.9720593690872192, 0.021738918498158455, -0.9137315154075623, 0.2258959412574768, -0.17739075422286987, 0.14086966216564178, -0.312101274728775, 0.020944485440850258, 0.30315178632736206, -0.16139210760593414, 0.07654625922441483, 0.06709811836481094, -0.8813813924789429, -0.08779790252447128, -0.2422223687171936, -0.3060430884361267, 0.3219412863254547, -0.5152088403701782, 0.3180010914802551, -0.6911685466766357, -0.7379041314125061, -0.4232046604156494, -0.2297670692205429, 0.42342379689216614, -0.19634400308132172, -0.2538444995880127, -0.24517399072647095, -0.03923344612121582, 0.14541438221931458, 0.06596728414297104, -0.258978009223938, 0.3747508227825165, -0.661796510219574, 0.37322017550468445, 0.18480899930000305, 0.18730223178863525, -0.06722121685743332, -0.10947434604167938, -0.8479940891265869, 0.2359965592622757, -0.6404451727867126, 0.03350789099931717, 0.06141705438494682, 0.08773458003997803, 0.24418576061725616, -0.23032596707344055, 0.43562981486320496, -0.2922971546649933, 0.25513675808906555, -0.2482207715511322, -0.367544561624527, -0.7268347144126892, 0.05452177673578262, -0.5137181878089905, -0.5884680151939392, -0.9567309617996216, -0.8094435930252075, -0.07404401153326035, -0.41665056347846985, 0.2677559554576874, -0.9376066327095032, 0.16194604337215424, 0.2886231541633606, 0.16190095245838165, 0.2457410842180252, -0.14110583066940308, -0.6802659034729004, -0.24326792359352112, 0.23849661648273468, -0.9112797379493713, 0.2622426152229309, 0.2273024171590805, -0.021605167537927628, 0.34562647342681885, 0.20777682960033417, 0.28285691142082214, -0.4770476222038269, -0.796295702457428, -0.6276818513870239, -0.15794959664344788, -0.18796855211257935, 0.24769523739814758, -0.47696423530578613, -0.03108011931180954, -0.2990664839744568, -0.3017233908176422, 0.007663508877158165, -0.2668763995170593, -0.4235117733478546, 0.4859999120235443, 0.025996124371886253, 0.033204421401023865, -0.061508551239967346, -0.5674868226051331], [-0.004741229582577944, -0.1030505895614624, -0.08129580318927765, -0.07506576180458069, -0.058007579296827316, 0.06190963089466095, 0.036879763007164, 0.004945569206029177, 0.03838619589805603, 0.03059413656592369, -0.07899411767721176, 0.08183985948562622, -0.05147089436650276, -0.1162850558757782, 0.01516240369528532, -0.034784168004989624, 0.019177693873643875, -0.06618808209896088, 0.05596459284424782, -0.10388573259115219, -0.07798369228839874, -0.0719328373670578, 0.03666362911462784, -0.04015554487705231, 0.038299594074487686, -0.09498369693756104, -0.017021600157022476, 0.019204217940568924, 0.01315527968108654, -0.0449778288602829, -0.08304378390312195, 0.02879895456135273, 0.016013672575354576, 0.0058547272346913815, -0.06641903519630432, 0.007913576439023018, -0.0269829872995615, -0.10279802978038788, -0.076484814286232, 0.003298308467492461, -0.010942341759800911, -0.08340608328580856, -0.03490757942199707, -0.02231040969491005, 0.02627841755747795, -0.026860583573579788, -0.06247301027178764, -0.06579921394586563, -0.09204107522964478, 0.0013616287615150213, -0.09267819672822952, -0.11042972654104233, -0.03475649282336235, -0.11677529662847519, -0.12363484501838684, -0.021377069875597954, 0.03870439901947975, -0.12905801832675934, -0.05331465229392052, 0.06862960010766983, 0.043736398220062256, -0.05128907412290573, -0.08857613056898117, -0.10527525097131729, -0.06205041706562042, -0.010089595802128315, -0.08389221876859665, -0.09643684327602386, -0.10072354972362518, -0.00358240376226604, -0.09224618971347809, -0.08540476113557816, 0.022169213742017746, 0.01184520311653614, -0.09081198275089264, 0.0013826542999595404, -0.0006280362140387297, 0.016689414158463478, -0.06183566525578499, -0.036142442375421524, -0.07286449521780014, 0.05058105289936066, -0.023338327184319496, 0.0670209601521492, 0.007783985696732998, -0.020400093868374825, 0.013137022964656353, -0.08213500678539276, 0.01578366756439209, -0.05544966831803322, -0.021205401048064232, -0.08585524559020996, -0.10090726613998413, -0.09975100308656693, -0.04321783781051636, 0.013714185915887356, -0.04236166924238205, -0.09512224793434143, -0.06507605314254761, -0.014912859536707401, -0.03192669525742531, -0.06683997064828873, -0.0855024978518486, 0.053990744054317474, -0.06739559769630432, 0.04026660695672035, -0.059155844151973724, -0.02924196422100067, -0.06966742873191833, -0.04915820434689522, -0.054506685584783554, -0.0836125910282135, 0.034956954419612885, 0.014464166015386581, 0.05570286884903908, -0.11146051436662674, 0.056934554129838943, -0.05009247362613678, -0.03267640247941017, -0.01020340621471405, -0.00426282687112689, -0.12810523808002472, -0.04948313906788826, 0.0019132758025079966, -0.03527279943227768, 0.0661056712269783, -0.04676930978894234, 0.04960297420620918], [0.2765822410583496, -0.24081633985042572, -0.0682588741183281, -0.2242359220981598, -0.0670107826590538, 0.3310602903366089, -0.17259086668491364, -0.1227264255285263, -0.046192288398742676, 0.13433930277824402, 0.02572351135313511, 0.3597354292869568, 0.11973792314529419, -0.11576461791992188, 0.23305903375148773, 0.20390504598617554, 0.2793632447719574, 0.2548885643482208, 0.16495320200920105, 0.0216908510774374, 0.24992620944976807, 0.1316179484128952, -0.10118457674980164, 0.2677798569202423, -0.0685124322772026, -0.22140401601791382, 0.10955029726028442, -0.2245987057685852, 0.17263345420360565, 0.2551121711730957, 0.12046574801206589, 0.22202086448669434, 0.2223939448595047, 0.18422797322273254, -0.043227970600128174, 0.3375122845172882, -0.07857377082109451, 0.230612114071846, 0.26598286628723145, 0.21607056260108948, -0.17542296648025513, 0.1703716665506363, -0.11585407704114914, 0.11708904057741165, -0.14468178153038025, 0.14394494891166687, -0.18278448283672333, 0.38679927587509155, 0.3632936179637909, 0.28836482763290405, -0.1782107651233673, 0.09081021696329117, -0.01277182251214981, -0.2374572455883026, -0.15053878724575043, 0.16122601926326752, 0.024488305673003197, -0.17572471499443054, 0.24981658160686493, 0.25032588839530945, 0.2617475688457489, 0.28622522950172424, 0.14042654633522034, -0.058131635189056396, -0.17660924792289734, -0.14444054663181305, 0.12010391056537628, -0.08507335931062698, -0.16841238737106323, -0.06715568155050278, 0.28262197971343994, 0.2961346507072449, -0.13611489534378052, -0.17036493122577667, -0.06333266198635101, 0.39077046513557434, 0.24783122539520264, 0.3516586720943451, -0.04149458557367325, 0.3821413516998291, -0.269758015871048, -0.059579864144325256, -0.01582261361181736, 0.4017446041107178, 0.144775390625, -0.006177124567329884, 0.20060445368289948, -0.03134653717279434, -0.06416541337966919, -0.07996413111686707, 0.12213931977748871, 0.21824757754802704, 0.13955716788768768, -0.1875051110982895, -0.20688137412071228, 0.23558537662029266, -0.1571660041809082, 0.1668502390384674, -0.0035104257985949516, 0.27399158477783203, -0.2007986307144165, 0.37413522601127625, -0.05746200308203697, -0.1192161813378334, -0.177420511841774, 0.15007488429546356, 0.20634029805660248, -0.12114233523607254, -0.1169985979795456, 0.10158900171518326, 0.254976749420166, -0.16495002806186676, -0.29801076650619507, 0.36745235323905945, 0.25959858298301697, 0.3186967968940735, 0.24433480203151703, 0.3899064362049103, 0.28023573756217957, 0.39027294516563416, 0.10935938358306885, 0.20839950442314148, 0.25662997364997864, -0.13635899126529694, 0.2623489797115326, 0.20706239342689514, 0.38093698024749756, 0.21714237332344055], [0.06574296206235886, -0.05059008672833443, 0.0023210563231259584, -0.036187127232551575, -0.08140990138053894, -0.06458918005228043, -0.05125445872545242, 0.048546213656663895, -0.07728323340415955, -0.07484231144189835, -0.08452385663986206, 0.09494766592979431, -0.12235498428344727, -0.02479511871933937, -0.10483445227146149, 0.051147595047950745, 0.03045908734202385, 0.13594123721122742, -0.02972828596830368, 0.09391231834888458, -0.04572039842605591, -0.10695559531450272, -0.00437937630340457, 0.1280026137828827, -0.10034055262804031, -0.04165739193558693, -0.04443090409040451, -0.14747749269008636, 0.004201099276542664, -0.008499100804328918, 0.026329820975661278, -0.02303837053477764, -0.008663393557071686, 0.09624271094799042, -0.03167515993118286, 0.09379853308200836, -0.009700057096779346, -0.11920827627182007, 0.125538632273674, 0.0734863355755806, -0.15298889577388763, -0.05075153335928917, -0.05818961188197136, -0.026803694665431976, -0.10407101362943649, -0.008433450944721699, -0.1139969527721405, -0.04682736471295357, 0.07515504956245422, 0.04116229712963104, -0.058142319321632385, 0.12371031939983368, -0.04186791926622391, -0.045081768184900284, -0.0511338971555233, 0.12209180742502213, 0.008571956306695938, 0.018929069861769676, 0.03869829326868057, 0.043648310005664825, 0.00504755275323987, 0.0730709359049797, -0.09649604558944702, -0.03648096323013306, -0.08966757357120514, -0.08076497912406921, 0.00803410541266203, -0.14094039797782898, 0.048742495477199554, -0.09449750930070877, 0.10967514663934708, 0.08772967755794525, -0.05544249340891838, -0.018702488392591476, -0.1072077676653862, 0.041339702904224396, -0.12513241171836853, 0.0969771295785904, -0.09889914840459824, 0.02097577229142189, -0.06581087410449982, -0.03888674080371857, -0.03452812135219574, 0.11489758640527725, 0.02883981168270111, -0.013548918068408966, 0.032867033034563065, -0.06560079753398895, -0.09969498217105865, -0.004620392806828022, 0.030423350632190704, -0.03849762678146362, 0.060664307326078415, -0.0037955790758132935, -0.07502904534339905, 0.07027570903301239, -0.12137526273727417, -0.06250503659248352, -0.06580966711044312, 0.11396996676921844, -0.07043395191431046, -0.02760913036763668, -0.03741827234625816, 0.037567030638456345, -0.12868791818618774, -0.010871125385165215, 0.034100599586963654, -0.0008057320956140757, -0.1378936916589737, -0.12139865756034851, -0.052296269685029984, -0.039621081203222275, -0.022638846188783646, 0.08019775152206421, 0.07468501478433609, 0.026215234771370888, 0.036452677100896835, 0.08307749778032303, -0.015649328008294106, 0.07358746975660324, 0.047049690037965775, -0.008059940300881863, -0.0008478651288896799, -0.011654997244477272, 0.05503363907337189, -0.07829301059246063, 0.09036757051944733, 0.050775375217199326], [0.19594429433345795, -0.2649489641189575, -0.04586447775363922, -0.40910133719444275, -0.15575149655342102, -0.044737014919519424, -0.2515808641910553, -0.23949839174747467, 0.14489975571632385, 0.3230026960372925, -0.19776499271392822, -0.03737090900540352, -0.2098856419324875, -0.12594132125377655, -0.2216852307319641, -0.26322266459465027, 0.3189525306224823, 0.022230546921491623, -0.069656141102314, 0.45331278443336487, -0.23737496137619019, -0.19573979079723358, 0.013457234017550945, 0.38278642296791077, 0.08268195390701294, 0.08383866399526596, -0.3502624034881592, 0.036716606467962265, 0.34521907567977905, 0.41126999258995056, -0.12286342680454254, -0.18265856802463531, -0.0069391122087836266, 0.4343856871128082, 0.1891588717699051, -0.07304049283266068, 0.06834810972213745, -0.31534796953201294, 0.27336475253105164, -0.04142196103930473, -0.340873122215271, -0.15600359439849854, -0.46098917722702026, -0.07850104570388794, 0.12117128074169159, -0.24760907888412476, 0.15553942322731018, -0.001509766443632543, 0.08978933840990067, 0.09506513923406601, -0.3944329619407654, 0.3764650523662567, -0.3702145516872406, -0.04234584420919418, 0.08793417364358902, 0.42906245589256287, -0.08350109308958054, -0.4287121593952179, -0.0750807449221611, 0.17139388620853424, 0.21303719282150269, 0.04926076903939247, -0.2575324773788452, -0.04154480621218681, -0.313955694437027, -0.3461422324180603, 0.40283867716789246, -0.33514922857284546, -0.16860441863536835, -0.3837975263595581, 0.26732972264289856, -0.04983493685722351, -0.039833441376686096, -0.3287769556045532, -9.724503615871072e-05, 0.012440061196684837, -0.18877284228801727, -0.1339457631111145, -0.4190891981124878, 0.2116108238697052, -0.33403661847114563, -0.22579121589660645, -0.3165232539176941, 0.2206350713968277, 0.4531570374965668, 0.375752717256546, -0.15430083870887756, -0.042383693158626556, -0.21004174649715424, 0.10622498393058777, 0.2539100646972656, -0.2175997942686081, 0.5780116319656372, -0.3160981833934784, 0.05110134184360504, -0.08017130941152573, -0.10070420056581497, -0.24681217968463898, -0.4576883614063263, -0.03551000729203224, -0.09068936109542847, 0.05280490219593048, -0.1325763314962387, 0.22372658550739288, -0.307192862033844, -0.25630325078964233, -0.021341292187571526, -0.21981720626354218, -0.5398324728012085, -0.39792466163635254, 0.32930681109428406, -0.05468081682920456, 0.03630097955465317, 0.25242161750793457, -0.07864444702863693, -0.14319463074207306, 0.2920723557472229, 0.012443607673048973, 0.3087334632873535, 0.3063143789768219, -0.11082202196121216, 0.3304668366909027, 0.44307056069374084, -0.34422504901885986, 0.042047034949064255, -0.2931036055088043, 0.18706712126731873, 0.36298105120658875], [0.16223493218421936, -0.1870524287223816, -0.13558056950569153, -0.17177912592887878, -0.06536637246608734, 0.08044695854187012, -0.11171717196702957, -0.17016372084617615, -0.07546374201774597, 0.13962377607822418, 0.008557090535759926, 0.07593492418527603, -0.0010605468414723873, -0.03125357627868652, 0.13084040582180023, 0.14091189205646515, 0.14973366260528564, 0.04451907426118851, 0.14754892885684967, 0.028372924774885178, 0.12298685312271118, 0.05735436826944351, 0.003045064862817526, 0.18729168176651, -0.10059616714715958, -0.08285126835107803, 0.03943150117993355, -0.10654836148023605, 0.15843480825424194, 0.02991155907511711, -0.002165445825085044, 0.12082193046808243, 0.18699510395526886, 0.06329811364412308, -0.0011690937681123614, 0.1108400970697403, 0.027755098417401314, -0.07423079013824463, 0.19954989850521088, 0.12665772438049316, -0.15125146508216858, 0.06848690658807755, -0.19422703981399536, -0.02143908478319645, -0.12840089201927185, 0.04015742614865303, -0.20990271866321564, 0.163968026638031, 0.20116260647773743, 0.1243070736527443, -0.17734314501285553, 0.14536161720752716, -0.046063728630542755, -0.023395875468850136, -0.18885022401809692, 0.016024533659219742, 0.09361013770103455, -0.23912949860095978, 0.17606480419635773, 0.13900741934776306, 0.05631331354379654, 0.0730338990688324, -0.05385412275791168, -0.00026893988251686096, -0.1438131183385849, -0.21785415709018707, 0.10864203423261642, -0.18857666850090027, -0.0275339987128973, -0.018315376713871956, 0.12859073281288147, 0.08125005662441254, -0.11288349330425262, -0.16451705992221832, -0.13262905180454254, 0.13289819657802582, -0.023851364850997925, 0.07979476451873779, -0.09207426756620407, 0.13307508826255798, -0.1577702760696411, -0.0005114298546686769, -0.04854245111346245, 0.07036679238080978, 0.0375051312148571, -0.015819232910871506, 0.054767340421676636, -0.013013659976422787, -0.07451897859573364, -0.16338501870632172, 0.09640852361917496, -0.021795744076371193, 0.07219298183917999, -0.09060095250606537, -0.13134406507015228, 0.058987949043512344, -0.003386843716725707, 0.039062146097421646, -0.13606922328472137, 0.08918915688991547, -0.13491518795490265, 0.15835347771644592, -0.07288744300603867, 0.06996114552021027, -0.0880405604839325, -0.019946979358792305, 0.12045912444591522, -0.16215187311172485, -0.1329340636730194, 0.0018553049303591251, 0.13860750198364258, -0.18707026541233063, -0.22568492591381073, 0.039973318576812744, 0.11961924284696579, -0.020502731204032898, 0.07503169029951096, 0.04229170083999634, 0.19853241741657257, 0.1276184320449829, -0.029802054166793823, -0.0032135299406945705, 0.10638753324747086, -0.195032000541687, 0.17390760779380798, 0.008671512827277184, 0.16281184554100037, 0.14854663610458374], [0.0007230652845464647, 0.4346262216567993, -0.24602532386779785, -0.05525987222790718, 0.17768512666225433, 0.29372239112854004, 0.06724320352077484, 0.02549910731613636, 0.007297839038074017, -0.20795205235481262, 0.08324694633483887, 0.19930464029312134, 0.4607536792755127, -0.0454917810857296, 0.3127814531326294, 0.3433156907558441, -0.2916191816329956, 0.1068243533372879, 0.2847718298435211, -0.3531084358692169, 0.4215305745601654, 0.3418046236038208, 0.19648967683315277, -0.06143579259514809, 0.17327848076820374, 0.12573419511318207, 0.3403262197971344, 0.11939492076635361, -0.2310263216495514, -0.2824177145957947, 0.24956579506397247, 0.3825336694717407, 0.18445105850696564, -0.2341148406267166, -0.12315964698791504, 0.25118130445480347, -0.02791275642812252, 0.3252095580101013, -0.011921117082238197, 0.05765842646360397, 0.47322118282318115, 0.20138952136039734, 0.014323859475553036, 0.34889137744903564, -0.2351669818162918, 0.4027213156223297, 0.14858649671077728, 0.0763225331902504, 0.04606199264526367, 0.18156759440898895, 0.13341304659843445, -0.1345217227935791, 0.13914045691490173, 0.13771706819534302, 0.11543533205986023, -0.18960651755332947, 0.35653361678123474, -0.052369289100170135, 0.18803681433200836, -0.12858843803405762, 0.03126117214560509, 0.0982394888997078, 0.39124396443367004, 0.028990082442760468, 0.33751532435417175, 0.1106124296784401, -0.14842325448989868, 0.07856979221105576, 0.0390549972653389, 0.5424497723579407, -0.1301727145910263, 0.30366796255111694, 0.16818785667419434, 0.006587089970707893, 0.12054178863763809, 0.20402231812477112, 0.4170725345611572, 0.24835102260112762, 0.021737275645136833, -0.04292496293783188, -0.07481328397989273, 0.4156128466129303, 0.1089819148182869, -0.11446700245141983, -0.2895053029060364, -0.2503885328769684, 0.21448634564876556, 0.26062533259391785, 0.3228456676006317, 0.03319665417075157, -0.054426372051239014, 0.38391178846359253, -0.4155898094177246, 0.05729019269347191, 0.1307094246149063, 0.15238335728645325, -0.035742152482271194, 0.31886258721351624, 0.5764191746711731, 0.28747227787971497, 0.2255067527294159, -0.014219490811228752, -0.03378574922680855, 0.02914777398109436, 0.012720064260065556, 0.21895387768745422, 0.22012533247470856, -0.07085034251213074, 0.5942610502243042, 0.46264567971229553, -0.14724215865135193, 0.22225630283355713, 0.20468206703662872, -0.1496870219707489, 0.33738431334495544, 0.11554314196109772, -0.12868338823318481, 0.12592510879039764, -0.14381740987300873, -0.07784175127744675, 0.42773371934890747, -0.41048717498779297, -0.26143214106559753, -0.02156633511185646, 0.04545818641781807, 0.40206319093704224, 0.026340443640947342, -0.1557105928659439], [0.2816615402698517, 0.012450401671230793, -0.006305190734565258, -0.22367404401302338, -0.0695418193936348, 0.29191312193870544, -0.1645294725894928, 0.025556687265634537, -0.07441344857215881, 0.12586994469165802, 0.1549219936132431, 0.3037988245487213, 0.22861196100711823, -0.12823297083377838, 0.2587971091270447, 0.21036824584007263, 0.039658110588788986, 0.26939839124679565, 0.18289516866207123, -0.06593736261129379, 0.2037205994129181, 0.08934378623962402, -0.14917953312397003, 0.23238995671272278, -0.21430987119674683, -0.16013415157794952, 0.12371338903903961, -0.2505292594432831, 0.06346003711223602, 0.10182666033506393, 0.07475914806127548, 0.22450587153434753, 0.2758779227733612, -0.029565272852778435, -0.21076343953609467, 0.25279292464256287, -0.02177327312529087, 0.22307121753692627, 0.30884212255477905, 0.10260918736457825, -0.01001497358083725, 0.20580840110778809, -0.11165779083967209, 0.15237750113010406, -0.12387507408857346, 0.1412171572446823, -0.13885068893432617, 0.24033088982105255, 0.3214642107486725, 0.3171018958091736, -0.06200336292386055, 0.12760306894779205, -0.08896178007125854, -0.14748643338680267, -0.10040808469057083, 0.09603246301412582, 0.09241928905248642, -0.20183072984218597, 0.2744922935962677, 0.21374639868736267, 0.22339500486850739, 0.2534385621547699, 0.18113647401332855, 0.08334658294916153, 0.01206082571297884, -0.003847277257591486, 0.037448953837156296, -0.08371909707784653, -0.09411650151014328, 0.014200985431671143, 0.18901480734348297, 0.32455840706825256, -0.07455246895551682, 0.0003489227674435824, -0.0849875956773758, 0.2905578315258026, 0.2238302379846573, 0.246881365776062, -0.047149963676929474, 0.15247899293899536, -0.23195387423038483, -0.06225373595952988, 0.05104856565594673, 0.182389497756958, 0.1184007078409195, 0.05247147008776665, 0.19482006132602692, 0.010681030340492725, -0.06232970207929611, -0.21180668473243713, -0.03995119407773018, 0.18487422168254852, 0.03117341920733452, -0.07540610432624817, -0.10214350372552872, 0.31030333042144775, -0.10740238428115845, 0.21037299931049347, 0.08917330205440521, 0.3299599587917328, -0.24035224318504333, 0.2117260992527008, 0.09631477296352386, -0.15411785244941711, -0.06626154482364655, 0.25856685638427734, 0.32908856868743896, -0.12851670384407043, -0.014593817293643951, 0.1477627158164978, 0.10662665963172913, -0.23759245872497559, -0.14040875434875488, 0.09552931785583496, 0.18732649087905884, 0.27107471227645874, 0.15881042182445526, 0.27669015526771545, 0.2331460416316986, 0.24443651735782623, 0.26660510897636414, -0.012602352537214756, 0.1491180807352066, -0.16266725957393646, 0.23083771765232086, 0.23411612212657928, 0.1616596281528473, 0.06954255700111389], [-0.07673273235559464, 0.026539187878370285, -0.0886913314461708, -0.02744673192501068, -0.031068777665495872, -0.08852385729551315, -0.08451535552740097, -0.12883904576301575, -0.05938371643424034, 0.031236272305250168, -0.0583588182926178, -0.05481526628136635, -0.08661752194166183, -0.09283043444156647, 0.021817034110426903, -0.0574859119951725, -0.0653335452079773, -0.04470948502421379, -0.04573073238134384, -0.08431019634008408, 0.026886848732829094, -0.06676873564720154, -0.0932881087064743, -0.017745008692145348, 0.028055090457201004, -0.030641179531812668, -0.04318514093756676, -0.1276751607656479, -0.09577285498380661, 0.011221382766962051, -0.018258415162563324, -0.00124957668595016, -0.06894521415233612, -0.04331101477146149, -0.09630688279867172, 0.037030939012765884, -0.016925740987062454, 0.053224414587020874, 0.07036696374416351, 0.00018867460312321782, -0.08799107372760773, 0.031092485412955284, -0.028090303763747215, 0.03243861347436905, 0.011008864268660545, -0.02565024606883526, -0.03835500776767731, -0.03719346225261688, 0.05875304713845253, -0.014804085716605186, -0.0007670045597478747, -0.044753000140190125, -0.13176944851875305, 0.059345316141843796, -0.09938135743141174, -0.09403069317340851, -0.03365718573331833, -0.08390263468027115, -0.036028336733579636, 0.06004839763045311, -0.026864515617489815, -0.05047893524169922, 0.020686529576778412, -0.11501941829919815, -0.04276284947991371, -0.03467680513858795, -0.09332413226366043, -0.02228197269141674, 0.019202379509806633, -0.027281103655695915, -0.03987563028931618, -0.032531917095184326, 0.012280686758458614, -0.038805291056632996, -0.07827451080083847, -0.09727003425359726, -0.027299005538225174, -0.011865640059113503, 0.028471792116761208, -0.011460263282060623, 0.028410539031028748, -0.05897124856710434, -0.042680419981479645, 0.06358949095010757, -0.05526745319366455, -0.06361889094114304, -0.08217055350542068, 0.04303323104977608, 0.003349191276356578, -0.04594077169895172, -0.06924278289079666, 0.028655631467700005, -0.018195541575551033, -0.029271826148033142, -0.016691233962774277, -0.10451407730579376, 0.0016362109454348683, 0.029467748478055, -0.08656339347362518, -0.025756746530532837, -0.0734553262591362, -0.057262346148490906, -0.04326340928673744, -0.1152973547577858, -0.10494305193424225, -0.08427047729492188, 0.0035966336727142334, 0.012532257474958897, 0.010934938676655293, -0.11342797428369522, 0.017284439876675606, -0.025436602532863617, -0.08618750423192978, 0.0019557038322091103, 0.02908066101372242, -0.08582302182912827, 0.005018638912588358, -0.010823956690728664, 0.005230640061199665, 0.021932436153292656, -0.04406706243753433, -0.09993712604045868, -0.028296111151576042, -0.06197603419423103, 0.007161564659327269, -0.06332433223724365, 0.05403536185622215, -0.05805651471018791], [-0.03390873596072197, -0.20923252403736115, -0.14121602475643158, -0.04477032646536827, -0.11653624475002289, -0.04176944121718407, 0.011310067027807236, -0.025177620351314545, 0.06719930469989777, -0.10993605107069016, -0.0641837939620018, 0.031174371019005775, -0.11842276155948639, 0.05041733384132385, -0.03655213490128517, -0.047732044011354446, 0.007246654015034437, 0.06932518631219864, 0.020071551203727722, -0.04881902039051056, -0.1472495198249817, 0.00665381969884038, -0.10533127188682556, -0.07035548985004425, -0.079999640583992, -0.00936906598508358, -0.11750044673681259, -0.04242103174328804, -0.038710661232471466, 0.04833866283297539, -0.0693051740527153, -0.04766213148832321, -0.07593624293804169, -0.07901771366596222, 0.038860056549310684, -0.01884196139872074, -0.010739258490502834, -0.1633186936378479, 0.020294733345508575, 0.09748264402151108, -0.22562968730926514, -0.07469091564416885, -0.08459330350160599, -0.05462808161973953, -0.1140713170170784, -0.09171445667743683, -0.03374183550477028, 0.07665595412254333, -0.07051154226064682, -0.032552238553762436, -0.026124190539121628, -0.057338908314704895, 0.0033187672961503267, -0.10814981907606125, 0.0266799908131361, 0.02225741185247898, -0.12340429425239563, 0.009329724125564098, 0.017207607626914978, 0.018039468675851822, -0.02181016467511654, 0.03582630679011345, -0.10095279663801193, -0.04722411930561066, -0.11739238351583481, -0.024095997214317322, -0.09337420016527176, -0.01869707554578781, 0.03558211773633957, -0.2555125951766968, -0.011175915598869324, 0.02509959042072296, 0.03716961294412613, -0.055944543331861496, 0.012834645807743073, 0.004445149563252926, -0.08914800733327866, -0.0016032732091844082, 0.021489759907126427, -0.02553960680961609, -0.005091408267617226, -0.03361580893397331, 0.019134102389216423, 0.04110237956047058, -0.0390520840883255, -0.07651709765195847, -0.046098753809928894, -0.08308736234903336, -0.07163729518651962, -0.030593320727348328, -0.027269966900348663, -0.030217815190553665, -0.07002423703670502, -0.059597697108983994, 0.02506021223962307, -0.04387211427092552, -0.10026001185178757, -0.16402770578861237, -0.09486489742994308, 0.019065294414758682, -0.10739671438932419, 0.06496048718690872, 0.07061947882175446, -0.03398584946990013, -0.11308315396308899, -0.14031639695167542, -0.09066250175237656, -0.11315665394067764, -0.2500520944595337, -0.05111587047576904, -0.048082102090120316, 0.021311180666089058, -0.10382559895515442, -0.038592807948589325, -0.07335513085126877, 0.02304041013121605, -0.01004883088171482, -0.024714607745409012, -0.03913956508040428, 0.05230822414159775, -0.12147846817970276, 0.02888607792556286, -0.0603206604719162, -0.022136546671390533, 0.03658020868897438, -0.07241201400756836, 0.08226583898067474, 0.0400073304772377], [0.09216049313545227, 0.04147326946258545, -0.07334095239639282, -0.17145825922489166, 0.01989177241921425, 0.038016751408576965, -0.15075726807117462, -0.1581437736749649, -0.08507093787193298, 0.042077187448740005, 0.033815134316682816, 0.09747142344713211, -0.026619672775268555, -0.051707569509744644, 0.003550189081579447, 0.060019753873348236, 0.09230361878871918, 0.15507540106773376, 0.09895496815443039, -0.1422576755285263, 0.08039933443069458, 0.001538850017823279, 0.021237002685666084, 0.07611868530511856, -0.0913798063993454, -0.1869916468858719, -0.04932912811636925, -0.11809410154819489, 0.026168109849095345, 0.03666676580905914, 0.09391741454601288, 0.06990793347358704, 0.036492735147476196, -0.03672066703438759, -0.08360996097326279, 0.15760473906993866, -0.05744171142578125, 0.03555111959576607, -0.0036545484326779842, 0.15366239845752716, -0.11621476709842682, 0.01592336967587471, -0.20390981435775757, 0.10223527997732162, -0.0030675011221319437, 0.021149829030036926, -0.13335135579109192, 0.04966514930129051, 0.11712407320737839, 0.02314969152212143, -0.12176179885864258, -0.0038908538408577442, -0.07139811664819717, 0.006008721422404051, -0.14354552328586578, -0.05967489257454872, 0.10982751101255417, -0.15024244785308838, 0.1277112364768982, 0.1519211083650589, 0.04568789526820183, 0.00591287761926651, 0.05752609297633171, 0.008187885396182537, -0.07992708683013916, -0.16792355477809906, 0.026726853102445602, -0.09708792716264725, -0.07268204540014267, 0.016109885647892952, -0.001560233999043703, 0.060284167528152466, -0.010334376245737076, -0.08663250505924225, -0.13568130135536194, 0.09309197217226028, 0.0007428016979247332, 0.08069212734699249, -0.043038103729486465, 0.08887438476085663, -0.10878986120223999, -0.07525718212127686, -0.06338689476251602, 0.10865812748670578, 0.050256431102752686, -0.008701689541339874, 0.09317252039909363, 0.07326284050941467, -0.027007779106497765, -0.1774211972951889, -0.006576595362275839, 0.01496853306889534, -0.10975787043571472, -0.12918494641780853, -0.16541942954063416, 0.009002708829939365, -0.06756997853517532, 0.06391124427318573, -0.0654032900929451, 0.027052508667111397, -0.20974484086036682, 0.0670330747961998, -0.019979001954197884, -0.010474310256540775, -0.17451001703739166, -0.006217486225068569, 0.0663064569234848, -0.17086921632289886, 0.036567188799381256, 0.006248209625482559, 0.016278326511383057, -0.16951166093349457, -0.062283195555210114, 0.13291633129119873, -0.0010100678773596883, 0.09073847532272339, 0.07426546514034271, 0.12834683060646057, 0.029486963525414467, 0.10310668498277664, 0.03947178274393082, 0.00834727194160223, 0.010927824303507805, -0.21714936196804047, 0.14777368307113647, 0.025877680629491806, 0.009353311732411385, -0.041718143969774246], [-0.014027794823050499, -0.03241707384586334, -0.10959605872631073, -0.021555675193667412, 0.0032187390606850386, 0.011122570373117924, -0.11819911003112793, -0.06665069609880447, -0.013737715780735016, 0.007214323151856661, -0.11401919275522232, -0.12133438140153885, -0.0022281173150986433, -0.09247200936079025, -0.0016809359658509493, 0.012084847316145897, -0.022469433024525642, -0.10360274463891983, 0.0004225419252179563, -0.05628417059779167, -0.005045223981142044, -0.0982116088271141, -0.023857356980443, -0.10660241544246674, -0.09795479476451874, -0.08092868328094482, -0.09280869364738464, -0.057391583919525146, 0.01890438236296177, -0.07287676632404327, -0.06713677197694778, 0.02604091726243496, -0.13393621146678925, -0.07870019972324371, -0.04352631792426109, -0.049751948565244675, -0.08292563259601593, -0.05660366639494896, -0.10413868725299835, -0.04285479336977005, -0.03740677982568741, -0.1372353434562683, 0.016773834824562073, 0.028418343514204025, -0.108760766685009, -0.037045396864414215, 0.03435005620121956, -0.10863494873046875, 0.021911324933171272, -0.06889878213405609, 0.021413132548332214, -0.10585470497608185, 0.0005474009667523205, -0.026770157739520073, -0.07529867440462112, -0.060868825763463974, -0.019891580566763878, -0.11504895985126495, -0.12329111993312836, -0.13455000519752502, 0.003947894088923931, -0.12294287234544754, -0.12673820555210114, -0.017935076728463173, -0.06753455847501755, -0.09426616877317429, -0.051305413246154785, -0.025816448032855988, 0.03622134402394295, 0.02315201237797737, -0.12482880055904388, -0.02491573803126812, -0.10698168724775314, 0.010402575135231018, -0.048279255628585815, -0.11434757709503174, -0.06416983902454376, -0.08959279209375381, -0.05096952244639397, -0.030597178265452385, -0.021657025441527367, -0.12038590013980865, -0.04357327148318291, -0.1259324848651886, -0.050711117684841156, -0.08692508190870285, -0.11090706288814545, -0.12654758989810944, -0.0906989723443985, -0.0705387070775032, -0.024753190577030182, -0.0048701101914048195, -0.04344222694635391, -0.03974061831831932, 0.02571861818432808, -0.04445585608482361, -0.12053275853395462, -0.09633840620517731, -0.1011911928653717, 0.027186980471014977, -0.007630410138517618, 0.02390361949801445, 0.0014510788023471832, -0.06523627787828445, -0.012596008367836475, -0.042962294071912766, -0.012769145891070366, -0.04432635009288788, 0.02022990584373474, -0.04443266615271568, -0.12369195371866226, 0.005267440341413021, 0.00042762383236549795, -0.08587010949850082, -0.00800240132957697, 0.020873937755823135, -0.08971960842609406, -0.11084707081317902, -0.08320458233356476, -0.047108013182878494, -0.010384824126958847, 0.026044173166155815, 0.028925718739628792, -0.09117217361927032, -0.07188169658184052, -0.11834599822759628, -0.0900593027472496, -0.1255989968776703], [0.14039704203605652, -0.06686118990182877, -0.07705973088741302, -0.03430350124835968, 0.013190596364438534, 0.06426293402910233, 0.027754928916692734, -0.08175733685493469, -0.06725355237722397, 0.055524904280900955, -0.11959522217512131, 0.11797817796468735, -0.0875246524810791, -0.07084043323993683, 0.10111243277788162, -0.032769668847322464, -0.05466334521770477, 0.04340643435716629, -0.011713079176843166, -0.10776276886463165, -0.07463334500789642, -0.08323505520820618, -0.04027574881911278, 0.12656576931476593, -0.07544872909784317, -0.05961320921778679, -0.07477471977472305, -0.13910837471485138, 0.006003278307616711, -0.0031964685767889023, 0.01855061575770378, 0.08986549824476242, 0.052983321249485016, -0.07567965984344482, -0.08032183349132538, 0.12086813896894455, -0.05954217165708542, 0.04276888445019722, 0.08684609830379486, -0.02397412247955799, -0.12276352941989899, -0.055805303156375885, -0.15299929678440094, 0.06947842240333557, -0.12104007601737976, 0.01258532702922821, -0.1764586716890335, 0.01821497455239296, 0.016128506511449814, 0.14244486391544342, -0.07022270560264587, 0.01671423204243183, 0.005846567917615175, -0.03491302579641342, -0.0040396228432655334, -0.020356902852654457, -0.006086568348109722, -0.02928287535905838, 0.004529118537902832, 0.035811904817819595, 0.1303231418132782, 0.07919075340032578, 0.023343641310930252, 0.04367491230368614, -0.019173484295606613, -0.03582900017499924, 0.05796830728650093, -0.005796085577458143, 0.04411248490214348, -0.08396431058645248, 0.08653174340724945, 0.046550631523132324, -0.047690995037555695, -0.04651673883199692, 0.006984296254813671, 0.07817843556404114, 0.0750868022441864, -0.005184518173336983, 0.011967197060585022, 0.056445375084877014, -0.038387492299079895, -0.10761949419975281, -0.03695320338010788, 0.055638596415519714, -0.05035311356186867, -0.08931486308574677, 0.09212768822908401, -0.08663880079984665, -0.054306160658597946, 0.019352341070771217, -0.08555952459573746, 0.08031976222991943, -0.057686299085617065, -0.10180462151765823, -0.09079950302839279, -0.04386378824710846, -0.0761958435177803, -0.0377163290977478, -0.05868702754378319, 0.018288353458046913, -0.10510315001010895, 0.10740026086568832, 0.01127330120652914, 0.025375915691256523, -0.1563301980495453, -0.01954691670835018, 0.05431341007351875, -0.1236131340265274, -0.13035912811756134, 0.009061832912266254, -0.04433581978082657, -0.14958634972572327, -0.02654629945755005, -0.01132366992533207, 0.04003546014428139, -0.05036468803882599, -0.015025060623884201, 0.10291840136051178, 0.12635891139507294, 0.13524463772773743, -0.06651540845632553, -0.04049244895577431, -0.06213640421628952, -0.014605503529310226, 0.004176043905317783, -0.02383081428706646, 0.012643730267882347, 0.005208633374422789], [0.3413608968257904, -0.09032261371612549, 0.02728569693863392, -0.2368738353252411, -0.07866813987493515, 0.2331848442554474, -0.04585709422826767, -0.0022859801538288593, -0.09323830902576447, 0.16148217022418976, 0.12617884576320648, 0.2820552885532379, 0.25430288910865784, -0.14211462438106537, 0.28077152371406555, 0.1659882515668869, 0.043284185230731964, 0.19271694123744965, 0.28217387199401855, -0.06826984137296677, 0.24224445223808289, 0.13031212985515594, 0.0047899819910526276, 0.07781311124563217, -0.16219165921211243, -0.07425868511199951, 0.1616840362548828, -0.16124331951141357, 0.08959217369556427, 0.1546240746974945, 0.09696272015571594, 0.24036546051502228, 0.1600060909986496, -0.01431676559150219, -0.1665397584438324, 0.22551710903644562, -0.04222402721643448, 0.12173403799533844, 0.26081034541130066, 0.31400102376937866, 4.2944797314703465e-05, 0.18717283010482788, -0.026249371469020844, 0.03375094756484032, 0.04137054830789566, 0.21110372245311737, -0.2460835576057434, 0.21672473847866058, 0.3368819057941437, 0.29797473549842834, -0.15987351536750793, 0.10798535495996475, -0.09680874645709991, -0.15177258849143982, -0.15099965035915375, -0.055089693516492844, 0.020562777295708656, -0.2149658054113388, 0.17072512209415436, 0.2523294985294342, 0.3011876344680786, 0.32872092723846436, 0.2562100887298584, 0.10312332212924957, -0.078508660197258, -0.15830759704113007, -0.1076258048415184, -0.0789894238114357, -0.06382819265127182, 0.18276424705982208, 0.17638759315013885, 0.20832641422748566, -0.11425864696502686, 0.018616359680891037, -0.1777401864528656, 0.35027065873146057, 0.18800531327724457, 0.3194122314453125, -0.042950402945280075, 0.2491927146911621, -0.25439319014549255, 0.01994747295975685, 0.12722434103488922, 0.30007633566856384, 0.13523097336292267, -0.15901032090187073, 0.3519836664199829, -0.10784348100423813, 0.03406485915184021, -0.19503253698349, -0.1158374547958374, 0.16445203125476837, -0.15787920355796814, -0.15405558049678802, -0.09352302551269531, 0.2389288991689682, -0.027853133156895638, 0.17918331921100616, 0.1242627203464508, 0.23539261519908905, -0.1085408478975296, 0.18963898718357086, 0.09494464099407196, -0.22383467853069305, -0.121419258415699, 0.2254447340965271, 0.275084525346756, -0.16240185499191284, 0.07047555595636368, 0.15559925138950348, 0.21703839302062988, -0.1187179684638977, -0.15789037942886353, 0.24049381911754608, 0.10792265832424164, 0.23809950053691864, 0.08090188354253769, 0.25834983587265015, 0.2055441290140152, 0.21964994072914124, 0.2004813253879547, 0.04114411026239395, 0.05667448788881302, -0.12781961262226105, 0.2641998827457428, 0.1642758846282959, 0.3780483603477478, 0.007353585679084063], [-0.11976173520088196, -0.5753153562545776, 0.3977077305316925, -0.22965314984321594, -0.29874658584594727, -1.073327898979187, -0.3211812376976013, -0.24439707398414612, 0.21590647101402283, 0.49844467639923096, -1.3995853662490845, -0.8427442908287048, -1.0887858867645264, 0.035518255084753036, -1.1122246980667114, -1.2085633277893066, 0.5482378602027893, -0.59058678150177, -0.8622044324874878, 0.7067502737045288, -0.9282897114753723, -0.7295331954956055, -0.10413859039545059, 0.18807633221149445, 0.217417910695076, 0.04972164332866669, -0.8219658732414246, 0.0719093456864357, 0.45550236105918884, 0.48409944772720337, -0.4999369978904724, -1.152015209197998, -0.6740313768386841, 0.49270865321159363, 0.36908021569252014, -0.9738457798957825, 0.23688644170761108, -1.1140550374984741, -0.06204494461417198, -0.2549950182437897, -0.6131317615509033, -1.018978238105774, -0.37383490800857544, -0.7409079670906067, 0.42620399594306946, -1.0128635168075562, 0.30242645740509033, -0.7747063636779785, -0.029827643185853958, -0.49593937397003174, -0.5008903741836548, 0.41585561633110046, -0.7688747048377991, -0.11467236280441284, 0.04692044481635094, 0.5107837915420532, -0.7691941261291504, 0.006961796898394823, -0.5874508023262024, 0.06409651041030884, -0.08039750903844833, -0.6793458461761475, -1.0352002382278442, -0.036455731838941574, -0.5158587694168091, -0.3705943822860718, 0.4734289050102234, -0.2656310498714447, 0.020260846242308617, -0.9500988125801086, 0.12764549255371094, -0.9667948484420776, 0.014421570114791393, -0.08573628962039948, -0.075257807970047, -1.021423578262329, -0.9939023852348328, -1.0351656675338745, -1.1702147722244263, 0.1823480874300003, -0.05053187906742096, -0.6802788972854614, -0.8973981142044067, 0.054150260984897614, 0.49955636262893677, 0.5274631977081299, -1.1317389011383057, -0.32839664816856384, -0.3040615916252136, 0.21444419026374817, 0.39225101470947266, -0.8141263723373413, 0.6950443387031555, -0.11412975937128067, 0.15120702981948853, -1.2473899126052856, 0.043249696493148804, -0.9893707633018494, -1.065978765487671, -0.9832712411880493, 0.11385808885097504, -0.30164316296577454, -0.28795573115348816, 0.3049890398979187, -0.3122086524963379, -1.2806644439697266, -0.9168637990951538, -0.21828117966651917, -0.9046139121055603, -0.9881380200386047, 0.3157465159893036, 0.09341895580291748, 0.06829467415809631, 0.2448083609342575, -0.7594102025032043, -1.3421869277954102, 0.22599732875823975, -0.7858859896659851, 0.23522387444972992, -0.02850664220750332, -0.99252849817276, 0.5391457080841064, 0.524583101272583, -0.2563386857509613, -0.8529579043388367, -1.0868899822235107, -0.3215179443359375, 0.4580526053905487], [0.10895012319087982, -0.220814511179924, 0.04548483341932297, -0.47643768787384033, -0.07491331547498703, -0.15418586134910583, -0.41613098978996277, -0.2368483543395996, 0.24671870470046997, 0.3671441376209259, -0.39767247438430786, 0.04161643981933594, -0.39815568923950195, -0.22188422083854675, -0.195766419172287, -0.17611701786518097, 0.4020327627658844, -0.030093800276517868, -0.11096904426813126, 0.6082478761672974, -0.23309853672981262, -0.22768808901309967, 0.038540929555892944, 0.39132946729660034, 0.016194546595215797, 0.14006906747817993, -0.3090445101261139, 0.01857771724462509, 0.3365141451358795, 0.5404675006866455, -0.0323575921356678, -0.30789339542388916, -0.058919791132211685, 0.48529744148254395, 0.4050843417644501, -0.10589755326509476, 0.16809310019016266, -0.3032238483428955, 0.16323316097259521, -0.0426974892616272, -0.36844202876091003, -0.27169546484947205, -0.42292457818984985, -0.2505914568901062, 0.3081873059272766, -0.4705546498298645, 0.14852818846702576, -0.03525549918413162, 0.27297788858413696, 0.02877466008067131, -0.49340829253196716, 0.5662081241607666, -0.5799005031585693, -0.07636761665344238, 0.12202654033899307, 0.444290429353714, -0.2572944760322571, -0.3751368224620819, 0.022393682971596718, 0.1680334061384201, 0.25349897146224976, 0.026108209043741226, -0.35885781049728394, -0.006661735009402037, -0.3185608685016632, -0.44844406843185425, 0.4218198359012604, -0.37111297249794006, -0.0024031661450862885, -0.5443839430809021, 0.3025147616863251, -0.16748443245887756, 0.00915477704256773, -0.3509882688522339, -0.050761885941028595, -0.037599045783281326, -0.3546700179576874, -0.1534552276134491, -0.8167821764945984, 0.23400232195854187, -0.47354137897491455, -0.24750004708766937, -0.574270486831665, 0.32125425338745117, 0.5961934328079224, 0.4984188675880432, -0.13201767206192017, -0.03429252281785011, -0.18962882459163666, 0.05946303904056549, 0.18319547176361084, -0.29015839099884033, 0.6833503842353821, -0.16621124744415283, 0.12066628038883209, -0.1937313675880432, -0.13828904926776886, -0.2619263827800751, -0.43036097288131714, -0.11516240984201431, 0.09085752815008163, 0.052346810698509216, -0.19556862115859985, 0.15090914070606232, -0.46069106459617615, -0.3782576024532318, -0.05763561278581619, -0.24647104740142822, -0.5473301410675049, -0.3961004614830017, 0.29095566272735596, 0.03310383856296539, 0.08518654853105545, 0.3514714241027832, -0.06035986542701721, -0.2706781029701233, 0.4274226427078247, -0.01995863765478134, 0.35290607810020447, 0.23978695273399353, -0.3045456111431122, 0.5187926888465881, 0.43519291281700134, -0.5489004850387573, 0.04000451788306236, -0.23760606348514557, 0.06915677338838577, 0.4187888503074646], [-0.02546825259923935, -1.3572763204574585, 0.5695452690124512, 0.2759150266647339, -0.7879828214645386, -0.4087357223033905, 0.3171866238117218, 0.3074018955230713, 0.06202872842550278, 0.38902875781059265, -0.2606121599674225, -0.31710144877433777, -0.6205980777740479, 0.44924378395080566, -0.5565462112426758, -0.37139183282852173, 0.4193075895309448, -0.3144609034061432, -0.3996278941631317, 0.6236074566841125, -0.6527021527290344, -0.9530956745147705, -0.5612514615058899, 0.3147304654121399, -0.1811182051897049, -0.2627941966056824, -0.713300883769989, -0.21782226860523224, 0.45104849338531494, 0.5621019601821899, -0.790225625038147, -0.405036598443985, -0.3573591113090515, 0.39377591013908386, 0.3290242850780487, -0.2760220170021057, -0.04046202450990677, -0.6251929998397827, 0.11084960401058197, 0.0768807977437973, -1.3914916515350342, -0.4294916093349457, 0.2911731004714966, -0.8449575304985046, 0.7007701396942139, -0.8123605251312256, -0.04143008962273598, -0.24604150652885437, 0.09277807176113129, -0.24491789937019348, 0.17130757868289948, 0.45887333154678345, 0.06304214894771576, -0.41616618633270264, -0.13795606791973114, 0.5351136326789856, -0.7980197072029114, 0.5006548166275024, -0.3502752482891083, 0.03605072945356369, 0.05438803508877754, -0.04637989401817322, -0.6501774191856384, 0.3685015141963959, -1.0619041919708252, 0.25007110834121704, 0.31437021493911743, 0.3539653420448303, 0.39500918984413147, -0.9488721489906311, 0.3731468617916107, -0.3921058773994446, -0.30055543780326843, 0.40064871311187744, -0.4366145431995392, -0.333090215921402, -0.6926833987236023, -0.23985859751701355, -0.03637917339801788, 0.1367148756980896, 0.41487643122673035, -1.0713374614715576, 0.031830549240112305, 0.11782527714967728, 0.5234925746917725, 0.47159406542778015, -0.28697729110717773, -0.8145462870597839, -1.0570244789123535, 0.01033853180706501, 0.2106916606426239, -0.5737369060516357, 0.5655851364135742, 0.42601078748703003, -0.2481604963541031, -0.31748905777931213, 0.4230875074863434, -0.5966646671295166, -0.8319146037101746, -0.3961361050605774, -0.36024346947669983, -0.08533456921577454, 0.32098740339279175, 0.11093961447477341, 0.32986199855804443, -0.4009498059749603, -0.33595073223114014, 0.38172468543052673, -1.2462210655212402, -0.6488742828369141, 0.2220977246761322, -0.2243722379207611, -0.17470218241214752, 0.3074727952480316, -0.5501419305801392, -0.2232780158519745, 0.20850516855716705, -0.05189410224556923, 0.2573556900024414, 0.1820274144411087, -0.6948835253715515, 0.4949730634689331, 0.48734551668167114, 0.22176715731620789, -0.12127020955085754, -0.6647995710372925, -0.011037472635507584, 0.3234409987926483], [0.18148092925548553, -0.1835995763540268, 0.18936105072498322, -0.9268398880958557, -0.01228843629360199, 0.01786733791232109, -0.44490137696266174, -0.3565584421157837, 0.19310854375362396, 0.36690643429756165, -0.2898241877555847, 0.08757001161575317, -0.3016054332256317, -0.21468442678451538, -0.22075255215168, -0.16634739935398102, 0.28293517231941223, 0.0655001550912857, -0.12445709109306335, 0.5174924731254578, -0.24490973353385925, -0.17176614701747894, -0.014120976440608501, 0.35236313939094543, 0.02096734009683132, -0.02075638435781002, -0.3331378102302551, -0.03566892072558403, 0.336795449256897, 0.5436922311782837, -0.09303466975688934, -0.24521727859973907, 0.019916610792279243, 0.4121643602848053, 0.17943820357322693, 0.057900041341781616, 0.17589817941188812, -0.3061996400356293, 0.15168212354183197, 0.0069669084623456, -0.2721998989582062, -0.11584102362394333, -0.7790196537971497, -0.09812992811203003, 0.3277536928653717, -0.32215914130210876, 0.02547306753695011, -0.019400719553232193, 0.17848870158195496, 0.09745146334171295, -0.9243040680885315, 0.32829365134239197, -0.7424803376197815, -0.021520867943763733, -0.02013171650469303, 0.3796062469482422, -0.06263157725334167, -0.6749249696731567, -0.04759270325303078, 0.2636958360671997, 0.17134366929531097, -0.004663800820708275, -0.20221738517284393, -0.06734281033277512, -0.2059837132692337, -0.8304784893989563, 0.346846342086792, -0.6213042736053467, -0.11611531674861908, -0.29248449206352234, 0.30388227105140686, -0.026644442230463028, 0.023601481691002846, -0.3232578933238983, -0.014269575476646423, 0.011066424660384655, -0.11128705739974976, 8.941325359046459e-05, -0.755851686000824, 0.21894977986812592, -0.8542613387107849, -0.2663263976573944, -0.5980073809623718, 0.18151749670505524, 0.5057054162025452, 0.34079089760780334, -0.07870348542928696, -0.12219486385583878, -0.1232488676905632, -0.001926798140630126, 0.1181347668170929, -0.08639881759881973, 0.4964269697666168, -0.5429165959358215, -0.034140851348638535, -0.1504172533750534, -0.22351515293121338, -0.14632761478424072, -0.43398669362068176, -0.08463197201490402, 0.054226770997047424, 0.07898066937923431, -0.2613801956176758, 0.09117523580789566, -0.8808242082595825, -0.12637938559055328, -0.011507032439112663, -0.5502012968063354, -0.43033334612846375, -0.279542475938797, 0.27239301800727844, 0.06301474571228027, -0.026111697778105736, 0.3916170299053192, -0.029697448015213013, -0.2025877833366394, 0.3961036801338196, 0.06532273441553116, 0.269267201423645, 0.25511735677719116, -0.21755065023899078, 0.4667702913284302, 0.41020452976226807, -0.9160968065261841, 0.07649814337491989, -0.10574736446142197, 0.22427329421043396, 0.3434455394744873], [0.03451472893357277, -1.645732045173645, 0.9276512861251831, 0.24477066099643707, -1.159379243850708, -0.584190845489502, 0.1041807234287262, 0.2531318962574005, 0.2857469320297241, 0.7736724019050598, -0.5951957106590271, -0.37725603580474854, -1.197095274925232, 0.4908372759819031, -1.0039631128311157, -0.9499833583831787, 0.7508417963981628, -0.3133540749549866, -0.7228410840034485, 1.4470845460891724, -1.1394368410110474, -1.2381360530853271, -1.3115730285644531, 0.45171239972114563, -0.3736647069454193, -0.9683516621589661, -1.1263728141784668, -0.7836551070213318, 0.807278037071228, 1.0140031576156616, -0.9962343573570251, -0.8527625799179077, -0.4750403165817261, 1.1453313827514648, 0.7068203091621399, -0.5020631551742554, -0.09787580370903015, -1.0935394763946533, 0.2310953587293625, 0.1309558004140854, -1.5810446739196777, -0.736624002456665, 0.016752464696764946, -1.1363999843597412, 0.9865981340408325, -1.4268784523010254, -0.19852817058563232, -0.4030276834964752, 0.03553272783756256, -0.2609855532646179, -0.13150231540203094, 0.9190329313278198, -0.07598929852247238, -1.2606369256973267, -0.6751189827919006, 0.903692901134491, -1.1701338291168213, 0.4141020178794861, -0.46151164174079895, 0.17235465347766876, 0.09943371266126633, -0.310028612613678, -1.130942702293396, 0.35982874035835266, -1.358995795249939, -0.020632896572351456, 0.7198095917701721, 0.2190982550382614, 0.5100482106208801, -1.4994971752166748, 0.5389963984489441, -0.6830177307128906, -0.7867273092269897, 0.26712822914123535, -1.1149930953979492, -0.5434647798538208, -1.2082253694534302, -0.5024519562721252, -0.301369309425354, 0.2964853346347809, 0.2304261475801468, -1.4022800922393799, -0.18456101417541504, 0.27386945486068726, 1.1657544374465942, 1.2235307693481445, -0.37660834193229675, -1.0103996992111206, -1.5096276998519897, -0.17669494450092316, 0.36475512385368347, -0.9900011420249939, 1.4179402589797974, 0.37379181385040283, -0.7422358393669128, -0.5613289475440979, 0.4785095751285553, -1.0373735427856445, -1.5246118307113647, -0.5506979823112488, -1.0026845932006836, -0.07264236360788345, 0.1744072586297989, 0.3315657079219818, 0.14194729924201965, -0.8582529425621033, -0.6303945779800415, 0.23281782865524292, -1.9036331176757812, -1.3758398294448853, 0.4372261166572571, -0.9092310070991516, -0.9356098771095276, 0.4822971224784851, -0.887108325958252, -0.6457546353340149, 0.478841096162796, -0.3101564347743988, 0.4565422534942627, 0.34550076723098755, -1.1006734371185303, 1.107578158378601, 0.723366379737854, -0.07175005227327347, -0.2247466742992401, -1.1473804712295532, -0.03103497251868248, 0.7127135396003723], [-0.09670204669237137, -0.13933859765529633, -0.10662807524204254, -0.10229483246803284, 0.0022431674879044294, -0.11070811003446579, -0.06320217996835709, -0.011957849375903606, -0.047378454357385635, -0.026399223133921623, -0.02422216534614563, 0.0007056304602883756, 0.0414106547832489, 0.016918595880270004, -0.026516789570450783, -0.0028427429497241974, -0.042370595037937164, 0.05729711800813675, -0.024266758933663368, -0.1036321222782135, 0.002700079930946231, -0.04050939902663231, 0.04647403955459595, -0.0812339335680008, -0.11052308231592178, -0.084535151720047, -0.09491965919733047, -0.0003931342507712543, -0.007953639142215252, 0.02971310168504715, -0.03739366680383682, -0.05743566155433655, 0.02605561539530754, 0.008259260095655918, 0.0645594373345375, -0.08639999479055405, 0.01068564597517252, -0.05543141067028046, -0.006386835593730211, 0.017919698730111122, -0.009118643589317799, 0.03161276876926422, -0.07413988560438156, -0.05694640800356865, 0.012228449806571007, -0.047924499958753586, 0.050383977591991425, -0.03136705979704857, -0.0627855509519577, 0.05423509329557419, -0.08015088737010956, -0.07481101155281067, -0.11829903721809387, -0.10852014273405075, 0.04944499954581261, -0.0666099563241005, -0.029439397156238556, 0.005557247903198004, 0.057005222886800766, -0.007731675170361996, -0.026688046753406525, 0.02947356179356575, -0.1345975250005722, -0.05645008385181427, -0.13703535497188568, -0.13999313116073608, -0.09784200042486191, -0.016407882794737816, 0.0236393790692091, -0.07364839315414429, -0.018764933571219444, -0.06319399923086166, 0.020775027573108673, -0.024385685101151466, 0.008391779847443104, -0.09528069198131561, 0.0002898704260587692, 0.04230770841240883, -0.07472216337919235, -0.005799128208309412, -0.05675405263900757, 0.02044060453772545, 0.0020165620371699333, -0.0717926025390625, -0.01996755227446556, 0.05594849959015846, -0.034969646483659744, -0.04296815022826195, -0.02185918018221855, 0.06174258515238762, -0.03890024125576019, -0.005958965979516506, 0.03904552757740021, -0.020150702446699142, 0.022827155888080597, -0.0014905801508575678, -0.13901881873607635, 0.013228877447545528, 0.029422534629702568, -0.0009524465422146022, 0.013107221573591232, -0.06268151104450226, 0.015895243734121323, -0.0573597215116024, -0.01274989265948534, 0.027487097308039665, -0.031593356281518936, -0.08284766972064972, -0.0702258050441742, 0.0006017459672875702, -0.02171497605741024, -0.10841809958219528, 0.013134181499481201, 0.04708140343427658, -0.044465307146310806, -0.12428309768438339, -0.018472500145435333, -0.09250164777040482, -0.0352654866874218, -0.036032482981681824, -0.08771165460348129, -0.093948133289814, -0.10243839025497437, -0.08708764612674713, -0.045399729162454605, 0.035238053649663925, -0.006975728552788496, 0.03682394698262215], [0.31213873624801636, -0.11132319271564484, -0.08233333379030228, -0.20429407060146332, 0.027690095826983452, 0.22327958047389984, -0.041054558008909225, -0.11320213973522186, -0.09807456284761429, 0.22724270820617676, 0.07616838812828064, 0.2659704387187958, 0.08618482947349548, -0.04605897516012192, 0.23552390933036804, 0.28880828619003296, 0.14191284775733948, 0.3001907467842102, 0.18295985460281372, 0.041086893528699875, 0.1847594678401947, 0.08496037870645523, -0.11020306497812271, 0.2786566913127899, -0.10779572278261185, -0.2583555281162262, 0.1503915637731552, -0.19653035700321198, 0.19163468480110168, 0.12461509555578232, 0.07322675734758377, 0.17986716330051422, 0.23848074674606323, 0.08046113699674606, -0.0976840928196907, 0.19512341916561127, -0.12696053087711334, 0.20586444437503815, 0.24805592000484467, 0.18847057223320007, -0.16290909051895142, 0.26867008209228516, -0.18097472190856934, 0.06300868093967438, -0.06019435077905655, 0.024079466238617897, -0.1272941678762436, 0.24348598718643188, 0.24488231539726257, 0.2914663255214691, -0.03242991119623184, 0.1554867923259735, -0.08544905483722687, -0.16210366785526276, -0.23167724907398224, 0.24479174613952637, 0.11658801883459091, -0.26120516657829285, 0.2743656635284424, 0.21668680012226105, 0.3685065805912018, 0.27747640013694763, 0.13080257177352905, 0.01405822392553091, -0.004590434487909079, -0.037949297577142715, 0.08333965390920639, -0.10077353566884995, -0.031417690217494965, 0.020998962223529816, 0.11235526949167252, 0.19850681722164154, -0.0845460295677185, -0.1421494334936142, -0.12890049815177917, 0.2727035582065582, 0.09344328939914703, 0.2758496403694153, -0.0528772696852684, 0.24856561422348022, -0.21611997485160828, 0.03405418619513512, 0.03430593013763428, 0.33694446086883545, 0.18539826571941376, 0.155964195728302, 0.2336404174566269, -0.079969622194767, -0.06413329392671585, -0.06885530799627304, 0.14196506142616272, 0.19246427714824677, 0.09359956532716751, -0.08447401970624924, -0.22647078335285187, 0.2563014030456543, -0.09777776151895523, 0.2426937371492386, 0.05550762638449669, 0.16867755353450775, -0.26764968037605286, 0.32374629378318787, 0.041840873658657074, -0.08073070645332336, -0.03922921046614647, 0.24251523613929749, 0.2784392833709717, -0.12350469827651978, -0.014410348609089851, 0.16193516552448273, 0.318196177482605, -0.19329358637332916, -0.24926771223545074, 0.27343589067459106, 0.21303431689739227, 0.13360737264156342, 0.25687384605407715, 0.25137099623680115, 0.2630269229412079, 0.3323531746864319, 0.17285317182540894, 0.19341808557510376, 0.27808019518852234, -0.07327526062726974, 0.2421487420797348, 0.17866040766239166, 0.35076817870140076, 0.2343333661556244], [0.3458840548992157, -0.2726418972015381, 0.0025217458605766296, -0.26886868476867676, -0.12435360997915268, 0.2706577777862549, -0.0984528511762619, -0.15695077180862427, -0.08429733663797379, 0.2862585186958313, 0.13967539370059967, 0.24210451543331146, 0.06558000296354294, -0.12899328768253326, 0.2175310105085373, 0.2189125418663025, 0.35580673813819885, 0.3899506628513336, 0.22101739048957825, 0.206711545586586, 0.25696852803230286, 0.1041698083281517, -0.05179735645651817, 0.41016191244125366, -0.05636728182435036, -0.29583004117012024, 0.0187047328799963, -0.19603392481803894, 0.31521332263946533, 0.379168838262558, 0.03634974732995033, 0.1710154116153717, 0.23452921211719513, 0.3759027421474457, 0.015470672398805618, 0.37529507279396057, -0.0563148595392704, 0.08984925597906113, 0.33441832661628723, 0.26865172386169434, -0.1782938539981842, 0.24197255074977875, -0.18453463912010193, 0.06796517968177795, 0.023393873125314713, -0.007257714867591858, -0.18117865920066833, 0.2950320243835449, 0.3491348326206207, 0.2882493734359741, -0.2025349736213684, 0.3399595618247986, -0.09451563656330109, -0.2227403223514557, -0.21197406947612762, 